{"learner":{"attributes":{"best_iteration":"385","best_score":"73.90715925348782","scikit_learn":"{\"_estimator_type\": \"regressor\"}"},"feature_names":["county","is_business","product_type","is_consumption","prediction_unit_id","year","quarter","month","week","hour","day_of_year","day_of_month","day_of_week","eic_count_client","installed_capacity_client","temperature_h_mean","dewpoint_h_mean","rain_h_mean","snowfall_h_mean","surface_pressure_h_mean","cloudcover_total_h_mean","cloudcover_low_h_mean","cloudcover_mid_h_mean","cloudcover_high_h_mean","windspeed_10m_h_mean","winddirection_10m_h_mean","shortwave_radiation_h_mean","direct_solar_radiation_h_mean","diffuse_radiation_h_mean","Unnamed: 0_h_mean","temperature_f_mean","dewpoint_f_mean","cloudcover_high_f_mean","cloudcover_low_f_mean","cloudcover_mid_f_mean","cloudcover_total_f_mean","10_metre_u_wind_component_f_mean","10_metre_v_wind_component_f_mean","direct_solar_radiation_f_mean","surface_solar_radiation_downwards_f_mean","snowfall_f_mean","total_precipitation_f_mean","Unnamed: 0_f_mean","euros_per_mwh_electricity","lowest_price_per_mwh_gas","highest_price_per_mwh_gas","mean_price_per_mwh_gas","target_2_days_ago","target_3_days_ago","target_4_days_ago","target_5_days_ago","target_6_days_ago","target_7_days_ago","target_8_days_ago","target_9_days_ago","target_10_days_ago","target_11_days_ago","target_12_days_ago","target_13_days_ago","target_14_days_ago","target_15_days_ago"],"feature_types":["c","c","c","c","int","int","int","int","int","int","int","int","int","float","float","float","float","float","float","float","float","float","float","float","float","float","float","float","float","float","float","float","float","float","float","float","float","float","float","float","float","float","float","float","float","float","float","float","float","float","float","float","float","float","float","float","float","float","float","float","float"],"gradient_booster":{"model":{"gbtree_model_param":{"num_parallel_tree":"1","num_trees":"486"},"iteration_indptr":[0,1,2,3,4,5,6,7,8,9,10,11,12,13,14,15,16,17,18,19,20,21,22,23,24,25,26,27,28,29,30,31,32,33,34,35,36,37,38,39,40,41,42,43,44,45,46,47,48,49,50,51,52,53,54,55,56,57,58,59,60,61,62,63,64,65,66,67,68,69,70,71,72,73,74,75,76,77,78,79,80,81,82,83,84,85,86,87,88,89,90,91,92,93,94,95,96,97,98,99,100,101,102,103,104,105,106,107,108,109,110,111,112,113,114,115,116,117,118,119,120,121,122,123,124,125,126,127,128,129,130,131,132,133,134,135,136,137,138,139,140,141,142,143,144,145,146,147,148,149,150,151,152,153,154,155,156,157,158,159,160,161,162,163,164,165,166,167,168,169,170,171,172,173,174,175,176,177,178,179,180,181,182,183,184,185,186,187,188,189,190,191,192,193,194,195,196,197,198,199,200,201,202,203,204,205,206,207,208,209,210,211,212,213,214,215,216,217,218,219,220,221,222,223,224,225,226,227,228,229,230,231,232,233,234,235,236,237,238,239,240,241,242,243,244,245,246,247,248,249,250,251,252,253,254,255,256,257,258,259,260,261,262,263,264,265,266,267,268,269,270,271,272,273,274,275,276,277,278,279,280,281,282,283,284,285,286,287,288,289,290,291,292,293,294,295,296,297,298,299,300,301,302,303,304,305,306,307,308,309,310,311,312,313,314,315,316,317,318,319,320,321,322,323,324,325,326,327,328,329,330,331,332,333,334,335,336,337,338,339,340,341,342,343,344,345,346,347,348,349,350,351,352,353,354,355,356,357,358,359,360,361,362,363,364,365,366,367,368,369,370,371,372,373,374,375,376,377,378,379,380,381,382,383,384,385,386,387,388,389,390,391,392,393,394,395,396,397,398,399,400,401,402,403,404,405,406,407,408,409,410,411,412,413,414,415,416,417,418,419,420,421,422,423,424,425,426,427,428,429,430,431,432,433,434,435,436,437,438,439,440,441,442,443,444,445,446,447,448,449,450,451,452,453,454,455,456,457,458,459,460,461,462,463,464,465,466,467,468,469,470,471,472,473,474,475,476,477,478,479,480,481,482,483,484,485,486],"tree_info":[0,0,0,0,0,0,0,0,0,0,0,0,0,0,0,0,0,0,0,0,0,0,0,0,0,0,0,0,0,0,0,0,0,0,0,0,0,0,0,0,0,0,0,0,0,0,0,0,0,0,0,0,0,0,0,0,0,0,0,0,0,0,0,0,0,0,0,0,0,0,0,0,0,0,0,0,0,0,0,0,0,0,0,0,0,0,0,0,0,0,0,0,0,0,0,0,0,0,0,0,0,0,0,0,0,0,0,0,0,0,0,0,0,0,0,0,0,0,0,0,0,0,0,0,0,0,0,0,0,0,0,0,0,0,0,0,0,0,0,0,0,0,0,0,0,0,0,0,0,0,0,0,0,0,0,0,0,0,0,0,0,0,0,0,0,0,0,0,0,0,0,0,0,0,0,0,0,0,0,0,0,0,0,0,0,0,0,0,0,0,0,0,0,0,0,0,0,0,0,0,0,0,0,0,0,0,0,0,0,0,0,0,0,0,0,0,0,0,0,0,0,0,0,0,0,0,0,0,0,0,0,0,0,0,0,0,0,0,0,0,0,0,0,0,0,0,0,0,0,0,0,0,0,0,0,0,0,0,0,0,0,0,0,0,0,0,0,0,0,0,0,0,0,0,0,0,0,0,0,0,0,0,0,0,0,0,0,0,0,0,0,0,0,0,0,0,0,0,0,0,0,0,0,0,0,0,0,0,0,0,0,0,0,0,0,0,0,0,0,0,0,0,0,0,0,0,0,0,0,0,0,0,0,0,0,0,0,0,0,0,0,0,0,0,0,0,0,0,0,0,0,0,0,0,0,0,0,0,0,0,0,0,0,0,0,0,0,0,0,0,0,0,0,0,0,0,0,0,0,0,0,0,0,0,0,0,0,0,0,0,0,0,0,0,0,0,0,0,0,0,0,0,0,0,0,0,0,0,0,0,0,0,0,0,0,0,0,0,0,0,0,0,0,0,0,0,0,0,0,0,0,0,0,0,0,0,0,0,0,0,0,0,0,0,0,0,0,0,0,0,0,0,0,0,0,0,0,0,0,0,0,0,0,0,0,0,0,0,0,0,0,0,0,0,0,0,0,0,0,0,0,0,0,0,0,0],"trees":[{"base_weights":[3.691327E-6,-8.6650306E-1,8.6906576E-1,-9.3281686E-1,-4.438613E-2,1.7202099E-1,9.309172E-1,-9.642352E-1,-4.6685043E-1,-2.9646474E-1,3.1279412E-1,-6.500323E-2,4.101738E-1,5.346147E-1,9.545856E-1,-9.754542E-1,-6.621782E-1,-6.6901E-1,-2.6899084E-1,-4.5773602E-1,-5.5251937E-2,-3.095895E-2,5.3758955E-1,-2.734856E-1,1.13913715E-1,1.5069385E-1,5.5576736E-1,2.4072053E-1,6.3874763E-1,9.820588E-1,8.233439E-1,-9.8073167E-1,-7.222359E-1,-8.2842094E-1,-4.9006075E-1,-8.079621E-1,-4.673748E-1,-4.367803E-1,2.2436835E-2,-5.520799E-1,-2.003891E-1,-2.5563434E-1,1.2554261E-1,4.0985242E-1,-3.667021E-1,3.090503E-1,7.9553366E-1,-6.3771024E-2,-4.4225523E-1,2.313375E-1,-1.388973E-1,-9.753425E-2,3.132026E-1,3.9352366E-1,6.3497525E-1,4.6044657E-1,3.051106E-2,3.5039654E-1,7.070828E-1,7.483218E-1,9.880572E-1,3.1321877E-1,9.230018E-1,-2.979948E-1,-2.738853E-1,-2.5227636E-1,-1.858917E-1,-2.588196E-1,-1.5756385E-1,-1.8001024E-1,-7.2615608E-3,-2.6156202E-1,-1.9684583E-1,-1.0465366E-1,-2.4678802E-1,-1.5973732E-1,-3.0349481E-3,3.5679124E-2,-1.9018267E-1,-2.0464005E-1,-1.1558978E-1,-2.5062094E-2,-1.2897073E-1,-4.9759615E-3,-1.5645894E-1,-6.1653543E-2,1.1417594E-1,5.0122548E-2,1.9236465E-1,-1.7643006E-1,6.7391306E-2,-1.1327331E-2,1.5279317E-1,1.8945959E-1,2.5670663E-1,-1.4933294E-1,7.646931E-2,-6.284008E-2,-1.9137067E-1,1.3671222E-1,7.5334148E-3,1.0653619E-1,-1.549706E-1,-7.326255E-2,2.8505068E-2,2.9599179E-2,1.2845334E-1,1.6417868E-1,8.340546E-2,1.21997625E-1,2.027841E-1,1.01803616E-1,2.297191E-1,1.3444369E-1,-9.097147E-2,1.4697842E-1,4.197397E-2,1.0442584E-1,2.222156E-1,2.4682261E-1,1.4389582E-1,2.133056E-1,2.9720977E-1,1.668809E-2,2.1140656E-1,2.2924711E-1,2.8855896E-1],"categories":[0,0,0,2,0,0,0,0,0,0,0],"categories_nodes":[14,21,36,38,41,42,45,47,48,50,56],"categories_segments":[0,1,2,3,4,5,6,7,8,9,10],"categories_sizes":[1,1,1,1,1,1,1,1,1,1,1],"default_left":[1,1,0,0,1,1,0,1,0,1,1,1,0,1,1,1,1,0,0,1,0,1,1,0,0,0,0,0,0,0,1,1,1,0,0,0,1,1,1,0,0,1,1,1,1,1,0,1,1,0,1,0,0,0,0,0,1,1,0,0,0,1,0,0,0,0,0,0,0,0,0,0,0,0,0,0,0,0,0,0,0,0,0,0,0,0,0,0,0,0,0,0,0,0,0,0,0,0,0,0,0,0,0,0,0,0,0,0,0,0,0,0,0,0,0,0,0,0,0,0,0,0,0,0,0,0,0],"id":0,"left_children":[1,3,5,7,9,11,13,15,17,19,21,23,25,27,29,31,33,35,37,39,41,43,45,47,49,51,53,55,57,59,61,63,65,67,69,71,73,75,77,79,81,83,85,87,89,91,93,95,97,99,101,103,105,107,109,111,113,115,117,119,121,123,125,-1,-1,-1,-1,-1,-1,-1,-1,-1,-1,-1,-1,-1,-1,-1,-1,-1,-1,-1,-1,-1,-1,-1,-1,-1,-1,-1,-1,-1,-1,-1,-1,-1,-1,-1,-1,-1,-1,-1,-1,-1,-1,-1,-1,-1,-1,-1,-1,-1,-1,-1,-1,-1,-1,-1,-1,-1,-1,-1,-1,-1,-1,-1,-1],"loss_changes":[1.428034E6,5.1768E4,4.0818312E4,1.28634375E4,6.381771E3,4.3558354E3,8.1563125E3,2.7889375E3,2.2200156E3,1.616415E3,2.2661572E3,1.4426486E3,1.4540527E3,1.4997822E3,2.957875E3,1.06E3,8.431992E2,7.6881934E2,1.3717594E3,6.045117E2,6.0326526E2,1.7163513E3,1.0450029E3,6.3216943E2,6.179172E2,5.5816425E2,3.16604E2,5.923071E2,7.1281836E2,9.50625E2,7.22125E3,6.6225E2,1.9683984E2,1.5555664E2,7.4223047E2,1.5710938E2,4.7144604E2,7.2675E2,6.4933636E2,3.9497998E2,1.791643E2,5.020019E2,7.392081E2,2.815276E2,8.619884E2,6.5307513E2,8.162988E1,1.1018562E3,4.5061865E2,6.5763727E2,1.231961E3,1.5464977E2,2.062201E2,1.4352502E2,1.5469238E2,2.3154358E2,9.1380597E2,2.036059E2,3.5298828E2,3.391504E2,4.835625E2,2.3411492E3,7.328125E2,0E0,0E0,0E0,0E0,0E0,0E0,0E0,0E0,0E0,0E0,0E0,0E0,0E0,0E0,0E0,0E0,0E0,0E0,0E0,0E0,0E0,0E0,0E0,0E0,0E0,0E0,0E0,0E0,0E0,0E0,0E0,0E0,0E0,0E0,0E0,0E0,0E0,0E0,0E0,0E0,0E0,0E0,0E0,0E0,0E0,0E0,0E0,0E0,0E0,0E0,0E0,0E0,0E0,0E0,0E0,0E0,0E0,0E0,0E0,0E0,0E0,0E0,0E0,0E0],"parents":[2147483647,0,0,1,1,2,2,3,3,4,4,5,5,6,6,7,7,8,8,9,9,10,10,11,11,12,12,13,13,14,14,15,15,16,16,17,17,18,18,19,19,20,20,21,21,22,22,23,23,24,24,25,25,26,26,27,27,28,28,29,29,30,30,31,31,32,32,33,33,34,34,35,35,36,36,37,37,38,38,39,39,40,40,41,41,42,42,43,43,44,44,45,45,46,46,47,47,48,48,49,49,50,50,51,51,52,52,53,53,54,54,55,55,56,56,57,57,58,58,59,59,60,60,61,61,62,62],"right_children":[2,4,6,8,10,12,14,16,18,20,22,24,26,28,30,32,34,36,38,40,42,44,46,48,50,52,54,56,58,60,62,64,66,68,70,72,74,76,78,80,82,84,86,88,90,92,94,96,98,100,102,104,106,108,110,112,114,116,118,120,122,124,126,-1,-1,-1,-1,-1,-1,-1,-1,-1,-1,-1,-1,-1,-1,-1,-1,-1,-1,-1,-1,-1,-1,-1,-1,-1,-1,-1,-1,-1,-1,-1,-1,-1,-1,-1,-1,-1,-1,-1,-1,-1,-1,-1,-1,-1,-1,-1,-1,-1,-1,-1,-1,-1,-1,-1,-1,-1,-1,-1,-1,-1,-1,-1,-1],"split_conditions":[2.9152E1,2.76E1,3.1667E1,2.3862E1,3.3361E1,2.7592E1,3.6083E1,2.3879E1,8.792133E1,3.0825E1,1.5046686E2,2.9978E1,3.0001E1,2.9196E1,NaN,2.2439E1,7.550878E1,2.3153E1,4.2821E1,2.6861E1,1.1785639E2,NaN,7.0008E1,1.11262E-6,7.45519E-1,2.9159E1,2.9204E1,8.5905457E-1,2.9978E1,3.887E1,8.72325E1,6.22571E1,5.4928394E1,2.4581E1,6.5644E1,5.1E1,NaN,3.4289E1,NaN,1.2057121E2,7.2580975E-1,NaN,NaN,3.8006E1,9.9973335E1,NaN,6.4262E1,NaN,NaN,2.84E0,NaN,1.3096306E2,2.5393E1,3E0,3.5175E1,7.2785E1,NaN,4.0133667E-1,2.6131E1,2.8919083E2,2.9196E1,2.30039E2,2.8919083E2,-8.8689E0,-6.9189E0,-3.2343001E0,-3.84525E0,-5.5035E0,-1.4716501E0,-4.05135E0,-4.8239997E-1,-5.2641006E0,-6.5751004E0,-9.372002E-1,-8.838901E0,-3.3149998E0,-8.759995E-2,2.2995005E0,-6.9897003E0,-4.4248505E0,-2.5644002E0,-2.8905E-1,-2.4276E0,-5.849991E-2,-4.7161503E0,-1.2564E0,5.0838E0,5.385001E-1,4.9041004E0,-5.5020003E0,2.7135007E0,-2.479497E-1,7.1287503E0,1.2298201E1,2.99952E1,-1.8258002E0,2.5056005E0,-7.439999E-1,-6.50925E0,4.75605E0,1.7685014E-1,1.4111996E0,-6.0309005E0,-1.0046997E0,7.308003E-1,7.309502E-1,2.4990005E0,5.0649E0,1.9397999E0,9.999001E-1,8.1984005E0,1.7641503E0,2.2489202E1,1.6193997E0,-3.5630999E0,3.2100003E0,8.5200006E-1,4.0251E0,5.7582E0,3.0415502E0,2.6882997E0,5.58825E0,6.07104E1,7.013998E-1,2.1158098E1,2.759955E1,7.4088005E1],"split_indices":[47,52,52,49,49,59,50,58,39,58,39,48,50,59,3,48,39,47,48,48,39,3,59,41,33,48,53,35,48,47,38,39,39,47,58,13,3,51,2,38,33,3,3,58,38,3,51,3,3,16,3,39,53,12,47,47,3,33,53,38,59,50,38,0,0,0,0,0,0,0,0,0,0,0,0,0,0,0,0,0,0,0,0,0,0,0,0,0,0,0,0,0,0,0,0,0,0,0,0,0,0,0,0,0,0,0,0,0,0,0,0,0,0,0,0,0,0,0,0,0,0,0,0,0,0,0,0],"split_type":[0,0,0,0,0,0,0,0,0,0,0,0,0,0,1,0,0,0,0,0,0,1,0,0,0,0,0,0,0,0,0,0,0,0,0,0,1,0,1,0,0,1,1,0,0,1,0,1,1,0,1,0,0,0,0,0,1,0,0,0,0,0,0,0,0,0,0,0,0,0,0,0,0,0,0,0,0,0,0,0,0,0,0,0,0,0,0,0,0,0,0,0,0,0,0,0,0,0,0,0,0,0,0,0,0,0,0,0,0,0,0,0,0,0,0,0,0,0,0,0,0,0,0,0,0,0,0],"sum_hessian":[1.896336E6,9.49564E5,9.46772E5,8.78687E5,7.0877E4,7.7164E4,8.69608E5,8.23182E5,5.5505E4,4.1552E4,2.9325E4,3.8674E4,3.849E4,4.901E4,8.20598E5,7.937E5,2.9482E4,2.7453E4,2.8052E4,2.4902E4,1.665E4,1.1595E4,1.773E4,1.7861E4,2.0813E4,1.3835E4,2.4655E4,1.2823E4,3.6187E4,6.78549E5,1.42049E5,7.77493E5,1.6207E4,1.4995E4,1.4487E4,1.6251E4,1.1202E4,1.7802E4,1.025E4,1.8221E4,6.681E3,7.897E3,8.753E3,5.013E3,6.582E3,9.402E3,8.328E3,7.965E3,9.896E3,1.4212E4,6.601E3,5.474E3,8.361E3,8.09E3,1.6565E4,6.269E3,6.554E3,6.934E3,2.9253E4,1.6981E4,6.61568E5,2.3216E4,1.18833E5,6.55735E5,1.21758E5,7.511E3,8.696E3,1.3469E4,1.526E3,1.172E4,2.767E3,1.1433E4,4.818E3,8.401E3,2.801E3,1.4541E4,3.261E3,8.937E3,1.313E3,1.0236E4,7.985E3,4.428E3,2.253E3,4.159E3,3.738E3,3.809E3,4.944E3,2.447E3,2.566E3,4.789E3,1.793E3,3.442E3,5.96E3,2.238E3,6.09E3,3.372E3,4.593E3,4.52E3,5.376E3,6.806E3,7.406E3,2.86E3,3.741E3,3.107E3,2.367E3,2.918E3,5.443E3,3.469E3,4.621E3,2.522E3,1.4043E4,4.49E3,1.779E3,2.911E3,3.643E3,4.169E3,2.765E3,2.507E3,2.6746E4,1.3296E4,3.685E3,6.252E3,6.55316E5,1.4003E4,9.213E3,2.3362E4,9.5471E4],"tree_param":{"num_deleted":"0","num_feature":"61","num_nodes":"127","size_leaf_vector":"1"}},{"base_weights":[-1.6806823E-1,-6.9627863E-1,8.549405E-1,-9.2311966E-1,-2.7482325E-1,3.0913195E-1,9.338203E-1,-9.56033E-1,-3.6449444E-1,-3.4853238E-1,4.3877077E-1,1.11327775E-1,5.481407E-1,6.526454E-1,9.585689E-1,-9.6985537E-1,-5.395313E-1,-6.3447225E-1,-1.9037923E-1,-1.9086052E-1,-5.181417E-1,2.2061652E-1,6.7528105E-1,2.4282199E-1,-1.11037396E-1,3.8646606E-1,6.441336E-1,4.4531032E-1,7.1672356E-1,9.806136E-1,8.268949E-1,-9.757623E-1,-5.4396147E-1,-6.559451E-1,-3.8292614E-1,-7.2052723E-1,-4.4013956E-1,-3.198658E-1,2.4172185E-1,-4.1582218E-1,7.691406E-2,2.9300466E-1,-6.590194E-1,-3.4830652E-3,3.642593E-1,4.885276E-1,7.936165E-1,8.517712E-2,4.6964163E-1,-3.1127942E-1,2.792104E-1,7.379406E-1,3.2112384E-1,4.4513917E-1,6.9828105E-1,3.377734E-1,6.5542763E-1,8.345849E-1,6.36517E-1,7.657304E-1,9.855266E-1,3.0482963E-1,8.7307906E-1,-2.9761833E-1,-2.64831E-1,-2.288707E-1,-9.302562E-2,-2.1970427E-1,-1.5987462E-1,-2.4182084E-1,-7.882291E-3,-2.2154802E-1,9.198113E-2,-7.233264E-2,-1.6429986E-1,-1.3215955E-1,1.2537001E-3,2.8837329E-2,1.4324659E-1,-1.7807332E-1,-7.41139E-2,-2.1164592E-2,6.1579704E-2,-1.6032245E-2,1.2016406E-1,8.224152E-2,-2.1878907E-1,-5.5689692E-2,8.329262E-2,8.536419E-2,2.0011088E-1,2.047059E-1,1.05732776E-1,2.7284098E-1,2.0349686E-1,-7.078176E-3,1.1271638E-1,1.8775067E-1,9.000544E-2,-3.0367395E-2,-1.508111E-1,1.3588288E-1,7.1146246E-3,2.3457526E-1,3.5416666E-2,5.1794376E-2,1.69592E-1,2.5469545E-1,1.1062095E-1,1.745834E-1,2.3076311E-1,1.5320212E-1,4.8241638E-2,3.74502E-2,2.3794891E-1,1.8714707E-1,2.7041152E-1,2.188659E-1,1.3414243E-1,1.4162011E-1,2.4905452E-1,2.5404358E-1,2.9677308E-1,-3.6162734E-2,1.5406805E-1,2.1712084E-1,2.8290743E-1],"categories":[0,0,0,3,6,9,10,13,15,0,0],"categories_nodes":[14,34,36,49,55,56],"categories_segments":[0,1,2,3,9,10],"categories_sizes":[1,1,1,6,1,1],"default_left":[1,0,0,1,1,1,0,1,1,1,1,0,0,0,1,1,1,1,1,1,0,0,1,1,0,1,0,0,0,0,0,1,0,0,1,1,1,0,0,0,1,1,0,1,1,0,0,1,0,1,0,1,0,0,0,1,1,0,0,1,1,0,1,0,0,0,0,0,0,0,0,0,0,0,0,0,0,0,0,0,0,0,0,0,0,0,0,0,0,0,0,0,0,0,0,0,0,0,0,0,0,0,0,0,0,0,0,0,0,0,0,0,0,0,0,0,0,0,0,0,0,0,0,0,0,0,0],"id":1,"left_children":[1,3,5,7,9,11,13,15,17,19,21,23,25,27,29,31,33,35,37,39,41,43,45,47,49,51,53,55,57,59,61,63,65,67,69,71,73,75,77,79,81,83,85,87,89,91,93,95,97,99,101,103,105,107,109,111,113,115,117,119,121,123,125,-1,-1,-1,-1,-1,-1,-1,-1,-1,-1,-1,-1,-1,-1,-1,-1,-1,-1,-1,-1,-1,-1,-1,-1,-1,-1,-1,-1,-1,-1,-1,-1,-1,-1,-1,-1,-1,-1,-1,-1,-1,-1,-1,-1,-1,-1,-1,-1,-1,-1,-1,-1,-1,-1,-1,-1,-1,-1,-1,-1,-1,-1,-1,-1],"loss_changes":[1.02471256E6,1.1956231E5,2.7800406E4,1.4947875E4,2.3016898E4,3.8548052E3,3.925375E3,4.419625E3,2.1263926E3,1.0606715E4,2.1136763E3,1.3045869E3,5.7278125E2,6.0610547E2,1.5044062E3,1.8689375E3,4.4939795E2,2.962876E2,1.5389055E3,1.238204E4,2.1835262E4,6.860729E2,4.3402344E2,1.00247754E3,1.2957147E3,3.157312E2,2.4930469E2,2.4333423E2,3.2907617E2,4.681875E2,1.7929023E3,1.1100625E3,5.2041626E2,1.3257861E2,1.5874519E3,2.2703906E2,1.16418335E2,8.2746094E2,2.1765616E2,3.3510684E3,1.7762258E3,1.0535146E3,1.0676875E4,4.2639868E2,3.1327502E2,2.0093494E2,1.6008301E2,5.2278217E2,3.0438916E2,4.4056555E2,2.4958182E2,5.868152E1,4.2057214E2,1.5266553E2,1.4980566E2,2.1814148E2,2.6650232E2,1.9813477E2,3.6529785E2,1.8760938E2,2.230625E2,5.36875E2,7.1304297E2,0E0,0E0,0E0,0E0,0E0,0E0,0E0,0E0,0E0,0E0,0E0,0E0,0E0,0E0,0E0,0E0,0E0,0E0,0E0,0E0,0E0,0E0,0E0,0E0,0E0,0E0,0E0,0E0,0E0,0E0,0E0,0E0,0E0,0E0,0E0,0E0,0E0,0E0,0E0,0E0,0E0,0E0,0E0,0E0,0E0,0E0,0E0,0E0,0E0,0E0,0E0,0E0,0E0,0E0,0E0,0E0,0E0,0E0,0E0,0E0,0E0,0E0,0E0,0E0],"parents":[2147483647,0,0,1,1,2,2,3,3,4,4,5,5,6,6,7,7,8,8,9,9,10,10,11,11,12,12,13,13,14,14,15,15,16,16,17,17,18,18,19,19,20,20,21,21,22,22,23,23,24,24,25,25,26,26,27,27,28,28,29,29,30,30,31,31,32,32,33,33,34,34,35,35,36,36,37,37,38,38,39,39,40,40,41,41,42,42,43,43,44,44,45,45,46,46,47,47,48,48,49,49,50,50,51,51,52,52,53,53,54,54,55,55,56,56,57,57,58,58,59,59,60,60,61,61,62,62],"right_children":[2,4,6,8,10,12,14,16,18,20,22,24,26,28,30,32,34,36,38,40,42,44,46,48,50,52,54,56,58,60,62,64,66,68,70,72,74,76,78,80,82,84,86,88,90,92,94,96,98,100,102,104,106,108,110,112,114,116,118,120,122,124,126,-1,-1,-1,-1,-1,-1,-1,-1,-1,-1,-1,-1,-1,-1,-1,-1,-1,-1,-1,-1,-1,-1,-1,-1,-1,-1,-1,-1,-1,-1,-1,-1,-1,-1,-1,-1,-1,-1,-1,-1,-1,-1,-1,-1,-1,-1,-1,-1,-1,-1,-1,-1,-1,-1,-1,-1,-1,-1,-1,-1,-1,-1,-1,-1],"split_conditions":[9.0536E1,1.5823E1,1.00995E2,1.8639E1,1.0544E2,9.0588E1,1.07711E2,1.6368E1,9.1204895E1,3.983E1,1.1991E2,5E0,9.0589E1,9.4571E1,NaN,2.1784E1,2.0231638E2,1.6368E1,5.5785E1,2.612E1,3.6083E1,1.05718445E2,1.4688E2,9.6698E1,2.7E1,-2.0710206E0,1.05469E2,4.5035995E2,3.284515E1,1.07739E2,1.4056784E2,5.4928394E1,1.05718445E2,4.1E1,NaN,1.3416667E2,NaN,2.7584E1,1.19818E2,1.9816E1,3.254E1,2.0481E1,3.1667E1,9.053E1,1.92357E2,2E0,2E0,4.1748676E2,3.5559082E-1,NaN,6.246236E-1,6.047272E2,3.7284445E2,-3.0302734E0,2.6E1,NaN,NaN,1.05469E2,3.6415863E-1,9.6678E1,1.05424E2,7.1E1,2.13068E2,-6.20823E0,-5.24673E0,-5.9809127E0,-2.7561448E0,-2.5725298E0,-3.9056249E0,-3.7392302E0,-1.5648022E-1,-5.025345E0,1.89915E0,-6.408297E-1,-4.546335E0,-2.7828302E0,3.923235E-2,1.4567403E0,1.448205E1,-2.1981301E0,-8.1880504E-1,-2.1782972E-1,9.379504E-1,-6.31485E-1,2.6429696E0,2.6133306E0,-8.12022E0,-1.990019E0,2.3785813E0,5.9569807E0,3.0139982E1,1.6159029E1,1.0085489E1,4.1945583E1,3.7810684E1,-2.069996E-1,1.0692615E1,1.4845979E1,3.0114305E0,-1.1488198E0,-5.884988E0,7.1907306E0,2.3987962E-1,6.538531E0,3.0181801E0,2.1167698E0,2.2716568E1,5.128981E0,2.2327802E0,9.510931E0,2.1138391E1,4.1214294E0,2.9801996E0,2.6514525E0,3.1493702E1,3.679381E0,9.37683E0,2.9962145E1,1.1755124E1,4.1197796E0,8.200081E0,2.2460432E1,1.0510174E2,-1.5256202E0,1.426218E1,3.348207E1,1.2061396E2],"split_indices":[47,48,52,51,52,59,59,47,39,47,49,12,53,49,3,52,38,47,59,51,50,39,59,49,13,30,47,38,39,47,39,39,39,13,3,27,3,49,59,47,59,53,52,49,58,12,12,38,33,0,33,38,38,30,13,3,3,47,33,50,51,13,53,0,0,0,0,0,0,0,0,0,0,0,0,0,0,0,0,0,0,0,0,0,0,0,0,0,0,0,0,0,0,0,0,0,0,0,0,0,0,0,0,0,0,0,0,0,0,0,0,0,0,0,0,0,0,0,0,0,0,0,0,0,0,0,0],"split_type":[0,0,0,0,0,0,0,0,0,0,0,0,0,0,1,0,0,0,0,0,0,0,0,0,0,0,0,0,0,0,0,0,0,0,1,0,1,0,0,0,0,0,0,0,0,0,0,0,0,1,0,0,0,0,0,1,1,0,0,0,0,0,0,0,0,0,0,0,0,0,0,0,0,0,0,0,0,0,0,0,0,0,0,0,0,0,0,0,0,0,0,0,0,0,0,0,0,0,0,0,0,0,0,0,0,0,0,0,0,0,0,0,0,0,0,0,0,0,0,0,0,0,0,0,0,0,0],"sum_hessian":[1.896336E6,1.250609E6,6.45727E5,8.13016E5,4.37593E5,8.1537E4,5.6419E5,7.67779E5,4.5237E4,3.96625E5,4.0968E4,4.4615E4,3.6922E4,4.5644E4,5.18546E5,7.43116E5,2.4663E4,1.7735E4,2.7502E4,2.05547E5,1.91078E5,2.1312E4,1.9656E4,2.8036E4,1.6579E4,1.3757E4,2.3165E4,1.0778E4,3.4866E4,4.44176E5,7.437E4,7.32949E5,1.0167E4,1.4145E4,1.0518E4,1.229E4,5.445E3,2.1161E4,6.341E3,1.11703E5,9.3844E4,2.8275E4,1.62803E5,8.325E3,1.2987E4,7.626E3,1.203E4,1.6541E4,1.1495E4,1.0957E4,5.622E3,2.155E3,1.1602E4,4.957E3,1.8208E4,7.131E3,3.647E3,1.4115E4,2.0751E4,9.932E3,4.34244E5,6.045E3,6.8325E4,6.23635E5,1.09314E5,5.25E3,4.917E3,8.723E3,5.422E3,4.81E3,5.708E3,1.2079E4,2.11E2,1.911E3,3.534E3,1.5419E4,5.742E3,3.921E3,2.42E3,5.4403E4,5.73E4,4.3671E4,5.0173E4,6.698E3,2.1577E4,1.1402E4,1.51401E5,5.052E3,3.273E3,1.0282E4,2.705E3,3.144E3,4.482E3,5.997E3,6.033E3,1.2036E4,4.505E3,5.983E3,5.512E3,5.225E3,5.732E3,3.346E3,2.276E3,2.012E3,1.43E2,7.216E3,4.386E3,7.87E2,4.17E3,6.9E3,1.1308E4,3.606E3,3.525E3,7.52E2,2.895E3,3.399E3,1.0716E4,1.3913E4,6.838E3,1.789E3,8.143E3,1.1338E4,4.22906E5,1.99E3,4.055E3,2.1797E4,4.6528E4],"tree_param":{"num_deleted":"0","num_feature":"61","num_nodes":"127","size_leaf_vector":"1"}},{"base_weights":[-2.402748E-1,-5.706992E-1,8.482758E-1,-9.2389053E-1,-1.8020684E-1,4.017528E-1,9.250824E-1,-9.580073E-1,-4.046163E-1,-2.2524714E-1,3.8636765E-1,2.002644E-1,6.4657027E-1,6.70628E-1,9.512796E-1,-9.724213E-1,-6.1104506E-1,-5.2898306E-1,-2.2151077E-2,-2.9420635E-1,-7.2402805E-2,2.4496831E-1,6.77119E-1,3.6870927E-2,4.4106597E-1,8.2688975E-1,4.567962E-1,5.0784224E-1,7.259601E-1,9.757602E-1,7.644458E-1,-9.895369E-1,-8.467998E-1,-7.3719335E-1,-4.2381862E-1,-6.6029847E-1,-3.798594E-1,-4.110567E-1,2.6427284E-1,-2.0035726E-1,-4.352126E-1,1.58071E-1,-2.6691192E-1,7.053589E-2,4.9016163E-1,5.618756E-1,8.551766E-1,-1.2542985E-1,2.3453042E-1,2.7034757E-1,5.199959E-1,8.8044554E-1,4.5622364E-1,1.9554617E-1,6.5498954E-1,2.81491E-1,5.878962E-1,8.286622E-1,6.5870416E-1,7.8937286E-1,9.8208535E-1,3.379301E-1,8.636293E-1,-2.9815772E-1,-2.672901E-1,-2.7042326E-1,-1.6521706E-1,-2.321724E-1,-1.22719355E-1,-2.5843573E-1,-5.5211647E-3,-1.1217336E-1,-2.2657506E-1,-2.2684257E-1,-2.863924E-2,1.1128285E-1,-1.5895207E-1,-6.709986E-2,1.2046199E-1,-1.21284105E-1,-2.3294823E-2,5.735903E-2,-1.6648892E-1,-9.018573E-3,1.1068701E-1,9.016409E-2,-1.5299001E-1,1.0666326E-1,-3.3702612E-2,4.654167E-2,2.4995022E-1,1.06376894E-1,2.0142144E-1,1.8903615E-1,2.6632226E-1,-5.9592146E-2,4.845666E-2,3.7567813E-2,1.4495885E-1,1.7699417E-1,1.926937E-3,8.155478E-2,2.1257389E-1,1.7963126E-1,2.7215308E-1,3.739726E-2,1.9897173E-1,1.4493469E-2,1.4413168E-1,2.4907752E-3,2.2640945E-1,4.2882565E-2,1.9229585E-1,1.5910661E-1,2.2720192E-1,2.5559378E-1,1.6262756E-1,1.6553989E-1,2.4116862E-1,2.4975178E-1,1.6161755E-1,2.960152E-1,2.636993E-1,3.6276016E-2,2.036489E-1,2.1709736E-1,2.809251E-1],"categories":[0,0,0,0,0,0,0,0,0,0],"categories_nodes":[14,21,24,25,34,35,36,37,38,54],"categories_segments":[0,1,2,3,4,5,6,7,8,9],"categories_sizes":[1,1,1,1,1,1,1,1,1,1],"default_left":[1,0,0,1,1,0,0,1,1,1,0,0,0,0,1,1,1,0,0,1,1,1,0,1,1,1,0,0,1,0,0,1,0,1,1,1,1,1,1,0,1,1,0,0,1,1,0,0,0,0,0,0,0,0,1,0,0,1,0,1,1,0,0,0,0,0,0,0,0,0,0,0,0,0,0,0,0,0,0,0,0,0,0,0,0,0,0,0,0,0,0,0,0,0,0,0,0,0,0,0,0,0,0,0,0,0,0,0,0,0,0,0,0,0,0,0,0,0,0,0,0,0,0,0,0,0,0],"id":2,"left_children":[1,3,5,7,9,11,13,15,17,19,21,23,25,27,29,31,33,35,37,39,41,43,45,47,49,51,53,55,57,59,61,63,65,67,69,71,73,75,77,79,81,83,85,87,89,91,93,95,97,99,101,103,105,107,109,111,113,115,117,119,121,123,125,-1,-1,-1,-1,-1,-1,-1,-1,-1,-1,-1,-1,-1,-1,-1,-1,-1,-1,-1,-1,-1,-1,-1,-1,-1,-1,-1,-1,-1,-1,-1,-1,-1,-1,-1,-1,-1,-1,-1,-1,-1,-1,-1,-1,-1,-1,-1,-1,-1,-1,-1,-1,-1,-1,-1,-1,-1,-1,-1,-1,-1,-1,-1,-1],"loss_changes":[6.8208194E5,2.006374E5,1.5144156E4,1.35320625E4,1.763082E4,3.1968594E3,2.5109375E3,3.5840625E3,2.24006E3,6.7457734E3,2.0915737E3,1.3988307E3,1.00086426E3,3.1644434E2,1.5616562E3,1.4788125E3,6.749824E2,6.956631E2,1.2874646E3,5.83625E3,8.920347E3,1.4640991E3,3.4111572E2,6.795541E2,1.9351929E2,2.974082E2,7.381228E2,1.6157666E2,1.8075879E2,3.553125E2,1.6740293E3,2.57125E2,1.3338711E3,2.0545996E2,2.0424795E3,5.135547E2,1.7809438E3,4.5553662E2,4.4589523E2,6.6259746E3,1.3220211E4,3.6132903E3,1.4883759E4,1.042683E3,1.6351077E3,2.2927539E2,4.736328E1,2.4439647E2,2.595381E2,3.8349207E2,4.5967578E2,9.814551E1,1.300574E2,2.5802902E2,5.227351E2,1.1615965E2,6.387964E1,6.8916504E1,2.4582227E2,1.06776855E2,1.3859375E2,5.524643E2,3.264746E2,0E0,0E0,0E0,0E0,0E0,0E0,0E0,0E0,0E0,0E0,0E0,0E0,0E0,0E0,0E0,0E0,0E0,0E0,0E0,0E0,0E0,0E0,0E0,0E0,0E0,0E0,0E0,0E0,0E0,0E0,0E0,0E0,0E0,0E0,0E0,0E0,0E0,0E0,0E0,0E0,0E0,0E0,0E0,0E0,0E0,0E0,0E0,0E0,0E0,0E0,0E0,0E0,0E0,0E0,0E0,0E0,0E0,0E0,0E0,0E0,0E0,0E0,0E0,0E0],"parents":[2147483647,0,0,1,1,2,2,3,3,4,4,5,5,6,6,7,7,8,8,9,9,10,10,11,11,12,12,13,13,14,14,15,15,16,16,17,17,18,18,19,19,20,20,21,21,22,22,23,23,24,24,25,25,26,26,27,27,28,28,29,29,30,30,31,31,32,32,33,33,34,34,35,35,36,36,37,37,38,38,39,39,40,40,41,41,42,42,43,43,44,44,45,45,46,46,47,47,48,48,49,49,50,50,51,51,52,52,53,53,54,54,55,55,56,56,57,57,58,58,59,59,60,60,61,61,62,62],"right_children":[2,4,6,8,10,12,14,16,18,20,22,24,26,28,30,32,34,36,38,40,42,44,46,48,50,52,54,56,58,60,62,64,66,68,70,72,74,76,78,80,82,84,86,88,90,92,94,96,98,100,102,104,106,108,110,112,114,116,118,120,122,124,126,-1,-1,-1,-1,-1,-1,-1,-1,-1,-1,-1,-1,-1,-1,-1,-1,-1,-1,-1,-1,-1,-1,-1,-1,-1,-1,-1,-1,-1,-1,-1,-1,-1,-1,-1,-1,-1,-1,-1,-1,-1,-1,-1,-1,-1,-1,-1,-1,-1,-1,-1,-1,-1,-1,-1,-1,-1,-1,-1,-1,-1,-1,-1,-1],"split_conditions":[1.92486E2,1.1363E1,2.13217E2,1.3317E1,2.0266E2,2.186E2,2.24034E2,1.1373E1,3.704E1,8.1088E1,2.41994E2,1.94452E2,2E0,2.02402E2,NaN,5.9647778E1,2.1165826E2,1.6691055E2,1.6691055E2,4.1848E1,1.07739E2,NaN,4.3077E2,2.02084E2,NaN,NaN,2.3280444E2,2E0,4.004889E1,2.18451E2,1.8461444E2,6.12E0,6.005E2,2.33E2,NaN,NaN,NaN,NaN,NaN,1.866E1,3.887E1,9.2586E1,1.07711E2,5E0,4.3956592E2,2.0074963E2,2.1304E2,1.92744E2,1.92744E2,2E0,4.8326807E2,2.1304E2,2.1934972E2,1.92744E2,NaN,4.616711E2,3.1986E2,3.64008E2,3.84635E2,5.506645E2,6.585244E2,1.38E2,5.280908E2,-4.345761E0,-2.354661E0,-4.094211E0,-3.270711E0,-3.5887837E0,-1.7737108E0,-3.213711E0,-1.4478579E-1,-9.052108E-1,-4.344561E0,-2.9530864E0,-6.6698116E-1,4.1043344E0,-4.1540847E0,-2.2166758E0,5.6470976E0,-1.1834607E0,-2.8037053E-1,1.2360152E0,-5.6013556E0,-2.6345444E-1,3.294546E0,3.586263E0,-1.0694142E1,7.9742594E0,-1.9192635E0,4.1920443E0,4.6698887E1,1.054312E1,4.653945E1,5.630835E1,9.813273E1,-2.6425445E0,1.4210587E0,2.2650661E0,4.7150574E0,2.3260075E1,1.02616884E-1,1.0234024E1,3.215867E1,1.8375761E1,5.468421E1,2.0962236E0,4.483682E1,1.2030419E0,6.3614597E0,1.7546082E-1,5.94707E1,2.0311203E0,3.7534676E1,1.2747879E1,6.5587944E1,1.4993061E1,9.996561E0,2.2833286E1,9.761157E1,2.864876E1,2.581721E1,1.5048837E2,9.8714966E1,4.3133025E0,5.2046284E1,8.111072E1,1.5044402E2],"split_indices":[52,47,47,52,47,49,59,49,59,49,59,39,12,51,3,39,38,38,38,50,47,3,53,59,3,1,39,12,39,51,38,51,14,26,3,3,3,3,3,53,47,59,59,12,38,39,50,47,47,12,38,50,39,47,3,38,52,58,52,38,38,13,38,0,0,0,0,0,0,0,0,0,0,0,0,0,0,0,0,0,0,0,0,0,0,0,0,0,0,0,0,0,0,0,0,0,0,0,0,0,0,0,0,0,0,0,0,0,0,0,0,0,0,0,0,0,0,0,0,0,0,0,0,0,0,0,0],"split_type":[0,0,0,0,0,0,0,0,0,0,0,0,0,0,1,0,0,0,0,0,0,1,0,0,1,1,0,0,0,0,0,0,0,0,1,1,1,1,1,0,0,0,0,0,0,0,0,0,0,0,0,0,0,0,1,0,0,0,0,0,0,0,0,0,0,0,0,0,0,0,0,0,0,0,0,0,0,0,0,0,0,0,0,0,0,0,0,0,0,0,0,0,0,0,0,0,0,0,0,0,0,0,0,0,0,0,0,0,0,0,0,0,0,0,0,0,0,0,0,0,0,0,0,0,0,0,0],"sum_hessian":[1.896336E6,1.454753E6,4.41583E5,7.63859E5,6.90894E5,6.481E4,3.76773E5,7.16766E5,4.7093E4,6.40016E5,5.0878E4,3.5552E4,2.9258E4,3.5172E4,3.41601E5,6.88175E5,2.8591E4,3.5537E4,1.1556E4,4.41033E5,1.98983E5,3.4232E4,1.6646E4,2.1181E4,1.4371E4,1.5001E4,1.4257E4,8.925E3,2.6247E4,3.02023E5,3.9578E4,6.0565E5,8.2525E4,1.708E4,1.1511E4,1.8895E4,1.6642E4,4.901E3,6.655E3,2.64796E5,1.76237E5,9.1072E4,1.07911E5,2.0003E4,1.4229E4,1.0108E4,6.538E3,1.1631E4,9.55E3,4.545E3,9.826E3,1.3106E4,1.895E3,6.151E3,8.106E3,2.333E3,6.592E3,1.0382E4,1.5865E4,9.917E3,2.92106E5,7.468E3,3.211E4,5.802E5,2.545E4,6.9672E4,1.2853E4,1.536E4,1.72E3,5.535E3,5.976E3,4.706E3,1.4189E4,7.163E3,9.479E3,6.46E2,4.255E3,1.461E3,5.194E3,9.9477E4,1.65319E5,2.8284E4,1.47953E5,4.8133E4,4.2939E4,3.236E4,7.5551E4,7.818E3,1.2185E4,7.199E3,7.03E3,3.496E3,6.612E3,8.29E2,5.709E3,9.267E3,2.364E3,6.635E3,2.915E3,2.055E3,2.49E3,4.244E3,5.582E3,1.138E3,1.1968E4,7.29E2,1.166E3,4.056E3,2.095E3,1.083E3,7.023E3,1.685E3,6.48E2,4.924E3,1.668E3,9.599E3,7.83E2,9.14E3,6.725E3,8.459E3,1.458E3,2.79537E5,1.2569E4,4.564E3,2.904E3,1.0989E4,2.1121E4],"tree_param":{"num_deleted":"0","num_feature":"61","num_nodes":"127","size_leaf_vector":"1"}},{"base_weights":[-2.8127173E-1,-8.86591E-1,1.4519352E-1,-9.495752E-1,-4.051434E-1,-1.1069803E-1,8.646779E-1,-9.832691E-1,-7.6566666E-1,-4.7973257E-1,7.006421E-2,-2.0896237E-1,2.5599483E-2,5.143816E-1,9.270532E-1,-9.9001163E-1,-7.6348835E-1,-8.302217E-1,-4.6250996E-1,-6.1619675E-1,-3.4175754E-1,-4.3105993E-1,2.604015E-1,2.5473796E-2,-2.8125343E-1,-1.030182E-1,2.152368E-1,3.3091488E-1,6.5879446E-1,7.220063E-1,9.559673E-1,-9.9169177E-1,-6.1535436E-1,-8.201962E-1,-6.3027626E-1,-8.6122644E-1,-5.1010746E-1,-6.159439E-1,-2.1938846E-1,-6.7568195E-1,-4.2376706E-1,-3.860831E-1,-5.8567096E-2,-2.1871412E-1,-6.5552855E-1,3.1158715E-2,3.813603E-1,-1.3669461E-1,1.3561524E-1,-8.434156E-2,-3.5580227E-1,-1.6217782E-1,1.943807E-1,1.7390531E-1,5.498167E-1,1.9857241E-1,5.279877E-1,7.704406E-1,5.9146976E-1,8.6797327E-1,5.1915425E-1,9.7452533E-1,7.772394E-1,-2.9808196E-1,-2.5343764E-1,-6.484642E-2,-2.4783394E-1,-2.6272374E-1,-2.0466574E-1,-2.0936319E-1,-1.496618E-1,-2.6415446E-1,-1.7053518E-1,-2.2505757E-1,-1.1698331E-1,-2.3415177E-1,-1.4117648E-1,-2.2998993E-1,-4.463277E-3,-2.177627E-1,-1.6226439E-1,-9.7995885E-2,-1.6628873E-1,-1.5944512E-1,-9.9374846E-2,-1.101221E-1,6.8261504E-2,1.0063292E-1,-8.214511E-2,-2.3053847E-1,-6.916427E-2,1.475329E-1,-2.4616009E-2,-2.9797299E-2,1.6335475E-1,6.1825905E-2,-1.3083042E-1,1.3215356E-1,-2.9855268E-4,-4.9586874E-2,6.2594615E-2,-1.8514228E-1,-6.969362E-2,-9.013873E-2,-2.699749E-2,4.340886E-2,1.4762396E-1,1.8320734E-2,8.02625E-2,6.740196E-2,1.7342918E-1,-6.0217814E-3,1.0378636E-1,2.054696E-1,1.1490148E-1,2.4587776E-1,1.726642E-1,1.4498529E-1,2.2979806E-1,1.4389831E-1,2.7323234E-1,-1.0726916E-1,1.666098E-1,2.4937572E-1,2.9483637E-1,2.5817662E-1,1.0371714E-1],"categories":[0,0,1,2,3,4,5,6,7,8,9,11,13,15,0,0,0,0,0,1,4,9,10,14,15],"categories_nodes":[30,32,38,43,45,46,53,57],"categories_segments":[0,1,14,15,16,17,18,19],"categories_sizes":[1,13,1,1,1,1,1,6],"default_left":[0,1,1,1,1,0,0,1,0,1,0,0,1,0,0,1,0,1,0,1,0,0,1,1,0,1,1,0,1,0,1,0,1,0,0,1,0,0,1,1,0,0,1,1,0,1,1,0,1,1,1,0,0,1,0,0,0,1,0,0,0,0,0,0,0,0,0,0,0,0,0,0,0,0,0,0,0,0,0,0,0,0,0,0,0,0,0,0,0,0,0,0,0,0,0,0,0,0,0,0,0,0,0,0,0,0,0,0,0,0,0,0,0,0,0,0,0,0,0,0,0,0,0,0,0,0,0],"id":3,"left_children":[1,3,5,7,9,11,13,15,17,19,21,23,25,27,29,31,33,35,37,39,41,43,45,47,49,51,53,55,57,59,61,63,65,67,69,71,73,75,77,79,81,83,85,87,89,91,93,95,97,99,101,103,105,107,109,111,113,115,117,119,121,123,125,-1,-1,-1,-1,-1,-1,-1,-1,-1,-1,-1,-1,-1,-1,-1,-1,-1,-1,-1,-1,-1,-1,-1,-1,-1,-1,-1,-1,-1,-1,-1,-1,-1,-1,-1,-1,-1,-1,-1,-1,-1,-1,-1,-1,-1,-1,-1,-1,-1,-1,-1,-1,-1,-1,-1,-1,-1,-1,-1,-1,-1,-1,-1,-1],"loss_changes":[4.8953503E5,2.3767562E4,2.0482778E5,4.2943125E3,3.2141807E3,1.0991202E4,6.3769062E3,8.673125E2,2.1000977E3,1.4755215E3,1.1736044E3,8.0816777E3,8.385452E3,1.1687129E3,1.4681875E3,3.571875E2,1.3123535E2,8.7779297E2,7.028413E2,4.5074805E2,4.8921387E2,1.6129785E2,2.4724701E2,2.0074684E3,5.350252E3,3.6042866E3,1.9212612E3,5.0675537E2,1.8509766E2,9.062881E2,7.194375E2,1.583125E2,2.1352393E2,9.313965E1,4.5950195E1,4.5505078E2,2.2519373E2,2.7598047E2,8.1620276E2,2.0324805E2,1.1779614E2,2.685083E2,4.657718E2,5.3285004E1,7.882153E1,1.6070671E2,4.578288E2,4.6655894E3,2.7878555E3,2.3739382E3,8.532133E3,1.7056187E3,5.0267603E2,1.3065745E3,1.4033643E2,3.7471182E2,1.7734229E2,8.845361E1,2.9047168E2,2.9551953E2,4.071062E2,2.320625E2,7.34499E2,0E0,0E0,0E0,0E0,0E0,0E0,0E0,0E0,0E0,0E0,0E0,0E0,0E0,0E0,0E0,0E0,0E0,0E0,0E0,0E0,0E0,0E0,0E0,0E0,0E0,0E0,0E0,0E0,0E0,0E0,0E0,0E0,0E0,0E0,0E0,0E0,0E0,0E0,0E0,0E0,0E0,0E0,0E0,0E0,0E0,0E0,0E0,0E0,0E0,0E0,0E0,0E0,0E0,0E0,0E0,0E0,0E0,0E0,0E0,0E0,0E0,0E0,0E0,0E0],"parents":[2147483647,0,0,1,1,2,2,3,3,4,4,5,5,6,6,7,7,8,8,9,9,10,10,11,11,12,12,13,13,14,14,15,15,16,16,17,17,18,18,19,19,20,20,21,21,22,22,23,23,24,24,25,25,26,26,27,27,28,28,29,29,30,30,31,31,32,32,33,33,34,34,35,35,36,36,37,37,38,38,39,39,40,40,41,41,42,42,43,43,44,44,45,45,46,46,47,47,48,48,49,49,50,50,51,51,52,52,53,53,54,54,55,55,56,56,57,57,58,58,59,59,60,60,61,61,62,62],"right_children":[2,4,6,8,10,12,14,16,18,20,22,24,26,28,30,32,34,36,38,40,42,44,46,48,50,52,54,56,58,60,62,64,66,68,70,72,74,76,78,80,82,84,86,88,90,92,94,96,98,100,102,104,106,108,110,112,114,116,118,120,122,124,126,-1,-1,-1,-1,-1,-1,-1,-1,-1,-1,-1,-1,-1,-1,-1,-1,-1,-1,-1,-1,-1,-1,-1,-1,-1,-1,-1,-1,-1,-1,-1,-1,-1,-1,-1,-1,-1,-1,-1,-1,-1,-1,-1,-1,-1,-1,-1,-1,-1,-1,-1,-1,-1,-1,-1,-1,-1,-1,-1,-1,-1,-1,-1,-1],"split_conditions":[1.28E1,8.773E0,3.63832E2,4.004889E1,4.7857E1,5E1,3.95087E2,6.46E0,6.548E2,1.1373E1,9.459583E1,-4.475342E0,9.6678E1,3.74588E2,3.84894E2,1.7491E1,8.347E0,1.3813E1,2.5882184E2,1.3817E1,3.798E1,2.97E2,2.9957324E2,7.2785E1,3.887E1,1.00939E2,4.06118E2,3.64107E2,3.639009E1,2E0,NaN,5.76E0,NaN,1.8767E3,1.0489E1,1.5853E1,1.2628E2,4.2E1,NaN,1.1861E1,5.1403136E0,9.621E0,2.0231638E2,NaN,3.9446262E1,NaN,NaN,3.983E1,1.07711E2,3.4289E1,7.2785E1,2.1791E1,6E0,NaN,1.5561481E1,4.2934475E1,2E0,NaN,5.9394806E2,3.54126E2,7E0,3.95427E2,5.846771E-1,-3.0420325E0,-1.7921652E0,-2.8940325E0,-3.1105878E0,-1.7739626E0,-2.5273826E0,-1.0712425E0,-8.3432555E-1,-2.9643474E0,-2.4866352E0,-3.0420325E0,-1.8699476E0,-3.0411325E0,-2.1407652E0,-2.5885975E0,-1.7187253E-1,-1.7284976E0,-1.4610475E0,-1.3294902E0,-1.8676252E0,-1.9872563E0,-8.941801E-1,-2.8002338E0,2.9646447E0,6.977765E0,-1.8135844E0,-3.9463708E0,-1.7910362E0,6.587047E0,-9.6193945E-1,-1.2467428E0,1.0665228E1,4.622223E-1,-3.4518988E0,3.0018518E0,-2.6408387E-2,-3.2297975E-1,6.7646027E-1,-5.476148E0,-2.6723042E0,-1.5075104E0,-7.676995E-1,3.1716797E0,1.2158173E1,1.4806458E0,8.698188E0,1.1644638E1,4.6307663E1,-3.7515566E-1,1.8315445E1,3.3399994E1,1.6301147E1,2.2740894E1,2.1187042E1,3.421725E1,7.997357E1,2.860004E1,7.623595E1,-1.241651E1,3.1713095E1,5.1897438E1,1.8913814E2,1.6901581E2,3.0596977E1],"split_indices":[47,50,52,39,59,28,59,48,14,49,39,31,48,47,47,52,47,53,38,54,52,10,38,47,47,60,59,49,39,12,3,47,0,14,59,59,39,13,3,58,31,51,38,3,38,3,3,47,59,51,47,53,12,3,38,38,12,0,38,50,13,51,33,0,0,0,0,0,0,0,0,0,0,0,0,0,0,0,0,0,0,0,0,0,0,0,0,0,0,0,0,0,0,0,0,0,0,0,0,0,0,0,0,0,0,0,0,0,0,0,0,0,0,0,0,0,0,0,0,0,0,0,0,0,0,0,0],"split_type":[0,0,0,0,0,0,0,0,0,0,0,0,0,0,0,0,0,0,0,0,0,0,0,0,0,0,0,0,0,0,1,0,1,0,0,0,0,0,1,0,0,0,0,1,0,1,1,0,0,0,0,0,0,1,0,0,0,1,0,0,0,0,0,0,0,0,0,0,0,0,0,0,0,0,0,0,0,0,0,0,0,0,0,0,0,0,0,0,0,0,0,0,0,0,0,0,0,0,0,0,0,0,0,0,0,0,0,0,0,0,0,0,0,0,0,0,0,0,0,0,0,0,0,0,0,0,0],"sum_hessian":[1.896336E6,7.83808E5,1.112528E6,6.9313E5,9.0678E4,8.20655E5,2.91873E5,5.85801E5,1.07329E5,7.8376E4,1.2302E4,4.7686E5,3.43795E5,4.4118E4,2.47755E5,5.68361E5,1.744E4,8.8485E4,1.8844E4,3.9402E4,3.8974E4,3.386E3,8.916E3,1.12389E5,3.64471E5,2.04856E5,1.38939E5,1.9433E4,2.4685E4,3.0622E4,2.17133E5,5.65822E5,2.539E3,1.2229E4,5.211E3,8.067E4,7.815E3,1.1552E4,7.292E3,3.0096E4,9.306E3,3.3699E4,5.275E3,1.741E3,1.645E3,3.08E3,5.836E3,4.5458E4,6.6931E4,1.00092E5,2.64379E5,1.70867E5,3.3989E4,1.23664E5,1.5275E4,1.1627E4,7.806E3,9.282E3,1.5403E4,1.7806E4,1.2816E4,1.96704E5,2.0429E4,5.58536E5,7.286E3,8.78E2,1.661E3,8.715E3,3.514E3,3.438E3,1.773E3,7.5682E4,4.988E3,2.605E3,5.21E3,5.416E3,6.136E3,1.983E3,5.309E3,2.1927E4,8.169E3,5.338E3,3.968E3,9.226E3,2.4473E4,2.538E3,2.737E3,1.57E2,1.584E3,1.299E3,3.46E2,6.07E2,2.473E3,1.479E3,4.357E3,2.1194E4,2.4264E4,2.0709E4,4.6222E4,7.8425E4,2.1667E4,8.4837E4,1.79542E5,5.8602E4,1.12265E5,2.9129E4,4.86E3,5.6083E4,6.7581E4,1.223E3,1.4052E4,4.682E3,6.945E3,3.747E3,4.059E3,7.41E3,1.872E3,9.511E3,5.892E3,1.769E3,1.6037E4,5.08E2,1.2308E4,1.0731E4,1.85973E5,1.7121E4,3.308E3],"tree_param":{"num_deleted":"0","num_feature":"61","num_nodes":"127","size_leaf_vector":"1"}},{"base_weights":[-2.9119086E-1,-9.00439E-1,8.9752614E-2,-9.526876E-1,-4.5114732E-1,-7.778904E-2,8.586264E-1,-9.8262554E-1,-7.408437E-1,-5.534809E-1,-1.7142296E-1,-1.7786525E-1,1.6170325E-2,5.723023E-1,9.2626655E-1,-9.8958945E-1,-7.8635484E-1,-8.212493E-1,-4.853412E-1,-6.1215186E-1,-3.7080562E-1,-5.169926E-1,-1.8765047E-2,-2.0678325E-1,1.4779966E-1,-8.926476E-2,1.2763858E-1,4.3457422E-1,6.9472986E-1,7.51133E-1,9.607767E-1,-9.921538E-1,-8.1794745E-1,-5.129674E-1,-8.4188586E-1,-8.569993E-1,-4.0177834E-1,-3.1823808E-1,-6.526185E-1,-4.7357634E-1,-6.6245914E-1,-4.1253576E-1,1.8663839E-1,-6.323052E-1,-3.4919387E-1,-1.2721701E-1,3.2945737E-1,-1.1793842E-1,-3.7082636E-1,-6.970109E-1,1.6455525E-1,1.9747853E-1,-1.881627E-1,1.0335337E-1,4.8511028E-1,3.0358163E-1,6.006039E-1,7.8663427E-1,5.927923E-1,8.84417E-1,5.780992E-1,9.7666293E-1,7.6487815E-1,-2.977811E-1,-1.11838795E-1,-2.7168727E-1,-2.0955692E-1,-1.8688709E-1,-1.1520001E-2,-2.5641122E-1,-9.023747E-2,-2.6435673E-1,-1.9110796E-1,-1.9077045E-1,-4.171053E-2,-4.143453E-2,-1.8300001E-1,-2.2281204E-1,-1.364446E-1,-6.4450316E-2,-1.8788268E-1,-2.1890199E-1,-1.52246E-1,-6.9721915E-2,-1.4475456E-1,-5.561798E-2,2.0121953E-1,-7.5121954E-2,-2.124919E-1,-3.5132032E-2,-1.4094442E-1,-1.0990722E-1,-5.8958144E-3,1.5485752E-1,5.1021535E-2,-1.0216121E-1,-1.00016985E-2,3.4991868E-2,-1.5192893E-1,-4.878049E-2,-2.4087949E-1,1.0226232E-1,2.8552113E-2,-3.9516725E-2,1.00162886E-1,1.5132463E-1,-7.083888E-2,1.131659E-2,5.821261E-2,1.1930688E-1,1.7538849E-1,1.2964797E-1,4.93558E-2,2.254306E-1,1.20654E-1,1.996338E-1,2.5504738E-1,1.0983119E-1,2.0717451E-1,1.3704021E-1,2.7562436E-1,-7.0658684E-2,1.8395689E-1,2.5915706E-1,2.9540223E-1,4.071247E-2,2.5309312E-1],"categories":[0,1,2,3,4,5,6,7,8,9,11,13,15,0,0,0],"categories_nodes":[16,30,43,45],"categories_segments":[0,13,14,15],"categories_sizes":[13,1,1,1],"default_left":[0,1,1,1,0,1,0,1,0,1,0,1,1,0,0,1,1,1,0,0,1,0,1,1,0,1,1,1,1,0,1,0,0,0,0,1,0,0,0,0,1,0,0,1,0,1,0,0,1,0,0,0,1,0,0,0,0,0,0,0,0,0,0,0,0,0,0,0,0,0,0,0,0,0,0,0,0,0,0,0,0,0,0,0,0,0,0,0,0,0,0,0,0,0,0,0,0,0,0,0,0,0,0,0,0,0,0,0,0,0,0,0,0,0,0,0,0,0,0,0,0,0,0,0,0,0,0],"id":4,"left_children":[1,3,5,7,9,11,13,15,17,19,21,23,25,27,29,31,33,35,37,39,41,43,45,47,49,51,53,55,57,59,61,63,65,67,69,71,73,75,77,79,81,83,85,87,89,91,93,95,97,99,101,103,105,107,109,111,113,115,117,119,121,123,125,-1,-1,-1,-1,-1,-1,-1,-1,-1,-1,-1,-1,-1,-1,-1,-1,-1,-1,-1,-1,-1,-1,-1,-1,-1,-1,-1,-1,-1,-1,-1,-1,-1,-1,-1,-1,-1,-1,-1,-1,-1,-1,-1,-1,-1,-1,-1,-1,-1,-1,-1,-1,-1,-1,-1,-1,-1,-1,-1,-1,-1,-1,-1,-1],"loss_changes":[4.4011925E5,1.7125688E4,1.5030344E5,4.14425E3,2.1755352E3,9.008424E3,4.0425156E3,7.81875E2,1.6621719E3,5.961719E2,1.0740079E3,4.368967E3,5.807179E3,6.723955E2,1.0198594E3,2.425625E2,2.9751953E2,9.227422E2,5.413452E2,2.9329785E2,3.1481482E2,1.20480225E2,5.33365E2,6.209797E3,5.356807E2,7.2010654E3,2.085071E3,4.0819214E2,1.9738672E2,6.4067676E2,4.3826562E2,1.515E2,8.466211E1,1.7306274E2,1.1287305E2,3.0125E2,2.9739453E2,5.093648E2,1.721753E2,4.4320337E2,3.2146484E2,1.5856396E2,1.6995679E2,1.0709802E2,7.113507E1,2.7700342E2,9.973651E1,5.2048936E3,9.894871E3,4.153073E1,4.538228E2,2.9241248E3,6.2725415E3,1.3386501E3,1.326936E2,1.876372E2,2.4750635E2,8.490918E1,2.2180103E2,2.3010742E2,3.4560693E2,1.1707031E2,5.244951E2,0E0,0E0,0E0,0E0,0E0,0E0,0E0,0E0,0E0,0E0,0E0,0E0,0E0,0E0,0E0,0E0,0E0,0E0,0E0,0E0,0E0,0E0,0E0,0E0,0E0,0E0,0E0,0E0,0E0,0E0,0E0,0E0,0E0,0E0,0E0,0E0,0E0,0E0,0E0,0E0,0E0,0E0,0E0,0E0,0E0,0E0,0E0,0E0,0E0,0E0,0E0,0E0,0E0,0E0,0E0,0E0,0E0,0E0,0E0,0E0,0E0,0E0,0E0,0E0],"parents":[2147483647,0,0,1,1,2,2,3,3,4,4,5,5,6,6,7,7,8,8,9,9,10,10,11,11,12,12,13,13,14,14,15,15,16,16,17,17,18,18,19,19,20,20,21,21,22,22,23,23,24,24,25,25,26,26,27,27,28,28,29,29,30,30,31,31,32,32,33,33,34,34,35,35,36,36,37,37,38,38,39,39,40,40,41,41,42,42,43,43,44,44,45,45,46,46,47,47,48,48,49,49,50,50,51,51,52,52,53,53,54,54,55,55,56,56,57,57,58,58,59,59,60,60,61,61,62,62],"right_children":[2,4,6,8,10,12,14,16,18,20,22,24,26,28,30,32,34,36,38,40,42,44,46,48,50,52,54,56,58,60,62,64,66,68,70,72,74,76,78,80,82,84,86,88,90,92,94,96,98,100,102,104,106,108,110,112,114,116,118,120,122,124,126,-1,-1,-1,-1,-1,-1,-1,-1,-1,-1,-1,-1,-1,-1,-1,-1,-1,-1,-1,-1,-1,-1,-1,-1,-1,-1,-1,-1,-1,-1,-1,-1,-1,-1,-1,-1,-1,-1,-1,-1,-1,-1,-1,-1,-1,-1,-1,-1,-1,-1,-1,-1,-1,-1,-1,-1,-1,-1,-1,-1,-1,-1,-1,-1],"split_conditions":[8.756E0,6.117E0,5.5135E2,4.2093334E1,1.6389E1,7.2786E1,6.32603E2,4.17E0,2.4E1,1.1873E1,7.8449875E1,9.46E1,1.825E1,5.70579E2,6.55465E2,4.16E0,NaN,1.4822E1,8.897E1,-6.397054E-1,7.5964E1,6.8E1,6.1928E1,3.9871E1,8.15E1,1.07711E2,5.69979E2,5.33646E2,8.55E1,2E0,NaN,1.653048E4,1.1976E3,3.0826E1,1.653048E4,8.377E0,3.6242163E2,3.695488E-6,7.6E0,7.781824E-1,9.198E0,6.66E1,3.5171555E2,NaN,4.5880637E-1,NaN,1.1574936E-1,1.2814E1,3.887E1,3.6083E1,2E0,7.7655E1,1.07739E2,2.987536E2,5.51885E2,3.84894E2,2E0,6.10525E2,2.49624E2,5.33498E2,7E0,6.55464E2,2.3280444E2,-2.129423E0,-1.7560706E0,-1.8357228E0,-1.7879912E0,-2.0373228E0,-6.9717294E-1,-1.5687484E0,-2.0294745E0,-2.264343E0,-2.0668156E0,-2.4827209E0,-9.52743E-1,-6.8062556E-1,-2.1292288E0,-1.8220029E0,-1.448803E0,-6.3192075E-1,-1.8932134E0,-1.3601899E0,-1.1360831E0,-9.9012166E-1,-1.4207822E0,-1.239267E0,1.8076834E1,-5.425832E-1,-2.9715407E0,-5.113695E-1,-2.179361E0,-1.5410209E0,-1.8103337E-1,1.3751251E1,2.761097E0,-9.108851E-1,-9.795571E-2,6.629036E-1,-4.012779E0,-3.6858073E-1,-5.2367034E0,6.8424892E0,1.689275E0,-6.775269E-1,2.0333428E0,3.2384331E0,-5.130327E0,7.656922E-1,6.6960664E0,3.3245224E1,7.568033E1,3.282228E1,6.593509E0,5.019163E1,2.4780104E1,2.0871561E1,5.6328865E1,4.25665E1,9.209576E1,4.4052567E1,1.0464209E2,-1.0921606E1,4.181501E1,9.00319E1,2.0676913E2,1.3576499E1,2.4707646E2],"split_indices":[47,49,52,39,52,48,59,52,13,54,39,58,28,47,47,48,0,58,44,31,50,13,56,50,14,59,59,49,26,12,3,14,14,59,14,52,38,41,53,35,59,44,38,3,33,3,33,49,47,50,12,52,47,39,48,47,12,52,38,50,13,51,39,0,0,0,0,0,0,0,0,0,0,0,0,0,0,0,0,0,0,0,0,0,0,0,0,0,0,0,0,0,0,0,0,0,0,0,0,0,0,0,0,0,0,0,0,0,0,0,0,0,0,0,0,0,0,0,0,0,0,0,0,0,0,0,0],"split_type":[0,0,0,0,0,0,0,0,0,0,0,0,0,0,0,0,1,0,0,0,0,0,0,0,0,0,0,0,0,0,1,0,0,0,0,0,0,0,0,0,0,0,0,1,0,1,0,0,0,0,0,0,0,0,0,0,0,0,0,0,0,0,0,0,0,0,0,0,0,0,0,0,0,0,0,0,0,0,0,0,0,0,0,0,0,0,0,0,0,0,0,0,0,0,0,0,0,0,0,0,0,0,0,0,0,0,0,0,0,0,0,0,0,0,0,0,0,0,0,0,0,0,0,0,0,0,0],"sum_hessian":[1.896336E6,7.29552E5,1.166784E6,6.53549E5,7.6003E4,9.58026E5,2.08758E5,5.72622E5,8.0927E4,5.5645E4,2.0358E4,4.63912E5,4.94114E5,3.9894E4,1.68864E5,5.52997E5,1.9625E4,6.1554E4,1.9373E4,4.2116E4,1.3529E4,6.237E3,1.4121E4,4.26078E5,3.7834E4,2.53929E5,2.40185E5,1.8776E4,2.1118E4,2.7801E4,1.41063E5,5.44852E5,8.145E3,3.315E3,1.631E4,5.6719E4,4.835E3,9.693E3,9.68E3,1.122E4,3.0896E4,1.2587E4,9.42E2,3.695E3,2.542E3,1.0768E4,3.353E3,2.76389E5,1.49689E5,7.35E2,3.7099E4,6.512E4,1.88809E5,2.24907E5,1.5278E4,1.0497E4,8.279E3,1.1102E4,1.0016E4,1.5702E4,1.2099E4,1.30478E5,1.0585E4,5.44456E5,3.96E2,4.693E3,3.452E3,2.691E3,6.24E2,1.5932E4,3.78E2,5.1097E4,5.622E3,2.556E3,2.279E3,5.994E3,3.699E3,6.649E3,3.031E3,4.165E3,7.055E3,2.1547E4,9.349E3,3.523E3,9.064E3,5.33E2,4.09E2,6.14E2,3.081E3,8.7E2,1.672E3,3.34E3,7.428E3,1.543E3,1.81E3,7.6114E4,2.00275E5,3.2578E4,1.17111E5,1.22E2,6.13E2,1.0475E4,2.6624E4,1.9077E4,4.6043E4,1.2229E4,1.7658E5,1.3048E5,9.4427E4,8.136E3,7.142E3,5.453E3,5.044E3,4.702E3,3.577E3,3.822E3,7.28E3,3.02E3,6.996E3,1.168E3,1.4534E4,5E2,1.1599E4,8.659E3,1.21819E5,1.178E3,9.407E3],"tree_param":{"num_deleted":"0","num_feature":"61","num_nodes":"127","size_leaf_vector":"1"}},{"base_weights":[-2.8670222E-1,-9.152568E-1,6.0884327E-2,-9.597367E-1,-5.083039E-1,-5.6799345E-2,8.351499E-1,-9.8402965E-1,-7.3914987E-1,-6.1867553E-1,-3.0495515E-1,-1.0166341E-1,2.0808853E-1,5.913326E-1,9.149005E-1,-9.8859733E-1,-7.806821E-1,-8.009455E-1,-4.371345E-1,-4.7168747E-1,-6.780737E-1,-5.2017003E-1,-1.273195E-1,-3.3140102E-1,-7.496925E-2,3.2681876E-1,3.3889282E-3,4.0484157E-1,7.6456016E-1,7.331468E-1,9.4849545E-1,-9.907445E-1,-7.877026E-1,-4.9614066E-1,-8.488683E-1,-8.350253E-1,-4.213456E-1,-2.6525784E-1,-7.15051E-1,-6.910667E-1,-1.3689992E-1,-7.518793E-1,-5.7948756E-1,-1.0971974E-1,-5.973734E-1,-5.0592005E-1,4.7646187E-2,-4.5058402E-1,-1.9755669E-1,1.4821951E-1,-9.8461255E-2,2.2014195E-1,5.01302E-1,-6.4664416E-2,4.2400306E-1,4.26939E-1,8.89328E-3,8.4374E-1,5.178821E-1,8.3504736E-1,5.464734E-1,9.634148E-1,7.4605656E-1,-2.9759336E-1,-2.3601629E-1,-2.5779238E-1,-1.8667056E-1,-1.672358E-1,9.216868E-2,-2.6029086E-1,-7.7E-2,-2.7381927E-1,-2.299452E-1,-2.071123E-1,-5.9655327E-2,-2.2489512E-2,-1.5330683E-1,-2.2386636E-1,2.2E-2,-2.2527933E-1,-9.7634815E-2,-2.397059E-1,1.0931486E-2,-2.1676534E-1,-2.6253337E-1,-1.8050563E-1,-5.4034583E-2,-1.7451924E-1,5.094877E-2,-1.1720086E-1,-2.0771879E-1,-1.8163444E-1,7.4882996E-3,-4.5654334E-2,1.4757532E-1,-8.706998E-2,-1.5839003E-1,-1.4567411E-2,-9.460582E-2,1.8381892E-2,9.4784684E-2,-6.828805E-2,-1.7392518E-2,1.1326766E-1,3.0037703E-2,1.3845551E-1,2.0834129E-1,1.2422204E-3,-1.1432199E-1,1.9868395E-1,1.9878943E-2,1.7890793E-1,1.1041946E-1,1.3186046E-1,-9.262436E-2,2.6356772E-1,1.2167102E-1,1.3241759E-1,2.2930744E-1,2.1267563E-1,2.6428333E-1,1.2603413E-1,2.1578762E-1,2.9054457E-1,2.0653181E-1,1.13143995E-1,2.5410935E-1],"categories":[0,1,2,3,4,5,6,7,8,9,11,13,15,0,0,0,0,0,0,1,2,3,5,7,8,9,10,11,14,0,1,2,6,8,9],"categories_nodes":[16,21,22,26,30,40,55,57,61],"categories_segments":[0,13,14,15,16,17,18,29,30],"categories_sizes":[13,1,1,1,1,1,11,1,5],"default_left":[0,1,1,1,0,1,0,1,0,0,0,0,0,0,0,1,1,1,0,1,1,1,1,1,1,0,1,0,0,1,1,1,0,1,0,0,0,0,0,0,1,0,1,0,0,1,1,0,0,1,0,0,0,1,0,1,0,1,0,0,0,1,0,0,0,0,0,0,0,0,0,0,0,0,0,0,0,0,0,0,0,0,0,0,0,0,0,0,0,0,0,0,0,0,0,0,0,0,0,0,0,0,0,0,0,0,0,0,0,0,0,0,0,0,0,0,0,0,0,0,0,0,0,0,0,0,0],"id":5,"left_children":[1,3,5,7,9,11,13,15,17,19,21,23,25,27,29,31,33,35,37,39,41,43,45,47,49,51,53,55,57,59,61,63,65,67,69,71,73,75,77,79,81,83,85,87,89,91,93,95,97,99,101,103,105,107,109,111,113,115,117,119,121,123,125,-1,-1,-1,-1,-1,-1,-1,-1,-1,-1,-1,-1,-1,-1,-1,-1,-1,-1,-1,-1,-1,-1,-1,-1,-1,-1,-1,-1,-1,-1,-1,-1,-1,-1,-1,-1,-1,-1,-1,-1,-1,-1,-1,-1,-1,-1,-1,-1,-1,-1,-1,-1,-1,-1,-1,-1,-1,-1,-1,-1,-1,-1,-1,-1],"loss_changes":[4.1430628E5,1.2222375E4,1.1126348E5,3.26125E3,1.4931172E3,1.2596731E4,3.1321719E3,5.085E2,1.1267422E3,3.7620703E2,8.9489453E2,5.5589307E3,3.7313003E3,1.2826025E3,7.405703E2,2.3053125E2,2.3338965E2,6.4818945E2,4.8990356E2,9.1173E2,2.2303125E2,3.3535352E2,8.496455E2,1.5051387E3,4.2579424E3,1.8084902E3,1.6132871E3,1.6733813E2,4.01667E2,3.598789E2,3.0872656E2,1.3275E2,6.67168E1,1.15036804E2,1.0780859E2,2.4430469E2,2.4719354E2,2.9651312E2,9.638513E1,1.6391162E2,5.642416E2,6.283203E1,1.16495605E2,2.2137927E2,1.7471558E2,2.1421863E2,7.789204E2,6.1918555E2,7.801113E2,1.1278387E3,3.842337E3,1.1392229E3,2.8299316E2,1.0561349E3,6.6901355E2,1.804685E2,1.3856667E2,2.3738867E2,9.402185E1,7.030176E1,1.4583313E2,1.3228125E2,2.618125E2,0E0,0E0,0E0,0E0,0E0,0E0,0E0,0E0,0E0,0E0,0E0,0E0,0E0,0E0,0E0,0E0,0E0,0E0,0E0,0E0,0E0,0E0,0E0,0E0,0E0,0E0,0E0,0E0,0E0,0E0,0E0,0E0,0E0,0E0,0E0,0E0,0E0,0E0,0E0,0E0,0E0,0E0,0E0,0E0,0E0,0E0,0E0,0E0,0E0,0E0,0E0,0E0,0E0,0E0,0E0,0E0,0E0,0E0,0E0,0E0,0E0,0E0,0E0,0E0],"parents":[2147483647,0,0,1,1,2,2,3,3,4,4,5,5,6,6,7,7,8,8,9,9,10,10,11,11,12,12,13,13,14,14,15,15,16,16,17,17,18,18,19,19,20,20,21,21,22,22,23,23,24,24,25,25,26,26,27,27,28,28,29,29,30,30,31,31,32,32,33,33,34,34,35,35,36,36,37,37,38,38,39,39,40,40,41,41,42,42,43,43,44,44,45,45,46,46,47,47,48,48,49,49,50,50,51,51,52,52,53,53,54,54,55,55,56,56,57,57,58,58,59,59,60,60,61,61,62,62],"right_children":[2,4,6,8,10,12,14,16,18,20,22,24,26,28,30,32,34,36,38,40,42,44,46,48,50,52,54,56,58,60,62,64,66,68,70,72,74,76,78,80,82,84,86,88,90,92,94,96,98,100,102,104,106,108,110,112,114,116,118,120,122,124,126,-1,-1,-1,-1,-1,-1,-1,-1,-1,-1,-1,-1,-1,-1,-1,-1,-1,-1,-1,-1,-1,-1,-1,-1,-1,-1,-1,-1,-1,-1,-1,-1,-1,-1,-1,-1,-1,-1,-1,-1,-1,-1,-1,-1,-1,-1,-1,-1,-1,-1,-1,-1,-1,-1,-1,-1,-1,-1,-1,-1,-1,-1,-1,-1],"split_conditions":[5.424E0,3.615E0,7.28965E2,3.639009E1,8.377E0,3.4533E2,8.06506E2,3.616E0,3.1E1,1.6E1,1.2057121E2,9.211E0,5E0,7.80601E2,8.62499E2,3.613E0,NaN,1.1861E1,2.3197383E-6,9.3460464E1,4.784E0,NaN,NaN,8.765E0,-7.269263E0,5.51654E2,NaN,5E1,3E0,8.24E1,NaN,9.198E0,2.19854E3,5.2222E1,1.653048E4,9.1204895E1,1.2200511E2,8.897E1,1.5507243E0,2.96527E3,NaN,3.5694992E2,5.6853E1,2.425E1,8.858512E-6,2.8387E1,5.3909064E2,-2.744507E-1,3.5762787E-7,4.2E1,8.6E1,3.95087E2,8.06469E2,4.05968E2,9.596348E-6,NaN,1.9476846E0,NaN,4.8945776E2,8.0717E2,4.1303644E2,NaN,2.7879428E2,-1.4905958E0,-1.4350959E0,-1.4140162E0,-1.2024255E0,-1.4792109E0,5.127236E0,-1.437747E0,-1.4158806E0,-1.489996E0,-1.8106401E0,-1.9377269E0,-1.0482835E0,-2.71928E-1,-1.0597652E0,-1.6819383E0,4.2942554E-1,-1.4905958E0,-5.8866185E-1,-1.6106669E0,1.9705683E-1,-1.1950958E0,-1.6886181E0,-1.0795401E0,-1.2982562E0,-6.073958E-1,5.2331376E-1,-1.2659984E0,-2.1995187E0,-1.4571637E0,2.443162E-1,-6.991224E-1,4.613989E0,-1.0334095E0,-8.9910984E-1,-1.7428751E-1,-1.1313635E0,3.6574003E-1,3.3826172E0,-1.4138695E0,-3.1899464E-1,1.3092561E1,4.004622E0,2.6892908E1,9.8384636E1,1.152649E-1,-1.2591669E1,6.234271E1,2.5719652E0,3.7921547E1,2.5274141E1,2.2489876E1,-1.6272785E1,9.220811E1,7.807679E1,2.9416353E1,1.5007764E2,2.9743269E1,5.7586884E1,5.360096E1,1.3628186E2,2.2211134E2,3.240814E2,6.612036E1,3.185775E2],"split_indices":[47,49,52,39,52,49,48,52,13,8,38,53,12,50,59,48,0,58,40,38,53,3,3,49,31,49,3,8,12,26,3,59,14,59,14,39,39,44,30,14,3,39,59,28,41,50,38,31,41,13,10,59,47,38,41,0,36,3,39,52,39,0,38,0,0,0,0,0,0,0,0,0,0,0,0,0,0,0,0,0,0,0,0,0,0,0,0,0,0,0,0,0,0,0,0,0,0,0,0,0,0,0,0,0,0,0,0,0,0,0,0,0,0,0,0,0,0,0,0,0,0,0,0,0,0,0,0],"split_type":[0,0,0,0,0,0,0,0,0,0,0,0,0,0,0,0,1,0,0,0,0,1,1,0,0,0,1,0,0,0,1,0,0,0,0,0,0,0,0,0,1,0,0,0,0,0,0,0,0,0,0,0,0,0,0,1,0,1,0,0,0,1,0,0,0,0,0,0,0,0,0,0,0,0,0,0,0,0,0,0,0,0,0,0,0,0,0,0,0,0,0,0,0,0,0,0,0,0,0,0,0,0,0,0,0,0,0,0,0,0,0,0,0,0,0,0,0,0,0,0,0,0,0,0,0,0,0],"sum_hessian":[1.896336E6,6.75251E5,1.221085E6,6.08717E5,6.6534E4,1.059976E6,1.61109E5,5.48327E5,6.039E4,4.3125E4,2.3409E4,9.06451E5,1.53525E5,3.9711E4,1.21398E5,5.36277E5,1.205E4,5.0131E4,1.0259E4,1.2414E4,3.0711E4,1.0584E4,1.2825E4,9.4359E4,8.12092E5,9.7166E4,5.6359E4,1.9125E4,2.0586E4,1.8942E4,1.02456E5,5.30602E5,5.675E3,2.331E3,9.719E3,4.6E4,4.131E3,6.34E3,3.919E3,7.499E3,4.915E3,1.7559E4,1.3152E4,1.676E3,8.908E3,4.053E3,8.772E3,4.9912E4,4.4447E4,7.7337E4,7.34755E5,6.0301E4,3.6865E4,4.8511E4,7.848E3,1.8114E4,1.011E3,1.5582E4,5.004E3,1.2251E4,6.691E3,9.542E4,7.036E3,5.2741E5,3.192E3,3.958E3,1.717E3,2.166E3,1.65E2,9.42E3,2.99E2,2.1553E4,2.4447E4,1.869E3,2.262E3,3.574E3,2.766E3,3.77E3,1.49E2,6.443E3,1.056E3,1.019E3,3.896E3,1.4189E4,3.37E3,1.2459E4,6.93E2,6.23E2,1.053E3,2.807E3,6.101E3,3.413E3,6.4E2,6.051E3,2.721E3,1.6248E4,3.3664E4,1.9625E4,2.4822E4,5.0935E4,2.6402E4,1.75343E5,5.59412E5,2.6085E4,3.4216E4,3.0572E4,6.293E3,3.9847E4,8.664E3,4.71E3,3.138E3,4.669E3,1.3445E4,4.29E2,5.82E2,1.4434E4,1.148E3,3.821E3,1.183E3,3.273E3,8.978E3,3.867E3,2.824E3,9.3691E4,1.729E3,1.513E3,5.523E3],"tree_param":{"num_deleted":"0","num_feature":"61","num_nodes":"127","size_leaf_vector":"1"}},{"base_weights":[-2.8504533E-1,-9.1917276E-1,3.7213746E-2,-9.621942E-1,-5.524037E-1,-3.549079E-2,8.152436E-1,-9.7919416E-1,-6.7258453E-1,-6.784349E-1,-3.8034973E-1,-1.01564534E-1,1.0839408E-1,5.90766E-1,9.135409E-1,-9.8702085E-1,-7.9249275E-1,-7.5054294E-1,-2.0655522E-1,-2.0332071E-1,-7.2463727E-1,-6.878427E-1,-2.2142017E-1,-3.1299183E-1,-7.1899995E-2,4.5222566E-2,2.5398853E-1,3.8640955E-1,7.0712644E-1,9.3994683E-1,6.5951705E-1,-9.899995E-1,-8.350877E-1,-8.3544225E-1,-6.5918523E-1,-5.759721E-1,-8.4382063E-1,-4.6869986E-2,-5.5377096E-1,-6.9738865E-1,-8.767517E-2,-7.915221E-1,-5.537315E-1,-7.839388E-1,-4.59714E-1,-3.913474E-1,1.7886616E-1,-4.6530402E-1,-2.4151047E-1,2.7350485E-2,-1.325474E-1,2.3150413E-1,-5.861988E-2,5.288717E-1,2.0234531E-1,3.0919698E-1,6.015949E-1,8.356175E-1,5.0408214E-1,7.646556E-1,9.6405226E-1,1.4252874E-1,7.770223E-1,-2.9728782E-1,-2.2329804E-1,-2.54789E-1,-1.1590909E-1,-1.4426087E-1,-2.586173E-1,-1.6376975E-1,-2.3183365E-1,-2.29496E-1,-1.0248404E-1,-2.6311097E-1,-1.5E-1,-1.07700005E-1,3.019849E-2,-1.9271357E-1,-3.2635987E-2,-2.3199359E-1,2.7E-1,-5.863826E-2,8.544E-2,-2.5906855E-1,-2.080082E-1,-1.04332276E-1,-1.8706502E-1,-1.823494E-1,-2.5219846E-1,-2.0894258E-1,-5.636228E-2,-1.516316E-1,-1.5122989E-2,-6.3436836E-2,1.1265174E-1,-9.5872015E-2,-1.816615E-1,-6.085109E-2,-1.3568915E-1,-1.5050856E-2,8.258481E-2,-8.730337E-2,-1.3095073E-2,2.3805333E-2,1.0533695E-1,1.2146869E-1,-4.394095E-2,7.968466E-2,1.9022794E-1,1.2608758E-1,4.1044924E-2,5.284532E-2,1.2437975E-1,2.0873104E-1,1.4001548E-1,2.5833195E-1,1.1767242E-1,1.6433276E-1,-4.6583853E-4,2.4191846E-1,1.1472773E-1,1.653475E-1,2.9140556E-1,-9.432049E-3,2.0343752E-1,1.66205E-1,2.6375893E-1],"categories":[0,0,0,0,0,0,3,5,7,11,0,1,2,3,4,6,8,9,14],"categories_nodes":[9,10,14,33,34,42,56],"categories_segments":[0,1,2,3,4,5,10],"categories_sizes":[1,1,1,1,1,5,9],"default_left":[0,1,1,1,0,1,0,1,0,1,1,0,0,0,1,1,0,0,0,0,0,1,1,1,0,0,1,0,0,0,0,1,1,1,1,0,1,0,0,0,0,1,1,0,0,0,0,0,0,1,0,0,1,0,1,0,1,0,0,1,0,0,0,0,0,0,0,0,0,0,0,0,0,0,0,0,0,0,0,0,0,0,0,0,0,0,0,0,0,0,0,0,0,0,0,0,0,0,0,0,0,0,0,0,0,0,0,0,0,0,0,0,0,0,0,0,0,0,0,0,0,0,0,0,0,0,0],"id":6,"left_children":[1,3,5,7,9,11,13,15,17,19,21,23,25,27,29,31,33,35,37,39,41,43,45,47,49,51,53,55,57,59,61,63,65,67,69,71,73,75,77,79,81,83,85,87,89,91,93,95,97,99,101,103,105,107,109,111,113,115,117,119,121,123,125,-1,-1,-1,-1,-1,-1,-1,-1,-1,-1,-1,-1,-1,-1,-1,-1,-1,-1,-1,-1,-1,-1,-1,-1,-1,-1,-1,-1,-1,-1,-1,-1,-1,-1,-1,-1,-1,-1,-1,-1,-1,-1,-1,-1,-1,-1,-1,-1,-1,-1,-1,-1,-1,-1,-1,-1,-1,-1,-1,-1,-1,-1,-1,-1],"loss_changes":[3.875227E5,1.00819375E4,7.112412E4,2.815E3,1.4544258E3,1.0932162E4,2.3705156E3,7.885625E2,1.1519707E3,8.4981055E2,1.3860859E3,4.942423E3,3.3282964E3,7.779424E2,5.0063672E2,2.338125E2,1.2391699E2,4.4188965E2,2.5202802E2,1.9608931E2,4.0293945E2,2.1151855E2,1.2721716E3,1.0555488E3,4.159756E3,4.8819194E3,1.554353E3,1.9713403E2,5.4359375E2,2.8528906E2,4.2756104E2,1.19125E2,6.3271484E1,1.5471191E2,6.780737E1,4.1896753E2,2.017461E2,1.4347891E2,5.6392456E1,7.964856E1,1.1178613E2,1.787334E2,1.4255835E2,6.740576E1,1.8439246E2,5.1066626E2,4.278997E2,6.3270215E2,5.378738E2,5.037806E3,6.0426836E3,1.6440317E3,6.5984614E3,4.7954395E2,1.3164958E3,1.2251886E2,3.9496094E1,1.4396777E2,1.7860107E2,1.3032227E2,1.7880078E2,1.2161742E2,1.302102E2,0E0,0E0,0E0,0E0,0E0,0E0,0E0,0E0,0E0,0E0,0E0,0E0,0E0,0E0,0E0,0E0,0E0,0E0,0E0,0E0,0E0,0E0,0E0,0E0,0E0,0E0,0E0,0E0,0E0,0E0,0E0,0E0,0E0,0E0,0E0,0E0,0E0,0E0,0E0,0E0,0E0,0E0,0E0,0E0,0E0,0E0,0E0,0E0,0E0,0E0,0E0,0E0,0E0,0E0,0E0,0E0,0E0,0E0,0E0,0E0,0E0,0E0,0E0,0E0],"parents":[2147483647,0,0,1,1,2,2,3,3,4,4,5,5,6,6,7,7,8,8,9,9,10,10,11,11,12,12,13,13,14,14,15,15,16,16,17,17,18,18,19,19,20,20,21,21,22,22,23,23,24,24,25,25,26,26,27,27,28,28,29,29,30,30,31,31,32,32,33,33,34,34,35,35,36,36,37,37,38,38,39,39,40,40,41,41,42,42,43,43,44,44,45,45,46,46,47,47,48,48,49,49,50,50,51,51,52,52,53,53,54,54,55,55,56,56,57,57,58,58,59,59,60,60,61,61,62,62],"right_children":[2,4,6,8,10,12,14,16,18,20,22,24,26,28,30,32,34,36,38,40,42,44,46,48,50,52,54,56,58,60,62,64,66,68,70,72,74,76,78,80,82,84,86,88,90,92,94,96,98,100,102,104,106,108,110,112,114,116,118,120,122,124,126,-1,-1,-1,-1,-1,-1,-1,-1,-1,-1,-1,-1,-1,-1,-1,-1,-1,-1,-1,-1,-1,-1,-1,-1,-1,-1,-1,-1,-1,-1,-1,-1,-1,-1,-1,-1,-1,-1,-1,-1,-1,-1,-1,-1,-1,-1,-1,-1,-1,-1,-1,-1,-1,-1,-1,-1,-1,-1,-1,-1,-1,-1,-1,-1],"split_conditions":[3.614E0,2.321E0,9.83945E2,1.1370861E2,9.9973335E1,1.74307E2,1.095112E3,1.814E0,3.3E1,NaN,NaN,7.968E0,5.16464E2,9.83421E2,NaN,1.815E0,1.8767E3,9.9E1,9.1E1,2.45E1,1.8767E3,6.841E0,4.3956592E2,3.614E0,3.6083E1,2.24034E2,3.84894E2,9.82872E2,2E0,1.09714E3,2.1165826E2,5.783E0,2.5385E1,NaN,NaN,3.5171555E2,8.779E0,4.2E-1,7.5E1,3.48E2,2.639E2,2.72E0,NaN,3.6242163E2,8.331045E-2,4.2E1,1.85E2,2.3841858E-6,4.3308594E2,3.4244E1,6.6933E1,1.74187E2,2.13217E2,4.56414E2,-2.1731935E0,1.1536E2,NaN,1.16E2,5.1E1,3.9494028E2,8.262E2,7.41E2,2.92E2,-1.0434171E0,-1.0434171E0,-9.342171E-1,-1.0413203E0,-4.130479E-1,-9.378171E-1,-1.0434171E0,-5.8876705E-1,-1.0341171E0,-1.122548E0,-1.1989796E0,-1.300671E0,-6.1649454E-1,2.1681748E-1,-6.995662E-1,-2.6675647E-1,-5.4447174E-1,2.740055E0,-1.6822326E-1,8.327587E-1,-1.0345742E0,-1.0093074E0,-9.887827E-1,-7.411859E-1,-8.6171126E-1,-1.240148E0,-1.531255E0,-4.2828143E-1,-9.5099753E-1,-1.7547116E-1,-5.69978E-1,4.129379E0,-6.135849E-1,-1.1264938E0,-3.4396708E-1,-1.0209128E0,-1.0895734E-1,2.075614E0,-2.1719892E0,-4.326073E-1,1.6819474E0,6.02959E0,1.2266366E1,-4.766739E0,1.7763523E1,4.3511482E1,1.7491856E1,6.476514E0,1.3424909E1,3.7248608E1,3.6521725E1,2.6979933E1,1.0890297E2,5.3851192E1,4.2963135E1,-2.7392578E-1,6.0791996E1,4.752087E1,3.3164667E2,5.163168E2,-3.9835145E0,1.2637234E2,1.08076164E2,5.249492E2],"split_indices":[47,52,52,38,38,49,47,49,13,3,3,48,52,50,3,50,14,10,44,14,14,53,38,53,50,59,47,47,12,59,38,53,59,3,1,38,58,47,13,10,14,48,0,38,33,13,14,41,39,47,50,52,47,50,30,43,0,13,8,38,14,13,13,0,0,0,0,0,0,0,0,0,0,0,0,0,0,0,0,0,0,0,0,0,0,0,0,0,0,0,0,0,0,0,0,0,0,0,0,0,0,0,0,0,0,0,0,0,0,0,0,0,0,0,0,0,0,0,0,0,0,0,0,0,0,0,0],"split_type":[0,0,0,0,0,0,0,0,0,1,1,0,0,0,1,0,0,0,0,0,0,0,0,0,0,0,0,0,0,0,0,0,0,1,1,0,0,0,0,0,0,0,1,0,0,0,0,0,0,0,0,0,0,0,0,0,1,0,0,0,0,0,0,0,0,0,0,0,0,0,0,0,0,0,0,0,0,0,0,0,0,0,0,0,0,0,0,0,0,0,0,0,0,0,0,0,0,0,0,0,0,0,0,0,0,0,0,0,0,0,0,0,0,0,0,0,0,0,0,0,0,0,0,0,0,0,0],"sum_hessian":[1.896336E6,6.38979E5,1.257357E6,5.71895E5,6.7084E4,1.149903E6,1.07454E5,5.40184E5,3.1711E4,3.8719E4,2.8365E4,7.8803E5,3.61873E5,3.2726E4,7.4728E4,5.18446E5,2.1738E4,2.7166E4,4.545E3,3.432E3,3.5287E4,9.664E3,1.8701E4,9.696E4,6.9107E5,2.52373E5,1.095E5,1.1875E4,2.0851E4,6.7689E4,7.039E3,5.08472E5,9.974E3,1.6437E4,5.301E3,9.463E3,1.7703E4,3.114E3,1.431E3,6.5E2,2.782E3,2.5359E4,9.928E3,6.798E3,2.866E3,1.3128E4,5.573E3,3.0968E4,6.5992E4,2.62115E5,4.28955E5,9.033E4,1.62043E5,1.7317E4,9.2183E4,8.741E3,3.134E3,1.2768E4,8.083E3,8.187E3,5.9502E4,1.304E3,5.735E3,5.0649E5,1.982E3,9.667E3,3.07E2,1.149E3,1.5288E4,2.657E3,2.644E3,5.237E3,4.226E3,1.6142E4,1.561E3,9.99E2,2.115E3,1.193E3,2.38E2,6.21E2,2.9E1,2.158E3,6.24E2,1.4621E4,1.0738E4,2.515E3,7.413E3,1.659E3,5.139E3,1.531E3,1.335E3,9.836E3,3.292E3,1.867E3,3.706E3,1.5188E4,1.578E4,5.5763E4,1.0229E4,1.99682E5,6.2433E4,1.54158E5,2.74797E5,3.9759E4,5.0571E4,2.5818E4,1.36225E5,4.946E3,1.2371E4,2.1308E4,7.0875E4,3.865E3,4.876E3,1.843E3,1.291E3,1.2073E4,6.95E2,7.44E3,6.43E2,7.38E3,8.07E2,1.035E3,5.8467E4,9.85E2,3.19E2,1.804E3,3.931E3],"tree_param":{"num_deleted":"0","num_feature":"61","num_nodes":"127","size_leaf_vector":"1"}},{"base_weights":[-2.8726435E-1,-9.248981E-1,9.836139E-3,-9.6125764E-1,-5.519888E-1,-2.7251435E-2,8.6616385E-1,-9.75239E-1,-6.2152827E-1,-6.675237E-1,-3.5971546E-1,-7.278146E-2,1.3931741E-1,6.75418E-1,9.7591317E-1,-9.820975E-1,-7.4239916E-1,-6.992801E-1,-2.84451E-1,-7.5496864E-1,-5.550164E-1,-6.884965E-1,-2.2529782E-1,-3.7244263E-1,-5.6326248E-2,1.6196594E-1,-2.740489E-1,5.1646274E-1,7.83148E-1,9.909412E-1,7.7745426E-1,-9.8697877E-1,-8.367849E-1,-7.9102206E-1,-6.0332054E-1,-7.393144E-1,-2.0973782E-1,-1.693662E-1,-5.49513E-1,-8.3316684E-1,-6.8307847E-1,-3.398585E-1,-6.427403E-1,-7.5658697E-1,-3.1444445E-1,-3.2606298E-1,2.5200966E-1,-1.7148334E-1,-5.1302683E-1,-6.789674E-2,2.6258627E-1,8.842262E-2,2.7134818E-1,-2.3963964E-2,-4.4170594E-1,7.4128145E-1,3.1969732E-1,8.189623E-1,4.344638E-1,-3.6363637E-1,9.9326545E-1,8.27155E-1,1.0240964E-1,-2.9652596E-1,-2.1794215E-1,-2.587173E-1,-1.942153E-1,-2.5982496E-1,-2.1066692E-1,-2.0466143E-1,-7.935223E-2,-1.8680823E-1,-2.518181E-1,-1.2767734E-1,1.2641816E-2,-1.7028572E-1,-2.3704665E-2,-1.9549634E-1,6.62069E-2,-1.4683954E-1,-2.575003E-1,-2.0938943E-1,-5.1612906E-2,-1.4910103E-1,-4.4094488E-2,-4.766709E-2,-2.0479117E-1,-2.543746E-1,-1.869587E-1,5.1012147E-2,-1.4908257E-1,-1.370781E-1,-7.7159633E-3,1.273509E-1,-7.786625E-2,2.8619222E-2,-1.2322306E-1,-6.8649195E-2,-1.7090976E-1,1.8763326E-2,-2.8689051E-2,1.4007793E-1,4.698337E-2,8.32694E-3,9.338124E-2,-1.0186879E-1,8.6062565E-2,-5.3425577E-2,1.864486E-1,6.652174E-2,-1.3818341E-1,2.805504E-1,1.4209512E-1,5.4504674E-2,1.6707397E-1,2.6891577E-1,2.0299546E-1,1.8901515E-1,-2.5000002E-2,6.666667E-2,-2.6896554E-1,6.1224494E-2,2.9833755E-1,2.5283787E-1,-2.85E-1,1.0093459E-1,-9.5000006E-2],"categories":[0,0,1,2,3,4,6,7,8,9,12,15,0,0,2,0,1,2,3,4,5,6,7,8,9,11,12,13,14,0,0,1,2,3,4,5,6,8,9,11,12,15,0],"categories_nodes":[10,14,28,39,42,46,48,51,55,56],"categories_segments":[0,1,2,12,13,14,15,29,30,42],"categories_sizes":[1,1,10,1,1,1,14,1,12,1],"default_left":[0,1,1,1,1,1,0,1,0,0,1,0,0,0,1,1,0,1,0,0,1,0,0,0,1,0,0,0,1,0,0,1,1,0,1,0,0,0,0,1,0,0,1,0,0,0,1,0,1,0,0,1,0,0,0,1,1,0,0,0,0,0,0,0,0,0,0,0,0,0,0,0,0,0,0,0,0,0,0,0,0,0,0,0,0,0,0,0,0,0,0,0,0,0,0,0,0,0,0,0,0,0,0,0,0,0,0,0,0,0,0,0,0,0,0,0,0,0,0,0,0,0,0,0,0,0,0],"id":7,"left_children":[1,3,5,7,9,11,13,15,17,19,21,23,25,27,29,31,33,35,37,39,41,43,45,47,49,51,53,55,57,59,61,63,65,67,69,71,73,75,77,79,81,83,85,87,89,91,93,95,97,99,101,103,105,107,109,111,113,115,117,119,121,123,125,-1,-1,-1,-1,-1,-1,-1,-1,-1,-1,-1,-1,-1,-1,-1,-1,-1,-1,-1,-1,-1,-1,-1,-1,-1,-1,-1,-1,-1,-1,-1,-1,-1,-1,-1,-1,-1,-1,-1,-1,-1,-1,-1,-1,-1,-1,-1,-1,-1,-1,-1,-1,-1,-1,-1,-1,-1,-1,-1,-1,-1,-1,-1,-1],"loss_changes":[3.592445E5,8.1719062E3,4.108352E4,2.6080312E3,1.189334E3,9.403252E3,1.1235117E3,8.41625E2,5.688115E2,3.2865918E2,8.882322E2,4.8014644E3,2.4918901E3,3.3550488E2,1.0088672E2,3.6259375E2,1.0161426E2,3.4558203E2,1.2409119E2,1.0521973E2,2.7595312E2,1.4832495E2,6.864114E2,1.4319067E3,3.4060513E3,2.0298594E3,5.796929E2,3.5042603E2,1.4562744E2,1.0010742E2,8.056995E1,1.8540625E2,8.0234375E1,7.3930664E1,1.0445569E2,1.897998E2,7.2599915E1,1.0214518E2,9.706476E1,7.75083E1,7.450879E1,1.2843976E2,2.0051904E2,5.957959E1,7.9660034E1,4.6310864E2,2.1965459E2,1.3323513E3,4.8020068E2,3.222312E3,6.9975E2,2.039911E3,9.6240674E2,5.5221924E2,1.0391809E2,1.9149841E2,1.3835358E2,1.1618652E2,1.1054271E2,1.737095E1,2.9578125E1,6.3024414E1,1.6387854E1,0E0,0E0,0E0,0E0,0E0,0E0,0E0,0E0,0E0,0E0,0E0,0E0,0E0,0E0,0E0,0E0,0E0,0E0,0E0,0E0,0E0,0E0,0E0,0E0,0E0,0E0,0E0,0E0,0E0,0E0,0E0,0E0,0E0,0E0,0E0,0E0,0E0,0E0,0E0,0E0,0E0,0E0,0E0,0E0,0E0,0E0,0E0,0E0,0E0,0E0,0E0,0E0,0E0,0E0,0E0,0E0,0E0,0E0,0E0,0E0,0E0,0E0,0E0,0E0],"parents":[2147483647,0,0,1,1,2,2,3,3,4,4,5,5,6,6,7,7,8,8,9,9,10,10,11,11,12,12,13,13,14,14,15,15,16,16,17,17,18,18,19,19,20,20,21,21,22,22,23,23,24,24,25,25,26,26,27,27,28,28,29,29,30,30,31,31,32,32,33,33,34,34,35,35,36,36,37,37,38,38,39,39,40,40,41,41,42,42,43,43,44,44,45,45,46,46,47,47,48,48,49,49,50,50,51,51,52,52,53,53,54,54,55,55,56,56,57,57,58,58,59,59,60,60,61,61,62,62],"right_children":[2,4,6,8,10,12,14,16,18,20,22,24,26,28,30,32,34,36,38,40,42,44,46,48,50,52,54,56,58,60,62,64,66,68,70,72,74,76,78,80,82,84,86,88,90,92,94,96,98,100,102,104,106,108,110,112,114,116,118,120,122,124,126,-1,-1,-1,-1,-1,-1,-1,-1,-1,-1,-1,-1,-1,-1,-1,-1,-1,-1,-1,-1,-1,-1,-1,-1,-1,-1,-1,-1,-1,-1,-1,-1,-1,-1,-1,-1,-1,-1,-1,-1,-1,-1,-1,-1,-1,-1,-1,-1,-1,-1,-1,-1,-1,-1,-1,-1,-1,-1,-1,-1,-1,-1,-1,-1],"split_conditions":[2.324E0,1.674E0,1.5673E3,1.3547972E2,9.3460464E1,3.2807E2,2.387869E3,1.672E0,2.3E1,2.321E0,NaN,2.72E0,3.49E2,1.569461E3,NaN,1.163E0,1.8767E3,9.626E0,8.897E1,7.62E2,1.0212963E-1,1.0488E1,5.506645E2,1.1920929E-7,3.74286E2,8E0,-3.333838E0,2E0,NaN,5.9009E2,8.2415825E-1,5.442E0,3.611259E1,6.59E-1,6.48E0,8.501E1,5E0,5.7E-2,1.4822E1,NaN,1.653048E4,4.7E1,NaN,1.2756042E-1,4.1748676E2,3.3E1,NaN,1.8E1,NaN,-4.2789063E0,2E0,NaN,6E0,1.48E2,2.18451E2,NaN,NaN,6.748228E1,2.1E1,8.06506E2,1.569288E3,3.05E2,1.1363672E1,-7.30392E-1,-7.30392E-1,-5.3179204E-1,-5.134127E-1,-7.57452E-1,-5.4205203E-1,-5.969567E-1,-7.4453616E-1,-8.650688E-1,-9.5186853E-1,-1.274996E0,1.1187173E-1,-7.3318195E-1,-2.0572872E-1,-6.4433473E-1,9.5876986E-1,-4.098194E-1,-7.0266527E-1,-5.801087E-1,-6.7679775E-1,-4.3844488E-1,-6.0744848E-2,-2.6283088E-1,-1.0137827E0,-1.0292035E0,-8.512492E-1,4.5651808E-1,-1.4004525E0,-7.9182726E-1,-6.1045293E-2,3.8858664E0,-5.515907E-1,2.2022596E-1,-5.572474E-1,-3.17892E-1,-9.0412664E-1,3.034547E-1,-3.917755E-1,2.5783623E1,7.6009645E0,1.1390991E0,2.846897E1,-6.515314E1,1.2434936E1,-7.0596223E0,2.5159534E1,1.0076843E1,-1.796576E1,2.3022209E2,7.6392044E1,1.889535E1,1.6219937E2,1.3780023E2,1.9485155E2,2.7900763E2,-1.6716194E1,2.4516102E1,-8.149237E1,4.710533E1,1.2407526E3,5.61921E2,-2.3262871E2,5.216943E1,-2.0277842E1],"split_indices":[47,49,52,38,38,48,58,50,13,52,3,50,10,47,3,48,14,58,44,14,39,51,38,41,50,7,30,12,0,14,33,53,38,47,55,44,12,47,58,3,14,4,3,33,38,13,2,8,0,31,12,3,13,13,51,0,3,39,11,48,59,45,31,0,0,0,0,0,0,0,0,0,0,0,0,0,0,0,0,0,0,0,0,0,0,0,0,0,0,0,0,0,0,0,0,0,0,0,0,0,0,0,0,0,0,0,0,0,0,0,0,0,0,0,0,0,0,0,0,0,0,0,0,0,0,0,0],"split_type":[0,0,0,0,0,0,0,0,0,0,1,0,0,0,1,0,0,0,0,0,0,0,0,0,0,0,0,0,1,0,0,0,0,0,0,0,0,0,0,1,0,0,1,0,0,0,1,0,1,0,0,1,0,0,0,1,1,0,0,0,0,0,0,0,0,0,0,0,0,0,0,0,0,0,0,0,0,0,0,0,0,0,0,0,0,0,0,0,0,0,0,0,0,0,0,0,0,0,0,0,0,0,0,0,0,0,0,0,0,0,0,0,0,0,0,0,0,0,0,0,0,0,0,0,0,0,0],"sum_hessian":[1.896336E6,6.0274E5,1.293596E6,5.49191E5,5.3549E4,1.239897E6,5.3699E4,5.27481E5,2.171E4,3.3448E4,2.0101E4,9.73736E5,2.66161E5,1.9615E4,3.4084E4,5.12385E5,1.5096E4,1.764E4,4.07E3,1.8817E4,1.4631E4,5.832E3,1.4269E4,5.0686E4,9.2305E5,2.52336E5,1.3825E4,7.926E3,1.1689E4,3.1681E4,2.403E3,4.95727E5,1.6658E4,1.1182E4,3.914E3,1.6306E4,1.334E3,2.839E3,1.231E3,9.008E3,9.809E3,4.239E3,1.0392E4,4.933E3,8.99E2,1.1782E4,2.487E3,2.0864E4,2.9822E4,8.90734E5,3.2316E4,1.50888E5,1.01448E5,5.549E3,8.276E3,3.698E3,4.228E3,1.0599E4,1.09E3,5.4E1,3.1627E4,2.238E3,1.65E2,4.92997E5,2.73E3,1.4671E4,1.987E3,6.055E3,5.127E3,3.174E3,7.4E2,7.534E3,8.772E3,7.18E2,6.16E2,5.24E2,2.315E3,1.087E3,1.44E2,6.16E2,8.392E3,9.531E3,2.78E2,2.335E3,1.904E3,7.92E2,9.6E3,2.925E3,2.008E3,2.46E2,6.53E2,8.206E3,3.576E3,1.86E3,6.27E2,9.863E3,1.1001E4,4.959E3,2.4863E4,1.56176E5,7.34558E5,1.1035E4,2.1281E4,1.18602E5,3.2286E4,2.514E3,9.8934E4,4.48E3,1.069E3,2.29E2,8.047E3,2.143E3,1.555E3,2.674E3,1.554E3,6.861E3,3.738E3,7.91E2,2.99E2,2.6E1,2.8E1,4.8E1,3.1579E4,2.219E3,1.9E1,1.06E2,5.9E1],"tree_param":{"num_deleted":"0","num_feature":"61","num_nodes":"127","size_leaf_vector":"1"}},{"base_weights":[-2.790638E-1,-9.21498E-1,3.0355554E-3,-9.533445E-1,-4.8883343E-1,-2.6018566E-2,6.9837844E-1,-9.7464895E-1,-6.6363317E-1,-5.7738346E-1,-1.7250519E-1,-3.292394E-1,-1.1045773E-2,4.180122E-1,9.29904E-1,-9.8472613E-1,-8.3861744E-1,-7.507668E-1,-5.5435514E-1,-6.629764E-1,-2.6679605E-1,7.547993E-2,-2.6146862E-1,-1.7157416E-1,-5.006839E-1,-3.7029095E-2,1.2904799E-1,5.38754E-1,7.92615E-2,5.26738E-1,9.577132E-1,-9.886854E-1,-8.572848E-1,-8.7118953E-1,-7.194138E-1,-8.4456426E-1,-6.933877E-1,-3.601757E-1,-6.343187E-1,-5.885559E-1,-8.2078624E-1,-1.0941535E-1,-5.4139346E-1,4.7309417E-1,-2.0573903E-2,3.2366823E-2,-3.5025483E-1,9.524222E-2,-3.301625E-1,-2.6026598E-1,-6.040016E-1,2.806265E-1,-4.540224E-2,3.702721E-1,8.176312E-2,4.2937475E-1,6.995654E-1,-4.3694142E-2,5.748599E-1,6.823184E-1,1.0826772E-1,9.703622E-1,5.377834E-1,-2.9716694E-1,-2.569874E-1,-2.6106036E-1,-1.2949641E-1,-2.6675364E-1,-2.1149945E-1,-2.2942032E-1,-1.4807384E-1,-1.3773088E-1,-2.5924727E-1,-2.1153878E-1,-3.3201583E-2,-1.532696E-1,-5.3437933E-2,-1.4447111E-1,-2.2020233E-1,-2.0239474E-1,-1.1897968E-1,-2.559746E-1,-1.4808512E-1,-9.571923E-3,-2.0801605E-1,-2.01636E-1,-1.03182755E-1,2.2305195E-1,-3.884892E-2,-6.541583E-2,6.1600927E-2,7.801339E-2,-9.438776E-2,-1.174115E-1,3.9637305E-2,-7.845606E-2,8.986533E-2,-1.4859736E-1,-3.8515136E-2,2.0130476E-2,-1.3711245E-1,-4.661017E-2,-1.9429925E-1,3.9198514E-2,1.1852128E-1,-2.5374517E-2,5.5171903E-3,1.6013761E-1,5.5447392E-2,1.207892E-1,1.4820815E-2,1.9985498E-1,8.255193E-2,2.352E-1,1.6309287E-1,8.7462515E-2,-6.286732E-2,1.0479134E-1,2.4477613E-1,2.5971565E-1,1.5677154E-1,2.7173916E-1,-5.660378E-2,2.950434E-1,2.1451865E-1,-1.3899083E-1,2.745234E-1],"categories":[2,0,0,0,2,3,4,5,6,7,9,11,12,13,0,0,0],"categories_nodes":[19,28,35,49,50,51,61],"categories_segments":[0,1,2,3,14,15,16],"categories_sizes":[1,1,1,11,1,1,1],"default_left":[0,1,1,1,1,0,0,1,1,0,0,0,1,0,0,1,0,0,1,1,0,0,0,0,1,0,1,0,1,0,0,0,0,1,0,1,0,1,0,0,1,0,0,0,0,0,0,0,1,1,1,1,0,0,0,0,0,0,0,0,0,1,0,0,0,0,0,0,0,0,0,0,0,0,0,0,0,0,0,0,0,0,0,0,0,0,0,0,0,0,0,0,0,0,0,0,0,0,0,0,0,0,0,0,0,0,0,0,0,0,0,0,0,0,0,0,0,0,0,0,0,0,0,0,0,0,0],"id":8,"left_children":[1,3,5,7,9,11,13,15,17,19,21,23,25,27,29,31,33,35,37,39,41,43,45,47,49,51,53,55,57,59,61,63,65,67,69,71,73,75,77,79,81,83,85,87,89,91,93,95,97,99,101,103,105,107,109,111,113,115,117,119,121,123,125,-1,-1,-1,-1,-1,-1,-1,-1,-1,-1,-1,-1,-1,-1,-1,-1,-1,-1,-1,-1,-1,-1,-1,-1,-1,-1,-1,-1,-1,-1,-1,-1,-1,-1,-1,-1,-1,-1,-1,-1,-1,-1,-1,-1,-1,-1,-1,-1,-1,-1,-1,-1,-1,-1,-1,-1,-1,-1,-1,-1,-1,-1,-1,-1],"loss_changes":[3.4367366E5,7.9723125E3,2.662128E4,3.3258438E3,1.1111484E3,5.7425674E3,3.4302695E3,6.8734375E2,3.5113574E2,8.237969E2,1.9147034E2,1.6087627E3,4.3875938E3,9.777451E2,3.240293E2,2.35E2,1.3383984E2,1.09956055E2,2.5415576E2,2.848789E2,2.8940372E2,8.7546646E1,1.666388E2,1.3120602E3,7.0808984E2,2.7043877E3,2.1509724E3,3.096958E2,3.8288986E2,1.2167395E2,1.4330273E2,1.1115625E2,7.709082E1,8.067578E1,7.575E1,5.8444336E1,8.71499E1,1.3109485E2,1.763291E2,2.726621E2,8.225049E1,1.9275302E2,6.2750305E1,7.277105E1,8.2444084E1,1.17242584E2,9.7337036E1,8.4268353E2,6.4806396E2,5.52221E2,3.905327E2,4.4811597E2,2.476019E3,9.3713574E2,1.6371833E3,3.829453E2,9.3481445E1,2.8002432E2,6.762625E1,3.9480225E1,1.2047746E2,8.730859E1,3.0032123E2,0E0,0E0,0E0,0E0,0E0,0E0,0E0,0E0,0E0,0E0,0E0,0E0,0E0,0E0,0E0,0E0,0E0,0E0,0E0,0E0,0E0,0E0,0E0,0E0,0E0,0E0,0E0,0E0,0E0,0E0,0E0,0E0,0E0,0E0,0E0,0E0,0E0,0E0,0E0,0E0,0E0,0E0,0E0,0E0,0E0,0E0,0E0,0E0,0E0,0E0,0E0,0E0,0E0,0E0,0E0,0E0,0E0,0E0,0E0,0E0,0E0,0E0,0E0,0E0],"parents":[2147483647,0,0,1,1,2,2,3,3,4,4,5,5,6,6,7,7,8,8,9,9,10,10,11,11,12,12,13,13,14,14,15,15,16,16,17,17,18,18,19,19,20,20,21,21,22,22,23,23,24,24,25,25,26,26,27,27,28,28,29,29,30,30,31,31,32,32,33,33,34,34,35,35,36,36,37,37,38,38,39,39,40,40,41,41,42,42,43,43,44,44,45,45,46,46,47,47,48,48,49,49,50,50,51,51,52,52,53,53,54,54,55,55,56,56,57,57,58,58,59,59,60,60,61,61,62,62],"right_children":[2,4,6,8,10,12,14,16,18,20,22,24,26,28,30,32,34,36,38,40,42,44,46,48,50,52,54,56,58,60,62,64,66,68,70,72,74,76,78,80,82,84,86,88,90,92,94,96,98,100,102,104,106,108,110,112,114,116,118,120,122,124,126,-1,-1,-1,-1,-1,-1,-1,-1,-1,-1,-1,-1,-1,-1,-1,-1,-1,-1,-1,-1,-1,-1,-1,-1,-1,-1,-1,-1,-1,-1,-1,-1,-1,-1,-1,-1,-1,-1,-1,-1,-1,-1,-1,-1,-1,-1,-1,-1,-1,-1,-1,-1,-1,-1,-1,-1,-1,-1,-1,-1,-1,-1,-1,-1],"split_conditions":[1.674E0,8.72325E1,1.569288E3,1.162E0,5.429E0,2.32E0,2.973084E3,5.93E-1,1.67E0,2.3E1,6.7495E1,4.5880637E-1,4.70755E2,2.387869E3,2.976121E3,9E-1,1.816E0,3.1E1,8.888889E-3,NaN,1.9571686E-1,1.1444092E-5,-2.2624793E0,1.03E2,6.488889E-1,-1.1364599E1,3.95688E2,1.758977E3,NaN,1.175E3,3.57E2,7.33E-1,2.5393E1,1.811E0,3.1896E3,NaN,1.653048E4,1.96E0,2.17E2,3.6242163E2,3.162E0,1.2142E2,5.3E-1,7.5666666E0,2.2456E1,9.934107E-7,7.1316E1,1.5078667E2,5.3E2,NaN,NaN,NaN,2.43E2,2E0,3.84616E2,2E0,6.748228E1,-1.6800903E0,5.506645E2,5.4666668E1,2.387869E3,NaN,5.185863E3,-5.112744E-1,-4.188744E-1,-4.9017915E-1,-8.4723926E-1,-3.3805436E-1,-4.1855687E-1,-5.684544E-1,-4.9045438E-1,-2.4159537E-1,-4.9819914E-1,-3.801744E-1,-3.2120925E-1,-2.4627785E-1,-1.1093989E-1,-5.350599E-1,-7.259257E-1,-4.322056E-1,-7.356629E-1,-8.649628E-1,-6.9567823E-1,-3.9877493E-2,-3.5982978E-1,-8.5822326E-1,-5.35195E-1,7.5674376E0,-2.2588363E-1,-2.8800595E-1,1.0537697E0,1.0170726E0,-6.874693E-1,-8.0326885E-1,3.110119E0,-2.504094E-1,1.5590438E0,-5.9000045E-1,-9.138605E-2,2.1673197E-2,-2.94814E-1,-2.6287425E-1,-1.0814422E0,1.2742127E0,2.2280893E0,-3.884514E-1,7.588499E-2,3.0909578E1,1.3652239E1,3.2041225E1,2.4653778E0,1.21029915E2,2.8615541E1,1.222026E2,1.3991872E2,5.108434E1,-3.5519093E1,1.1307964E2,5.561466E2,2.9950848E2,2.1013968E2,2.5516978E2,-2.8719435E1,1.094861E3,5.8638416E2,-6.2943092E1,1.3460034E3],"split_indices":[47,38,59,50,59,53,52,48,52,13,46,33,49,58,59,54,48,13,39,2,33,33,37,10,39,31,54,47,3,13,10,47,53,53,14,3,14,59,10,38,48,46,47,15,59,41,52,38,14,0,3,1,10,12,57,12,39,30,38,28,58,3,59,0,0,0,0,0,0,0,0,0,0,0,0,0,0,0,0,0,0,0,0,0,0,0,0,0,0,0,0,0,0,0,0,0,0,0,0,0,0,0,0,0,0,0,0,0,0,0,0,0,0,0,0,0,0,0,0,0,0,0,0,0,0,0,0],"split_type":[0,0,0,0,0,0,0,0,0,0,0,0,0,0,0,0,0,0,0,1,0,0,0,0,0,0,0,0,1,0,0,0,0,0,0,1,0,0,0,0,0,0,0,0,0,0,0,0,0,1,1,1,0,0,0,0,0,0,0,0,0,1,0,0,0,0,0,0,0,0,0,0,0,0,0,0,0,0,0,0,0,0,0,0,0,0,0,0,0,0,0,0,0,0,0,0,0,0,0,0,0,0,0,0,0,0,0,0,0,0,0,0,0,0,0,0,0,0,0,0,0,0,0,0,0,0,0],"sum_hessian":[1.896336E6,5.78621E5,1.317715E6,5.3895E5,3.9671E4,1.264865E6,5.285E4,5.0203E5,3.692E4,3.0994E4,8.677E3,5.9518E4,1.205347E6,2.3905E4,2.8945E4,4.67399E5,3.4631E4,2.0538E4,1.6382E4,2.4297E4,6.697E3,2.291E3,6.386E3,3.1006E4,2.8512E4,1.016767E6,1.8858E5,1.7623E4,6.282E3,1.869E3,2.7076E4,4.53309E5,1.409E4,2.7194E4,7.437E3,7.79E3,1.2748E4,4.78E3,1.1602E4,1.6514E4,7.783E3,4.258E3,2.439E3,4.45E2,1.846E3,1.482E3,4.904E3,1.1559E4,1.9447E4,8.571E3,1.9941E4,2.6112E4,9.90655E5,3.0906E4,1.57674E5,1.0491E4,7.132E3,5.034E3,1.248E3,1.362E3,5.07E2,2.6283E4,7.93E2,4.4697E5,6.339E3,1.3674E4,4.16E2,2.4534E4,2.66E3,6.192E3,1.245E3,3.78E2,7.412E3,1.2496E4,2.52E2,2.614E3,2.166E3,4.584E3,7.018E3,1.1399E4,5.115E3,7.079E3,7.04E2,3.76E3,4.98E2,1.466E3,9.73E2,3.07E2,1.38E2,9.85E2,8.61E2,8.95E2,5.87E2,4.519E3,3.85E2,4.209E3,7.35E3,1.0693E4,8.754E3,3.218E3,5.353E3,1.769E3,1.8172E4,1.1303E4,1.4809E4,6.13725E5,3.7693E5,1.6423E4,1.4483E4,1.4444E4,1.4323E5,4.136E3,6.355E3,4.624E3,2.508E3,1.666E3,3.368E3,6.46E2,6.02E2,6.32E2,7.3E2,1.37E2,3.7E2,2.4996E4,1.287E3,2.17E2,5.76E2],"tree_param":{"num_deleted":"0","num_feature":"61","num_nodes":"127","size_leaf_vector":"1"}},{"base_weights":[-2.7070928E-1,-9.168377E-1,-3.691255E-3,-9.5998627E-1,-5.8850837E-1,-2.0193567E-2,9.091367E-1,-9.710141E-1,-5.323759E-1,-6.8305576E-1,-2.926282E-1,-3.49823E-1,-6.200937E-3,7.096125E-1,9.756534E-1,-9.809924E-1,-7.969745E-1,-8.550649E-1,-4.7259617E-1,-7.6217365E-1,-5.267552E-1,-4.725786E-1,-1.425717E-1,-4.650773E-1,-2.1190915E-1,-2.9245913E-2,1.3382773E-1,7.3734397E-1,-1.185567E-1,9.870363E-1,8.06023E-1,-9.857985E-1,-8.444473E-1,-8.3084553E-1,-6.6012436E-1,-8.781148E-1,-3.125E-1,-3.1785792E-1,-5.967071E-1,-8.708234E-1,-7.1325666E-1,-3.1417525E-1,-5.925453E-1,-6.8652177E-1,-3.6983728E-1,6.0903733E-3,-3.6384907E-1,-5.9264207E-1,-3.4431794E-1,-5.9085107E-1,-1.2165586E-1,-3.605049E-2,2.2239715E-1,1.5716976E-1,-2.2556667E-1,5.081191E-1,8.1612676E-1,4.2682928E-1,-5.132743E-1,9.926584E-1,8.135593E-1,2.5E-1,8.4535104E-1,-2.964332E-1,-2.494732E-1,-2.6032415E-1,-1.6407508E-1,-2.530117E-1,-1.586747E-1,-2.1858154E-1,-1.3868779E-1,-1.1718751E-1,-2.6853618E-1,-2.0000002E-1,1.6250001E-1,-1.8037063E-1,-5.631496E-2,-2.1296145E-1,-1.20198674E-1,-1.1767242E-1,-2.646107E-1,-2.3844256E-1,-1.8684211E-1,-1.7648149E-1,-3.529412E-2,-2.0137376E-1,-1.4338884E-1,-1.1009174E-2,-2.1555658E-1,-1.5142071E-1,-2.3850199E-2,3.2975662E-2,-9.188977E-2,-1.3105144E-1,-3.4407217E-2,1.5292842E-2,-1.9116963E-1,6.4722225E-2,-1.1630326E-1,-2.0462334E-1,-7.88086E-2,-5.9848573E-2,1.1092998E-1,7.3595946E-3,-2.1883182E-2,1.04644045E-1,-3.0519888E-2,2.2696165E-2,7.448219E-2,-2.159881E-3,-1.0606987E-1,1.772269E-1,4.982699E-2,2.6207817E-1,1.808534E-1,2.2978725E-1,-8.333334E-3,-2.3461539E-1,2.5000002E-2,2.9866216E-1,2.4913496E-1,2.9930717E-1,-0E0,2.5833336E-1,-8.7804876E-2,2.6179665E-1,5.0000004E-2],"categories":[0,0,0,0,1,4,7,8,11,13,0,0,1,2,3,4,5,7,8,9,10,11,13,14,0,1,2,3,4,5,6,7,8,9,10,11],"categories_nodes":[21,24,39,43,47,48,59,60],"categories_segments":[0,1,2,3,10,11,24,25],"categories_sizes":[1,1,1,7,1,13,1,11],"default_left":[0,1,1,1,1,0,0,1,0,1,0,0,1,0,0,1,0,1,0,0,1,1,0,1,1,1,0,0,0,0,0,0,1,0,0,0,0,1,0,1,0,0,0,1,0,0,0,1,1,0,1,0,0,1,0,0,0,0,0,1,1,0,0,0,0,0,0,0,0,0,0,0,0,0,0,0,0,0,0,0,0,0,0,0,0,0,0,0,0,0,0,0,0,0,0,0,0,0,0,0,0,0,0,0,0,0,0,0,0,0,0,0,0,0,0,0,0,0,0,0,0,0,0,0,0,0,0],"id":9,"left_children":[1,3,5,7,9,11,13,15,17,19,21,23,25,27,29,31,33,35,37,39,41,43,45,47,49,51,53,55,57,59,61,63,65,67,69,71,73,75,77,79,81,83,85,87,89,91,93,95,97,99,101,103,105,107,109,111,113,115,117,119,121,123,125,-1,-1,-1,-1,-1,-1,-1,-1,-1,-1,-1,-1,-1,-1,-1,-1,-1,-1,-1,-1,-1,-1,-1,-1,-1,-1,-1,-1,-1,-1,-1,-1,-1,-1,-1,-1,-1,-1,-1,-1,-1,-1,-1,-1,-1,-1,-1,-1,-1,-1,-1,-1,-1,-1,-1,-1,-1,-1,-1,-1,-1,-1,-1,-1],"loss_changes":[3.271711E5,7.8552812E3,2.0212887E4,2.310625E3,1.801707E3,6.0790903E3,3.1553125E2,8.289375E2,2.373291E2,6.0322656E2,4.211753E2,8.529951E2,4.0799268E3,1.3698975E2,3.3703125E1,2.9575E2,1.1956641E2,2.3799805E1,1.9953955E2,1.7161133E2,2.2929004E2,1.5565576E2,2.7987762E2,4.5016602E2,8.3562366E2,1.8590037E3,1.4988977E3,1.0374951E2,4.1982132E1,1.5518555E1,2.4476807E1,1.5478125E2,1.0608301E2,7.810254E1,6.9379395E1,1.4953857E1,2.45625E1,1.7067444E2,1.2772461E2,5.361377E1,1.6437402E2,2.0893735E2,1.1266211E2,4.7800903E1,1.877215E2,1.6512752E2,6.2127228E1,4.080161E2,3.6485205E2,1.405227E2,7.550156E2,2.3626619E3,1.1712744E3,1.2459438E3,3.045783E2,4.1676544E1,5.2066895E1,1.2663223E1,1.8185217E1,6.7509766E0,7.954468E1,2.545664E1,1.9386353E1,0E0,0E0,0E0,0E0,0E0,0E0,0E0,0E0,0E0,0E0,0E0,0E0,0E0,0E0,0E0,0E0,0E0,0E0,0E0,0E0,0E0,0E0,0E0,0E0,0E0,0E0,0E0,0E0,0E0,0E0,0E0,0E0,0E0,0E0,0E0,0E0,0E0,0E0,0E0,0E0,0E0,0E0,0E0,0E0,0E0,0E0,0E0,0E0,0E0,0E0,0E0,0E0,0E0,0E0,0E0,0E0,0E0,0E0,0E0,0E0,0E0,0E0,0E0,0E0],"parents":[2147483647,0,0,1,1,2,2,3,3,4,4,5,5,6,6,7,7,8,8,9,9,10,10,11,11,12,12,13,13,14,14,15,15,16,16,17,17,18,18,19,19,20,20,21,21,22,22,23,23,24,24,25,25,26,26,27,27,28,28,29,29,30,30,31,31,32,32,33,33,34,34,35,35,36,36,37,37,38,38,39,39,40,40,41,41,42,42,43,43,44,44,45,45,46,46,47,47,48,48,49,49,50,50,51,51,52,52,53,53,54,54,55,55,56,56,57,57,58,58,59,59,60,60,61,61,62,62],"right_children":[2,4,6,8,10,12,14,16,18,20,22,24,26,28,30,32,34,36,38,40,42,44,46,48,50,52,54,56,58,60,62,64,66,68,70,72,74,76,78,80,82,84,86,88,90,92,94,96,98,100,102,104,106,108,110,112,114,116,118,120,122,124,126,-1,-1,-1,-1,-1,-1,-1,-1,-1,-1,-1,-1,-1,-1,-1,-1,-1,-1,-1,-1,-1,-1,-1,-1,-1,-1,-1,-1,-1,-1,-1,-1,-1,-1,-1,-1,-1,-1,-1,-1,-1,-1,-1,-1,-1,-1,-1,-1,-1,-1,-1,-1,-1,-1,-1,-1,-1,-1,-1,-1,-1,-1,-1,-1],"split_conditions":[1.165E0,5.92E-1,3.958934E3,1.3547972E2,8.72325E1,1.816E0,5.198335E3,5.27E-1,8E1,1.277E0,2.955E2,3.9446262E1,5.7064E2,3.48E2,1.58E2,4.18E-1,1.162E0,6.83E0,8.074E1,2.6E1,1.3589223E-1,NaN,1.742986E-1,5.9E1,NaN,6.32584E2,3.49E2,3.949388E3,-5.2947145E0,3.57E2,2.8178405E-2,5.3E-1,2.703E0,1.5341E1,1.8767E3,2E0,2.4E1,4E-3,5E0,NaN,1.063E0,1.404E0,6.2E1,NaN,4.284178E2,1.017E2,5E0,NaN,NaN,2.95E2,5.172045E2,3.887E1,6E0,1.428E2,1.5397946E0,2.7E2,3.5694992E2,1.00543335E3,1.9E1,NaN,NaN,6.605515E3,4.6928538E-4,-3.578921E-1,-3.0371606E-1,-3.2267508E-1,-3.431021E-1,-3.2051897E-1,-8.840896E-1,-3.6914575E-1,-3.5181263E-1,-1.8675238E-1,-7.9758936E-1,-9.714169E-1,8.874941E-1,-5.6939715E-1,-2.1556024E-1,-5.0733745E-1,-2.6850098E-1,-1.9327576E-1,-3.0532917E-1,-2.4062207E-1,-3.0715707E-1,-1.5485805E-1,-6.5740444E-2,-4.8809257E-1,-3.0121273E-1,-5.7091214E-2,-6.4674354E-1,-4.8001093E-1,-1.4638653E-1,1.9104321E-1,-1.976424E-1,-9.268252E-1,-2.0280033E-1,3.5141375E-2,-3.8691357E-1,5.2441943E-2,-1.732867E-1,-6.4814043E-1,-5.747045E-1,-1.3943808E-1,1.9988447E0,4.609995E-2,-8.871369E-1,2.9236717E1,-4.154591E0,4.555774E0,1.7683695E1,-2.6674807E-1,-1.9583313E1,1.9974933E2,3.3669033E1,3.0500452E2,2.4672452E2,1.399325E2,-1.7227296E0,-1.0302378E2,2.2292871E1,1.0863049E3,8.4240155E2,1.0769604E3,-8.105933E0,8.0974414E2,-1.4192253E2,8.141421E2,4.6841177E2],"split_indices":[47,49,52,38,38,48,52,52,14,52,14,38,53,10,28,50,50,59,44,13,33,3,33,13,3,48,10,59,30,10,35,47,59,52,14,11,11,51,12,3,49,49,13,0,38,44,12,3,0,14,38,47,12,43,36,10,39,19,9,3,0,56,41,0,0,0,0,0,0,0,0,0,0,0,0,0,0,0,0,0,0,0,0,0,0,0,0,0,0,0,0,0,0,0,0,0,0,0,0,0,0,0,0,0,0,0,0,0,0,0,0,0,0,0,0,0,0,0,0,0,0,0,0,0,0,0,0],"split_type":[0,0,0,0,0,0,0,0,0,0,0,0,0,0,0,0,0,0,0,0,0,1,0,0,1,0,0,0,0,0,0,0,0,0,0,0,0,0,0,1,0,0,0,1,0,0,0,1,1,0,0,0,0,0,0,0,0,0,0,1,1,0,0,0,0,0,0,0,0,0,0,0,0,0,0,0,0,0,0,0,0,0,0,0,0,0,0,0,0,0,0,0,0,0,0,0,0,0,0,0,0,0,0,0,0,0,0,0,0,0,0,0,0,0,0,0,0,0,0,0,0,0,0,0,0,0,0],"sum_hessian":[1.896336E6,5.54517E5,1.341819E6,4.90106E5,6.4411E4,1.317993E6,2.3826E4,4.77783E5,1.2323E4,4.8812E4,1.5599E4,5.3669E4,1.264324E6,5.96E3,1.7866E4,4.51871E5,2.5912E4,1.924E3,1.0399E4,3.2405E4,1.6407E4,7.092E3,8.507E3,2.9235E4,2.4434E4,1.085655E6,1.78669E5,5.767E3,1.93E2,1.6738E4,1.128E3,4.36501E5,1.537E4,2.0767E4,5.145E3,1.845E3,7.9E1,4.63E3,5.769E3,1.0055E4,2.235E4,3.879E3,1.2528E4,2.299E3,4.793E3,5.089E3,3.418E3,1.4215E4,1.502E4,4.699E3,1.9735E4,1.057072E6,2.8583E4,1.67773E5,1.0896E4,1.477E3,4.29E3,8.1E1,1.12E2,1.6208E4,5.3E2,7.5E1,1.053E3,4.30048E5,6.453E3,1.4252E4,1.118E3,1.9938E4,8.29E2,3.82E3,1.325E3,6.3E1,1.782E3,5.6E1,2.3E1,1.456E3,3.174E3,3.656E3,2.113E3,2.31E2,9.824E3,1.1749E4,1.0601E4,1.619E3,2.26E3,7.424E3,5.104E3,1.08E2,2.191E3,3.272E3,1.521E3,3.82E3,1.269E3,2.643E3,7.75E2,9.21E2,1.3294E4,1.079E3,1.3941E4,3.676E3,1.023E3,1.7037E4,2.698E3,4.00089E5,6.56983E5,2.0563E4,8.02E3,8.8547E4,7.9226E4,4.027E3,6.869E3,1.189E3,2.88E2,3.377E3,9.13E2,4.6E1,3.5E1,7.7E1,3.5E1,1.592E4,2.88E2,4.32E2,9.8E1,3.5E1,4E1,1.012E3,4.1E1],"tree_param":{"num_deleted":"0","num_feature":"61","num_nodes":"127","size_leaf_vector":"1"}},{"base_weights":[-2.593463E-1,-9.057037E-1,-4.4141198E-3,-9.3862414E-1,-4.08915E-1,-1.9132148E-2,8.209174E-1,-9.690717E-1,-6.61336E-1,-5.2853215E-1,-2.2963351E-1,-3.1391355E-1,-5.2082352E-3,4.859902E-1,9.416938E-1,-9.79221E-1,-7.9378575E-1,-7.3695403E-1,-5.3092164E-1,-7.1874607E-1,-4.0229598E-1,-1.0196433E-1,-4.0581518E-1,-1.8143536E-1,-4.2544088E-1,1.0896523E-1,-2.487656E-2,2.8844443E-1,5.9513277E-1,9.716514E-1,7.507356E-1,-9.8407376E-1,-8.085878E-1,-8.3701324E-1,-6.69986E-1,-7.8459597E-1,-6.081542E-1,-4.2849404E-1,-6.354086E-1,-8.211258E-1,-4.278152E-1,-9.387652E-2,-5.5328375E-1,-6.730769E-1,-2.830051E-2,-5.2299184E-1,-2.2017503E-1,-4.294842E-2,-3.514191E-1,-5.418623E-1,-3.5080242E-1,-2.3885641E-2,1.8060984E-1,-1.4611003E-2,-2.8978154E-1,-4.542683E-1,4.149766E-1,6.9233745E-1,4.2558923E-1,9.811308E-1,7.2321427E-1,4.1638795E-1,8.62514E-1,-2.9604787E-1,-2.5530708E-1,-2.482108E-1,-1.2955754E-1,-2.5928617E-1,-2.1265471E-1,-2.4969155E-1,-1.8226051E-1,-2.4369888E-1,-1.8363124E-1,-1.3930418E-1,-2.0474239E-1,-1.6010857E-1,-8.516329E-2,-1.4286168E-1,-2.1614055E-1,-2.6383725E-1,-1.8591869E-1,-6.3107826E-2,-1.827008E-1,2.536709E-1,-5.944351E-2,-2.0845006E-1,-1.16173305E-1,-2.2200002E-1,-8.888889E-2,2.732357E-2,-5.185424E-2,-1.0363071E-1,-1.7759806E-1,-1.0819672E-1,-1.7769003E-2,-7.173914E-2,2.6842454E-2,-1.4874005E-1,-7.937865E-2,-1.8556984E-1,-1.1163317E-1,-1.3162163E-1,-6.356229E-2,1.6231025E-2,-4.9088363E-2,2.9712704E-3,7.8926034E-2,-1.8221475E-2,1.3329954E-2,-3.1504195E-2,-1.12694815E-1,-1.6943522E-1,2.2500001E-1,3.9020274E-2,1.623874E-1,2.8341347E-1,1.9308439E-1,-3.613139E-2,1.6460398E-1,2.9458368E-1,-1.875E-1,2.9930717E-1,-6.328125E-2,9.402062E-2,2.5526315E-1,2.7686223E-1,1.5451129E-1],"categories":[0,0,1,2,0,11],"categories_nodes":[21,40,59,60],"categories_segments":[0,1,4,5],"categories_sizes":[1,3,1,1],"default_left":[0,1,1,1,1,0,0,1,1,0,0,1,0,0,0,1,0,1,0,0,0,1,1,0,1,1,0,0,0,0,0,1,0,1,0,1,0,0,0,1,1,0,0,1,0,0,0,1,0,0,0,0,0,0,0,0,0,0,0,1,1,0,0,0,0,0,0,0,0,0,0,0,0,0,0,0,0,0,0,0,0,0,0,0,0,0,0,0,0,0,0,0,0,0,0,0,0,0,0,0,0,0,0,0,0,0,0,0,0,0,0,0,0,0,0,0,0,0,0,0,0,0,0,0,0,0,0],"id":10,"left_children":[1,3,5,7,9,11,13,15,17,19,21,23,25,27,29,31,33,35,37,39,41,43,45,47,49,51,53,55,57,59,61,63,65,67,69,71,73,75,77,79,81,83,85,87,89,91,93,95,97,99,101,103,105,107,109,111,113,115,117,119,121,123,125,-1,-1,-1,-1,-1,-1,-1,-1,-1,-1,-1,-1,-1,-1,-1,-1,-1,-1,-1,-1,-1,-1,-1,-1,-1,-1,-1,-1,-1,-1,-1,-1,-1,-1,-1,-1,-1,-1,-1,-1,-1,-1,-1,-1,-1,-1,-1,-1,-1,-1,-1,-1,-1,-1,-1,-1,-1,-1,-1,-1,-1,-1,-1,-1],"loss_changes":[3.124733E5,8.771906E3,1.6519723E4,4.2464688E3,7.147949E2,5.48415E3,9.63374E2,8.0559375E2,4.904746E2,4.798286E2,3.0008234E2,8.9033496E2,2.8650837E3,1.3602698E2,9.9444336E1,3.54E2,1.3223242E2,1.9283984E2,1.9528125E2,2.371875E2,5.597366E2,3.255212E2,1.21830505E2,6.484558E2,2.8412158E2,1.7845525E3,2.9597168E3,2.1163687E2,6.674768E1,3.4929688E1,8.85509E1,1.5175E2,8.35166E1,6.3663086E1,6.4644775E1,1.0950195E2,9.064673E1,1.402721E2,1.22115234E2,6.874365E1,8.1745605E1,3.872843E2,1.8939893E2,2.2071075E1,1.1830481E2,4.1892273E1,4.906424E1,3.9440955E2,1.5489758E2,1.661731E2,2.435105E2,7.1590063E2,1.7149094E3,2.8536572E3,6.441511E2,4.4077316E1,6.913489E1,3.1165894E1,9.9874176E1,1.9683594E1,1.4379584E2,2.6491592E1,3.689978E1,0E0,0E0,0E0,0E0,0E0,0E0,0E0,0E0,0E0,0E0,0E0,0E0,0E0,0E0,0E0,0E0,0E0,0E0,0E0,0E0,0E0,0E0,0E0,0E0,0E0,0E0,0E0,0E0,0E0,0E0,0E0,0E0,0E0,0E0,0E0,0E0,0E0,0E0,0E0,0E0,0E0,0E0,0E0,0E0,0E0,0E0,0E0,0E0,0E0,0E0,0E0,0E0,0E0,0E0,0E0,0E0,0E0,0E0,0E0,0E0,0E0,0E0,0E0,0E0],"parents":[2147483647,0,0,1,1,2,2,3,3,4,4,5,5,6,6,7,7,8,8,9,9,10,10,11,11,12,12,13,13,14,14,15,15,16,16,17,17,18,18,19,19,20,20,21,21,22,22,23,23,24,24,25,25,26,26,27,27,28,28,29,29,30,30,31,31,32,32,33,33,34,34,35,35,36,36,37,37,38,38,39,39,40,40,41,41,42,42,43,43,44,44,45,45,46,46,47,47,48,48,49,49,50,50,51,51,52,52,53,53,54,54,55,55,56,56,57,57,58,58,59,59,60,60,61,61,62,62],"right_children":[2,4,6,8,10,12,14,16,18,20,22,24,26,28,30,32,34,36,38,40,42,44,46,48,50,52,54,56,58,60,62,64,66,68,70,72,74,76,78,80,82,84,86,88,90,92,94,96,98,100,102,104,106,108,110,112,114,116,118,120,122,124,126,-1,-1,-1,-1,-1,-1,-1,-1,-1,-1,-1,-1,-1,-1,-1,-1,-1,-1,-1,-1,-1,-1,-1,-1,-1,-1,-1,-1,-1,-1,-1,-1,-1,-1,-1,-1,-1,-1,-1,-1,-1,-1,-1,-1,-1,-1,-1,-1,-1,-1,-1,-1,-1,-1,-1,-1,-1,-1,-1,-1,-1,-1,-1,-1],"split_conditions":[9.01E-1,6.0418888E1,3.958934E3,4.18E-1,5.93E-1,1.4E0,5.185863E3,2.89E-1,9E-1,1.3547972E2,1.9073487E-7,1.1920929E-7,-5.1485353E0,3.966738E3,2.7572223E2,4.17E-1,9.9E-1,9E-1,3.6E1,2.3E1,5.4928394E1,NaN,4.769E0,1.39E2,2.6E1,6.3086E1,3.44E2,5E0,5E0,3.57E2,1.123443E4,3.29E-1,1.5341E1,8.03E-1,2.6E1,1.269E0,2.3E1,1.054E0,5.6296296E-2,4.18E-1,NaN,8E1,3.6242163E2,1.0052E1,4.5753828E-1,5.7227684E1,9.2E0,1.9519556E1,3.205E2,1.3096306E2,2.203125E0,3.798E1,2.4E1,2.1E2,-1.1588196E0,2.023E3,3.956044E3,5.5E1,1.55E2,NaN,NaN,9.7375554E-1,5E0,-2.5052446E-1,-2.4249046E-1,-2.5022447E-1,-5.3972673E-1,-2.0432447E-1,-2.1100548E-1,-2.9556206E-1,-2.6574498E-1,-2.0528956E-1,-2.1837212E-1,-1.839694E-1,-2.2634155E-1,-1.9030549E-1,-1.5106796E-1,-1.9219097E-1,-3.7666556E-1,-2.3612447E-1,-2.2839852E-1,-1.1251331E-1,-1.8957725E-1,1.17593504E-1,-6.476797E-2,-8.2614064E-1,-6.427279E-1,-5.638716E-1,-9.4250023E-1,9.733465E-2,-1.4991443E-1,-1.4749615E-1,-6.991477E-1,-8.56473E-1,-7.24291E-2,-3.310665E-2,1.2378899E-1,-1.7835438E-1,-9.499443E-2,-4.1883066E-1,-5.3168166E-1,-2.3720954E-1,-1.2442187E-1,9.770866E-2,-1.1427224E0,1.4327088E-1,4.2117076E0,-2.837476E-1,1.6454774E-1,-6.2481713E-1,-2.4634707E0,-5.2275112E1,2.0470592E2,4.4981106E1,1.5002887E2,3.458508E2,1.8753165E2,-1.1335767E1,1.719378E2,7.897341E2,-3.5548682E2,7.5387244E2,-8.233675E1,1.1065305E2,4.7070984E2,7.1057465E2,3.8020343E2],"split_indices":[47,38,52,50,48,51,59,49,49,38,41,41,31,47,39,52,49,54,8,13,39,3,59,10,13,48,10,9,12,10,14,48,52,58,13,59,8,58,39,51,2,14,38,49,37,39,15,38,14,39,36,52,13,10,31,5,50,10,13,3,0,35,12,0,0,0,0,0,0,0,0,0,0,0,0,0,0,0,0,0,0,0,0,0,0,0,0,0,0,0,0,0,0,0,0,0,0,0,0,0,0,0,0,0,0,0,0,0,0,0,0,0,0,0,0,0,0,0,0,0,0,0,0,0,0,0,0],"split_type":[0,0,0,0,0,0,0,0,0,0,0,0,0,0,0,0,0,0,0,0,0,1,0,0,0,0,0,0,0,0,0,0,0,0,0,0,0,0,0,0,1,0,0,0,0,0,0,0,0,0,0,0,0,0,0,0,0,0,0,1,1,0,0,0,0,0,0,0,0,0,0,0,0,0,0,0,0,0,0,0,0,0,0,0,0,0,0,0,0,0,0,0,0,0,0,0,0,0,0,0,0,0,0,0,0,0,0,0,0,0,0,0,0,0,0,0,0,0,0,0,0,0,0,0,0,0,0],"sum_hessian":[1.896336E6,5.36383E5,1.359953E6,5.03047E5,3.3336E4,1.336127E6,2.3826E4,4.53273E5,4.9774E4,1.9994E4,1.3342E4,6.0264E4,1.275863E6,6.316E3,1.751E4,4.2846E5,2.4813E4,3.1503E4,1.8271E4,7.974E3,1.202E4,7.737E3,5.605E3,2.7546E4,3.2718E4,1.8749E5,1.088373E6,2.249E3,4.067E3,1.5132E4,2.378E3,4.16607E5,1.1853E4,1.8387E4,6.426E3,2.2993E4,8.51E3,9.229E3,9.042E3,5.897E3,2.077E3,3.951E3,8.069E3,8.83E2,6.854E3,3.435E3,2.17E3,1.518E4,1.2366E4,1.2779E4,1.9939E4,6.5687E4,1.21803E5,1.047771E6,4.0602E4,3.27E2,1.922E3,2.583E3,1.484E3,1.4573E4,5.59E2,5.97E2,1.781E3,4.08157E5,8.45E3,1.1289E4,5.64E2,1.5156E4,3.231E3,1.782E3,4.644E3,1.9805E4,3.188E3,2.902E3,5.608E3,5.341E3,3.888E3,3.151E3,5.891E3,4.57E3,1.327E3,9.45E2,1.132E3,3.94E2,3.557E3,4.354E3,3.715E3,7.49E2,1.34E2,3.754E3,3.1E3,9.63E2,2.472E3,1.158E3,1.012E3,6.117E3,9.063E3,4.642E3,7.724E3,8.8E3,3.979E3,1.2209E4,7.73E3,4.2159E4,2.3528E4,3.9679E4,8.2124E4,5.88228E5,4.59543E5,1.2883E4,2.7719E4,3E2,2.7E1,5.91E2,1.331E3,4.15E2,2.168E3,2.73E2,1.211E3,1.4566E4,7E0,4.32E2,1.27E2,4.84E2,1.13E2,1.516E3,2.65E2],"tree_param":{"num_deleted":"0","num_feature":"61","num_nodes":"127","size_leaf_vector":"1"}},{"base_weights":[-2.4791797E-1,-9.071302E-1,-7.900427E-3,-9.5198554E-1,-5.6813186E-1,-1.8319275E-2,7.9293156E-1,-9.6343035E-1,-4.0663764E-1,-6.4331585E-1,-2.0976703E-1,-3.410958E-1,-4.6214885E-3,4.9057183E-1,9.6690786E-1,-9.745893E-1,-7.4395883E-1,-2.2701077E-1,-5.444231E-1,-7.1951145E-1,-5.009093E-1,1.499388E-2,-3.1478834E-1,-4.3287182E-1,-1.3647398E-1,-1.906105E-2,1.6282341E-1,4.275482E-1,8.081557E-1,9.840867E-1,8.045872E-1,-9.79912E-1,-8.0332696E-1,-8.0572736E-1,-6.66205E-1,3.150224E-1,-3.8290322E-1,-6.829961E-1,-3.8045302E-1,-7.560476E-1,-5.8882666E-1,-6.3913673E-1,-4.4638914E-1,-1.9619206E-1,1.3876759E-1,-5.156356E-1,-1.688472E-1,-5.479434E-1,-3.592262E-1,-4.056384E-1,-4.765931E-2,3.303387E-1,-2.3579225E-2,9.657713E-2,2.6888332E-1,3.7250164E-1,7.077268E-1,-8.510638E-2,8.480155E-1,-2.0000002E-1,9.844742E-1,8.6876905E-1,2.1296297E-1,-2.9535815E-1,-2.554756E-1,-2.745413E-1,-2.2573778E-1,-2.5091445E-1,-2.0935829E-1,-2.1662787E-1,-1.4108342E-1,-7.806122E-2,1.4289814E-1,-1.7401929E-1,-5.5304013E-2,-2.2704883E-1,-1.20000005E-1,-1.3697943E-1,2.2959185E-3,-2.369809E-1,-1.939708E-1,-2.4000001E-1,-1.5559381E-1,2.4793388E-2,-1.9727601E-1,-1.0159516E-1,-1.5992028E-1,-9.175128E-2,2.8503565E-3,9.5738046E-2,-5.727273E-3,-1.9287975E-1,-8.538682E-2,-8.930598E-2,-3.4071552E-4,-1.9685198E-1,-1.3959944E-1,-9.201074E-2,-1.6246435E-1,9.922178E-3,-1.3956073E-1,1.6821114E-2,-7.344482E-2,-4.9267646E-2,1.2437973E-1,-3.1223001E-2,-2.4072595E-3,5.6257267E-2,-1.2260911E-2,1.0470589E-2,1.3676788E-1,3.287234E-2,1.3223575E-1,2.8716218E-1,1.3800001E-1,1.92E-1,-2.6086956E-1,2.7882823E-1,1.8869258E-1,2.9632616E-1,2.4393941E-1,3.5714287E-2,2.703822E-1,2.4130435E-1,-6.666667E-2],"categories":[0,1,3,0,0,0],"categories_nodes":[17,41,53,54],"categories_segments":[0,3,4,5],"categories_sizes":[3,1,1,1],"default_left":[0,1,1,1,1,0,0,1,0,1,0,0,1,0,0,1,0,1,0,1,0,0,0,1,1,0,0,0,0,0,0,1,0,0,0,0,1,1,1,0,0,1,0,0,0,1,1,1,0,0,0,1,1,1,1,0,0,0,0,0,0,0,0,0,0,0,0,0,0,0,0,0,0,0,0,0,0,0,0,0,0,0,0,0,0,0,0,0,0,0,0,0,0,0,0,0,0,0,0,0,0,0,0,0,0,0,0,0,0,0,0,0,0,0,0,0,0,0,0,0,0,0,0,0,0],"id":11,"left_children":[1,3,5,7,9,11,13,15,17,19,21,23,25,27,29,31,33,35,37,39,41,43,45,47,49,51,53,55,57,59,61,63,65,67,69,71,73,75,77,79,81,83,85,87,89,91,93,95,97,99,101,103,105,107,109,111,113,115,117,-1,119,121,123,-1,-1,-1,-1,-1,-1,-1,-1,-1,-1,-1,-1,-1,-1,-1,-1,-1,-1,-1,-1,-1,-1,-1,-1,-1,-1,-1,-1,-1,-1,-1,-1,-1,-1,-1,-1,-1,-1,-1,-1,-1,-1,-1,-1,-1,-1,-1,-1,-1,-1,-1,-1,-1,-1,-1,-1,-1,-1,-1,-1,-1,-1],"loss_changes":[3.0004316E5,7.6960938E3,1.1599309E4,2.7895625E3,1.5935625E3,6.0674927E3,9.3870703E2,1.0715312E3,2.2732861E2,5.3015234E2,2.4216513E2,1.0490889E3,3.1829783E3,1.3021411E2,3.0807617E1,3.79E2,1.0122266E2,3.373557E2,1.1789368E2,1.516211E2,1.2816943E2,8.545034E1,2.0486157E2,3.2664746E2,4.135501E2,1.9132488E3,7.342827E2,8.371393E1,3.8490234E1,7.2070312E0,4.120398E1,2.385E2,7.077002E1,3.844336E1,1.0243652E2,8.288971E1,1.212507E2,5.855713E1,7.045633E1,9.181836E1,1.0277881E2,6.422827E1,1.14002686E2,2.7247341E1,5.868531E1,8.633301E1,8.753305E1,1.3424902E2,2.250664E2,1.1217169E2,2.6606088E2,6.4481995E2,1.4981558E3,8.041826E2,1.7581743E3,8.169519E1,5.4749725E1,2.7290878E1,1.7836365E1,0E0,4.9521484E0,2.3847961E1,2.7973835E1,0E0,0E0,0E0,0E0,0E0,0E0,0E0,0E0,0E0,0E0,0E0,0E0,0E0,0E0,0E0,0E0,0E0,0E0,0E0,0E0,0E0,0E0,0E0,0E0,0E0,0E0,0E0,0E0,0E0,0E0,0E0,0E0,0E0,0E0,0E0,0E0,0E0,0E0,0E0,0E0,0E0,0E0,0E0,0E0,0E0,0E0,0E0,0E0,0E0,0E0,0E0,0E0,0E0,0E0,0E0,0E0,0E0,0E0,0E0,0E0,0E0,0E0],"parents":[2147483647,0,0,1,1,2,2,3,3,4,4,5,5,6,6,7,7,8,8,9,9,10,10,11,11,12,12,13,13,14,14,15,15,16,16,17,17,18,18,19,19,20,20,21,21,22,22,23,23,24,24,25,25,26,26,27,27,28,28,29,29,30,30,31,31,32,32,33,33,34,34,35,35,36,36,37,37,38,38,39,39,40,40,41,41,42,42,43,43,44,44,45,45,46,46,47,47,48,48,49,49,50,50,51,51,52,52,53,53,54,54,55,55,56,56,57,57,58,58,60,60,61,61,62,62],"right_children":[2,4,6,8,10,12,14,16,18,20,22,24,26,28,30,32,34,36,38,40,42,44,46,48,50,52,54,56,58,60,62,64,66,68,70,72,74,76,78,80,82,84,86,88,90,92,94,96,98,100,102,104,106,108,110,112,114,116,118,-1,120,122,124,-1,-1,-1,-1,-1,-1,-1,-1,-1,-1,-1,-1,-1,-1,-1,-1,-1,-1,-1,-1,-1,-1,-1,-1,-1,-1,-1,-1,-1,-1,-1,-1,-1,-1,-1,-1,-1,-1,-1,-1,-1,-1,-1,-1,-1,-1,-1,-1,-1,-1,-1,-1,-1,-1,-1,-1,-1,-1,-1,-1,-1,-1],"split_conditions":[5.3E-1,2.53E-1,5.19604E3,1.1370861E2,9.3460464E1,9E-1,6.613998E3,2.89E-1,5.9647778E1,6.56E-1,6.22571E1,5.131911E1,3.5378E3,6.621734E3,4.9438678E2,3.25E-1,8.1E-1,NaN,3.6242163E2,6.55E-1,2.3E1,1.3547972E2,3.201422E2,9.01E-1,1.432E2,-1.3566448E1,5.5699444E1,3.71E2,1.14E2,4.85343E2,5E0,1.66E-1,2.4E1,2.54E-1,1.8767E3,1.3547972E2,3E-2,1.523E0,4.164E0,9E-1,2E1,NaN,3.2E1,1.112854E-1,1.5808105E-2,2.928E0,2.5E0,6.4E1,5.76E0,5.7227684E1,2.01E2,1.75E1,7.98E0,NaN,NaN,9.004381E-3,1.2200511E2,3E0,4.05968E2,-3.354233E2,2.9522223E2,2.974024E3,9.666667E0,-1.7536712E-1,-1.5227222E-1,-1.7536712E-1,-1.7206714E-1,-1.6892476E-1,-1.08467124E-1,-1.8666905E-1,-1.8666905E-1,-1.731178E-2,6.532498E-2,-1.2648907E-1,-5.6838963E-2,-6.8549556E-1,-5.9150183E-1,-5.3879356E-1,4.379139E-2,-1.3936712E-1,-1.9721419E-1,-1.9416866E-1,-1.3760509E-1,2.044759E-1,-2.2040732E-1,-1.1161194E-1,-1.6354954E-1,-8.8190645E-2,3.0297877E-3,1.4222217E-1,-7.5259213E-3,-6.920817E-1,-5.935357E-1,-3.856863E-1,-5.182386E-4,-1.4925462E-1,-8.348458E-2,-1.2434039E-1,-1.6146387E0,1.6165424E-2,-4.6620867E-1,3.6064126E-2,-1.926332E-1,-2.3108073E-1,4.7408752E0,-1.1116807E-1,-5.0288487E-2,1.4310352E1,-4.7591258E-2,1.864602E0,3.4555344E1,2.9763283E1,1.1093394E2,1.9624673E2,2.5708948E2,1.1445916E2,-2.4482213E2,3.3893533E2,3.1131116E2,8.0439746E2,9.013499E2,3.1020704E1,5.246956E2,1.0398849E3,-4.2450806E1],"split_indices":[47,49,53,38,38,49,52,52,39,52,39,38,14,59,38,55,52,2,38,54,13,38,38,47,14,31,38,13,13,48,12,48,13,47,14,38,48,58,55,49,13,3,8,32,33,59,59,13,47,39,10,54,59,3,3,33,39,12,38,0,27,50,21,0,0,0,0,0,0,0,0,0,0,0,0,0,0,0,0,0,0,0,0,0,0,0,0,0,0,0,0,0,0,0,0,0,0,0,0,0,0,0,0,0,0,0,0,0,0,0,0,0,0,0,0,0,0,0,0,0,0,0,0,0,0],"split_type":[0,0,0,0,0,0,0,0,0,0,0,0,0,0,0,0,0,1,0,0,0,0,0,0,0,0,0,0,0,0,0,0,0,0,0,0,0,0,0,0,0,1,0,0,0,0,0,0,0,0,0,0,0,1,1,0,0,0,0,0,0,0,0,0,0,0,0,0,0,0,0,0,0,0,0,0,0,0,0,0,0,0,0,0,0,0,0,0,0,0,0,0,0,0,0,0,0,0,0,0,0,0,0,0,0,0,0,0,0,0,0,0,0,0,0,0,0,0,0,0,0,0,0,0,0],"sum_hessian":[1.896336E6,5.06159E5,1.390177E6,4.4701E5,5.9149E4,1.372324E6,1.7853E4,4.37821E5,9.189E3,4.8891E4,1.0258E4,5.5866E4,1.316458E6,6.522E3,1.1331E4,4.16634E5,2.1187E4,3.99E3,5.199E3,3.1847E4,1.7044E4,3.267E3,6.991E3,3.8567E4,1.7299E4,1.211947E6,1.04511E5,5.444E3,1.078E3,1.0242E4,1.089E3,4.04071E5,1.2563E4,1.1802E4,9.385E3,8.91E2,3.099E3,2.816E3,2.383E3,2.4885E4,6.962E3,4.818E3,1.2226E4,1.207E3,2.06E3,2.941E3,4.05E3,1.5048E4,2.3519E4,4.291E3,1.3008E4,1.5471E4,1.196476E6,6.4331E4,4.018E4,4.552E3,8.92E2,4.6E1,1.032E3,2E0,1.024E4,9.82E2,1.07E2,3.90037E5,1.4034E4,3.923E3,8.64E3,9.185E3,2.617E3,7.3E3,2.085E3,1.95E2,6.96E2,1.554E3,1.545E3,2.232E3,5.84E2,1.992E3,3.91E2,1.8998E4,5.887E3,1.734E3,5.228E3,1.2E2,4.698E3,5.453E3,6.773E3,7.87E2,4.2E2,9.61E2,1.099E3,1.895E3,1.046E3,2.29E3,1.76E3,6.511E3,8.537E3,1.8261E4,5.258E3,5.13E2,3.778E3,8.524E3,4.484E3,2.252E3,1.3219E4,1.9376E5,1.002716E6,3.8714E4,2.5617E4,1.7849E4,2.2331E4,9.39E2,3.613E3,4.43E2,4.49E2,2.4E1,2.2E1,7.5E2,2.82E2,1.0043E4,1.97E2,4.1E1,9.41E2,4.5E1,6.2E1],"tree_param":{"num_deleted":"0","num_feature":"61","num_nodes":"125","size_leaf_vector":"1"}},{"base_weights":[-2.398234E-1,-9.0202296E-1,-1.0300135E-2,-9.492283E-1,-5.5860513E-1,-1.7828166E-2,8.854051E-1,-9.6069723E-1,-4.2703816E-1,-6.3747793E-1,-2.6720777E-1,-2.885631E-1,-3.3248032E-3,6.695608E-1,9.285276E-1,-9.7300243E-1,-7.278592E-1,-6.5123755E-1,-3.1288844E-1,-7.20652E-1,-4.7542545E-1,-1.2864321E-1,-4.3940747E-1,-3.546552E-1,-9.016624E-2,-1.2216914E-2,2.3374374E-1,7.198895E-1,5.3691275E-2,8.5707664E-1,9.8480964E-1,-9.7861594E-1,-7.924701E-1,-7.990346E-1,-6.5340966E-1,-7.79299E-1,-4.688958E-1,-4.4022715E-1,-1.5890212E-1,-7.7488244E-1,-6.0571253E-1,-5.76764E-1,-3.6472306E-1,-5.2523747E-2,-3.8447088E-1,-2.5012505E-1,-5.442441E-1,-5.266762E-1,-3.123348E-1,9.015857E-2,-2.2619872E-1,7.174606E-2,-2.7120017E-2,3.5576066E-1,9.1578566E-2,8.1505203E-1,5.0711745E-1,-5.78125E-1,5.232558E-1,8.809583E-1,5.4662377E-1,9.916263E-1,5.714286E-1,-2.9490742E-1,-2.5247845E-1,-2.5152567E-1,-1.6585869E-1,-2.1532145E-1,-2.5563577E-1,-2.1260495E-1,-1.391155E-1,-2.02518E-1,-2.5981876E-1,-8.6547814E-2,-1.9029851E-1,-1.0353341E-1,-1.7798597E-1,-3.347792E-2,-2.0128205E-1,-2.4368E-1,-1.917148E-1,-1.3741554E-1,-2.0671228E-1,-2.0214707E-1,-1.52458E-1,-1.1885576E-1,9.172662E-3,3.2237146E-2,-4.8022423E-2,-1.6361006E-1,-2.6156584E-2,-1.2655655E-1,-4.1549876E-2,-1.8899432E-1,-9.330587E-2,-1.8345155E-1,-1.1925198E-1,-1.1904959E-1,-6.721194E-2,-2.3523787E-2,8.8373445E-2,1.060941E-2,-1.0361203E-1,4.8163872E-2,6.6109275E-4,8.328966E-3,-1.6929489E-2,5.9870668E-2,1.6579294E-1,-4.4198286E-2,9.616882E-2,2.578622E-1,1.1440679E-1,1.2553649E-1,2.7835053E-1,1.875E-1,-2.2105263E-1,2.82E-1,-1.6216217E-2,2.7571896E-1,2.031496E-1,-2.5500003E-1,1.921233E-1,2.9856846E-1,2.5367647E-1,-9.375E-3,2.6500002E-1],"categories":[],"categories_nodes":[],"categories_segments":[],"categories_sizes":[],"default_left":[0,1,1,1,1,0,0,1,0,1,0,0,1,0,0,1,0,0,1,1,0,0,0,1,0,1,1,0,0,0,0,1,0,0,0,0,0,0,0,0,0,0,0,0,0,0,1,1,0,1,1,1,0,0,0,0,0,0,0,0,0,0,0,0,0,0,0,0,0,0,0,0,0,0,0,0,0,0,0,0,0,0,0,0,0,0,0,0,0,0,0,0,0,0,0,0,0,0,0,0,0,0,0,0,0,0,0,0,0,0,0,0,0,0,0,0,0,0,0,0,0,0,0,0,0,0,0],"id":12,"left_children":[1,3,5,7,9,11,13,15,17,19,21,23,25,27,29,31,33,35,37,39,41,43,45,47,49,51,53,55,57,59,61,63,65,67,69,71,73,75,77,79,81,83,85,87,89,91,93,95,97,99,101,103,105,107,109,111,113,115,117,119,121,123,125,-1,-1,-1,-1,-1,-1,-1,-1,-1,-1,-1,-1,-1,-1,-1,-1,-1,-1,-1,-1,-1,-1,-1,-1,-1,-1,-1,-1,-1,-1,-1,-1,-1,-1,-1,-1,-1,-1,-1,-1,-1,-1,-1,-1,-1,-1,-1,-1,-1,-1,-1,-1,-1,-1,-1,-1,-1,-1,-1,-1,-1,-1,-1,-1],"loss_changes":[2.8822462E5,7.9122188E3,9.495595E3,2.5695312E3,1.3555684E3,5.4834424E3,1.0862305E2,1.2023438E3,2.3585962E2,6.253574E2,2.9980176E2,9.310449E2,2.7941929E3,6.0651367E1,3.848535E1,4.0334375E2,1.1118555E2,7.227942E1,1.1981592E2,1.9073633E2,1.7645728E2,1.3561249E2,1.1104822E2,3.8758984E2,4.353058E2,1.5986401E3,8.3121436E2,3.6235413E1,4.4507603E1,3.152539E1,1.4830078E1,2.32875E2,1.3200488E2,4.588037E1,1.07760254E2,1.5929932E1,3.8197083E1,4.8507507E1,6.70015E1,1.052959E2,1.20734375E2,5.4365234E1,9.365173E1,9.239678E1,7.6339355E1,3.8261307E1,7.188953E1,1.14973145E2,3.1884766E2,2.6298163E2,3.1531445E2,1.1892665E3,1.7454452E3,7.9287695E2,1.2109039E3,2.3771118E1,2.0575394E1,1.2681744E1,2.0741598E1,3.0493896E1,4.12808E1,1.9853516E0,1.713363E1,0E0,0E0,0E0,0E0,0E0,0E0,0E0,0E0,0E0,0E0,0E0,0E0,0E0,0E0,0E0,0E0,0E0,0E0,0E0,0E0,0E0,0E0,0E0,0E0,0E0,0E0,0E0,0E0,0E0,0E0,0E0,0E0,0E0,0E0,0E0,0E0,0E0,0E0,0E0,0E0,0E0,0E0,0E0,0E0,0E0,0E0,0E0,0E0,0E0,0E0,0E0,0E0,0E0,0E0,0E0,0E0,0E0,0E0,0E0,0E0,0E0,0E0,0E0,0E0],"parents":[2147483647,0,0,1,1,2,2,3,3,4,4,5,5,6,6,7,7,8,8,9,9,10,10,11,11,12,12,13,13,14,14,15,15,16,16,17,17,18,18,19,19,20,20,21,21,22,22,23,23,24,24,25,25,26,26,27,27,28,28,29,29,30,30,31,31,32,32,33,33,34,34,35,35,36,36,37,37,38,38,39,39,40,40,41,41,42,42,43,43,44,44,45,45,46,46,47,47,48,48,49,49,50,50,51,51,52,52,53,53,54,54,55,55,56,56,57,57,58,58,59,59,60,60,61,61,62,62],"right_children":[2,4,6,8,10,12,14,16,18,20,22,24,26,28,30,32,34,36,38,40,42,44,46,48,50,52,54,56,58,60,62,64,66,68,70,72,74,76,78,80,82,84,86,88,90,92,94,96,98,100,102,104,106,108,110,112,114,116,118,120,122,124,126,-1,-1,-1,-1,-1,-1,-1,-1,-1,-1,-1,-1,-1,-1,-1,-1,-1,-1,-1,-1,-1,-1,-1,-1,-1,-1,-1,-1,-1,-1,-1,-1,-1,-1,-1,-1,-1,-1,-1,-1,-1,-1,-1,-1,-1,-1,-1,-1,-1,-1,-1,-1,-1,-1,-1,-1,-1,-1,-1,-1,-1,-1,-1,-1],"split_conditions":[3.74E-1,1.66E-1,6.621734E3,8.72325E1,3.9446262E1,9E-1,6.609716E3,1.92E-1,-2.8385308E0,4.72E-1,2.1249898E-1,8.72325E1,1.426747E3,3.48E2,8.239896E3,3.23E-1,5.27E-1,9E-3,3E-2,3.23E-1,6.2E1,8.04455E0,5.4928394E1,2E1,1.01E2,-2.8317022E0,2.387869E3,2.8338977E2,1.10067585E-5,3.48E2,4.4822223E2,1.19E-1,2.023E3,1.6E2,1.84791E3,6.22571E1,8.6735E1,7.85511E-1,4.8478446E-6,7.32E-1,2.7E1,5.92E-1,5.5E1,5.086263E-6,1.812E0,5.92E-1,5.094E0,1.674E0,4.73E-1,5.85E-1,5.4928394E1,2.2915038E-1,3.7959E1,1.761005E3,3.949388E3,5E0,1.3066667E1,7.774E1,9.9999434E-1,2.68855E2,1.14E2,6.805674E2,1.7157633E0,-1.2275699E-1,-1.11956984E-1,-1.2275699E-1,-1.15757085E-1,-1.0546652E-1,-1.153897E-1,-1.3066834E-1,-1.3019426E-1,-1.0838134E-1,-6.515066E-1,-1.3601878E-1,-1.9821036E-1,-9.139086E-2,-1.4938457E-1,-3.129059E-2,-4.1710448E-1,-1.0115699E-1,-1.5002319E-1,-7.8257225E-2,-1.1252624E-1,-1.3066834E-1,-1.5886736E-1,-8.2062565E-2,1.0880274E-2,7.3230624E-2,-7.870113E-2,-9.440546E-2,-5.2674726E-2,-8.138518E-2,-5.448281E-2,-6.2012434E-1,-6.9652605E-1,-1.2908554E-1,-4.8779586E-1,-8.636369E-2,-5.2381337E-2,-9.6543714E-2,1.2172289E0,1.07297525E-2,