1948 128
1186 0.015970087 0.13397272 -0.14791855 0.029463666 0.030036988 0.116124146 -0.06361207 -0.06563947 0.041158855 0.034297213 -0.21283677 -0.0093729105 0.14208192 -0.13423623 0.08889038 -0.18153062 0.09679591 0.039484896 -0.10456109 -0.026729075 0.17049176 0.05621654 -0.1264344 0.0835453 0.07090049 0.1330705 -0.023705496 -0.063636094 -0.029222677 -0.06860106 -0.025189321 -0.08882451 0.113805555 0.058620684 -0.14938882 -0.061411083 -0.024609212 0.082206696 -0.123876564 -0.11281947 0.0589627 -0.25304654 0.076868616 -0.0869795 -0.12062124 -0.1169871 -0.007017453 0.21186823 -0.17220594 0.01042164 0.07885536 -0.07523201 0.09687139 0.03653486 0.13370305 0.03809275 -0.0007733054 -0.33433944 0.17098998 0.025339603 -0.14857195 -0.020707807 -0.09547267 0.044746447 -0.2570026 0.12164648 -0.088047706 0.43813145 0.057663377 -0.044805314 -0.070584856 -0.019021463 -0.017673584 0.022481676 -0.09901981 -0.15582438 -0.437816 -0.16028185 -0.10387412 -0.0069098175 -0.06199107 -0.0010315017 -0.049478624 -0.07634358 0.05690904 -0.116692446 0.18701075 -0.13006397 0.036801856 0.20888379 -0.038484856 -0.18136713 0.34951022 -0.010971983 -0.063880146 0.35654694 -0.050116982 -0.03397207 0.06427212 0.12302518 0.03901223 -0.019119935 -0.056766316 0.004236257 0.23651133 0.14617975 0.1341279 0.22192666 -0.037506323 -0.19915766 0.04815147 -0.13997835 -0.027489543 0.0025151395 -0.033679217 -0.0029762685 0.110763796 -0.059448745 -0.29898572 0.05634241 -0.17609502 -0.028312324 -0.06927511 -0.1763299 -0.096461326 -0.026809605 0.02113621 -0.16365528
2556 0.0793719 0.1592046 0.07344957 0.03967386 -0.04278539 -0.04717728 -0.094765574 -0.03327646 0.21744195 -0.057644106 -0.19151032 0.13457184 0.035417974 -0.15267803 -0.1256571 -0.0142434435 -0.009824864 -0.02227732 -0.036143057 0.08342817 0.11983226 0.013516767 -0.13866116 0.06145369 0.1956213 0.20963266 0.008195676 0.043950897 -0.0753263 -0.081478365 0.04543063 -0.05306555 0.066868916 0.12649466 -0.0604802 -0.14659235 -0.12378282 0.22235346 -0.032191586 -0.053079437 0.08726754 -0.019224243 -0.06618342 0.10737128 -0.009236262 -0.041945744 -0.06871701 0.30729216 -0.11282633 0.089677475 0.16109568 -0.052778658 0.040782683 -0.13090731 0.052519415 -0.041989498 0.1161727 -0.124922015 0.30620387 -0.041652016 -0.027427822 -0.16849382 0.100704215 0.13338315 -0.3071528 0.073215365 0.02351839 0.09325085 0.0586088 0.060297735 -0.069514625 0.055202622 0.03668335 0.12811856 -0.062335655 -0.11473863 -0.34762916 -0.17594242 -0.030898396 0.0075073303 -0.1653699 -0.041776605 -0.09816613 -0.041864872 0.04494044 0.08931304 0.052329376 -0.20721346 0.11460143 -0.031047719 0.16380323 -0.20686392 0.12407536 -0.07635596 -0.15474148 0.11426689 -0.010425917 -0.19031894 0.13645343 -0.014551572 -0.05304402 0.03648992 0.05834388 -0.065060355 0.19915292 0.25516757 0.2337993 0.17099017 0.027631598 -0.23243585 0.062142186 -0.135232 -0.03136988 -0.020858722 -0.008957395 -0.009754156 -0.05831269 -0.020377558 -0.26530844 0.21735887 -0.3516366 -0.1564209 -0.13596539 -0.13867673 -0.061830137 0.18102688 -0.058515564 -0.041732755
1455 -0.09579577 0.30334067 0.13700084 0.008198507 -0.06212628 0.19212279 -0.012888882 0.029201027 0.23241852 -0.013821865 -0.1480627 -0.02158054 0.18176238 -0.12040199 0.035365447 0.0493656 -0.016833812 0.06128833 -0.009334146 0.024661105 0.27266973 0.09308762 -0.07474437 0.08149423 0.099736236 0.19078247 -0.10737009 0.1174823 -0.06768757 -0.026328573 0.24044704 0.06429507 0.044938087 0.29474515 0.05035495 -0.2793485 -0.1339101 0.050737053 -0.06650418 -0.16417003 0.18883404 -0.06095557 -0.026946373 -0.006326661 -0.1030832 0.0474918 -0.071224436 0.070125364 -0.15111612 0.2356526 0.2387598 0.12878759 0.06104422 -0.121354155 0.16068 -0.06253169 -0.030215558 -0.0523964 0.22130038 -0.06329215 -0.27380145 0.016069004 -0.0974787 0.19997121 -0.3693506 0.16010572 0.08820548 0.14663972 -0.005927855 0.085220054 -0.024931833 -0.026762445 -0.11151038 0.20232296 -0.08391815 -0.020745018 -0.2779142 -0.0439973 -0.011973108 -0.09895416 0.064861625 -0.05396315 -0.19572534 0.12260922 0.24121231 -0.13132487 -0.02242709 -0.196868 0.03759872 -0.12640277 -0.11206169 -0.09667767 0.24396913 -0.114688456 -0.114166774 0.12025174 0.038398914 -0.2368558 0.15672942 -0.070633955 -0.009093278 -0.022352168 0.2752754 0.015397341 0.22138926 0.16383852 0.04265216 0.27530128 0.029935153 -0.19984865 0.06801005 -0.15274368 0.01326904 0.009860771 0.031888865 0.06508936 0.009083438 -0.006163263 -0.11972344 -0.043643173 -0.28501654 -0.16027184 -0.070290804 -0.044472836 -0.0048186244 -0.061177075 0.05836857 0.106953315
428 0.03537641 0.2632012 -0.043699306 -0.022241699 -0.06962817 0.29451883 -0.10462501 -0.042614575 0.29802093 -0.029358938 -0.1118513 -0.025373042 0.13689142 -0.11309538 -0.14545044 0.13698971 0.06948925 -0.014081701 -0.06234206 -0.0063588903 0.22427426 0.08270739 -0.08545147 0.07825486 0.14622301 0.19814862 -0.085970156 -0.05035185 -0.16663398 -0.11487302 0.13229871 -0.052215565 0.0023415405 0.32063425 -0.13020673 -0.16598292 -0.061274223 0.20520382 -0.049061224 -0.029133225 0.072393045 -0.06510404 0.08868681 -0.014943009 -0.1574894 0.20711963 0.022351978 0.1669082 -0.32998413 0.051229022 0.085966416 0.09376039 -0.0075033014 -0.073549256 -0.0051995013 -0.013974399 -0.05517538 -0.12519507 0.12204257 0.009740459 -0.22988795 -0.019447846 -0.08330744 0.3128743 -0.43999547 -0.06463506 -0.038343742 0.07134148 -0.14265253 0.14924482 -0.099106416 0.047956396 -0.16176262 0.14010242 -0.02378659 -0.042276483 -0.2224171 0.110522956 0.012864141 -0.03308514 0.016079431 -0.02792361 -0.24815015 -0.0005871765 0.27173477 -0.043477893 -0.15918404 -0.050235428 0.23427182 0.01574695 0.0038139366 -0.061261423 0.20627423 0.1813464 0.051658086 0.17734404 -0.002897198 -0.18869907 0.20790873 0.0610306 0.11753916 0.031094866 0.29759824 -0.007947377 0.25882003 -0.026770074 0.13356832 0.13812222 0.030980408 -0.19218357 -0.1194055 -0.102550834 -0.059416723 -0.0836068 -0.05982055 -0.010693966 -0.03791782 -0.17500006 -0.13554019 -0.11269737 -0.34031 -0.13242377 -0.0725562 -0.19529983 0.019688256 0.009923009 0.0880944 0.052866574
3335 0.01426908 0.15958002 0.0072064702 0.020328294 -0.018387584 0.011931454 -0.11153237 -0.006500417 0.16781981 -0.187355 -0.13585542 0.044311278 0.0767539 -0.22887608 -0.111432984 0.120292895 -0.012442232 0.09128602 -0.13730466 0.08402005 0.22161049 -0.06979122 0.055370804 0.044395894 0.088672526 0.35382774 -0.02342859 0.09376974 0.008923876 -0.1873846 0.2789095 0.23650435 -0.13510676 0.03168024 0.1711461 -0.22577861 -0.15722343 0.42659032 -0.05821029 -0.22447695 0.17023829 -0.022068013 0.06658562 0.023985917 0.027605362 0.08104994 -0.27653477 0.14952804 -0.06667351 0.0079275705 0.20166458 -0.14997074 -0.01879746 0.15606043 0.12715547 0.03365901 0.017429918 -0.24669482 0.27953315 0.018978871 -0.1542188 0.08446756 0.21811488 0.0029035206 -0.3156995 0.1744607 0.37852857 0.03453612 0.06579835 0.42667526 -0.061660573 -0.022257427 -0.04927592 0.16962358 -0.12742911 -0.06125169 -0.33139676 0.08031886 0.062298775 0.0074980427 0.07463955 -0.09592631 -0.16715872 0.09307677 0.14276634 -0.20095426 -0.10548767 -0.25616306 -0.014540999 -0.024920704 -0.066829555 -0.18739283 0.40312576 -0.280807 -0.19202332 0.036523443 0.07867687 -0.038550094 0.023928203 -0.06239556 0.008850635 -0.22750156 0.02381779 0.36092585 0.15331613 0.24473079 -0.07030112 0.19240741 0.1191529 -0.31292892 0.31960395 -0.16865717 -0.01779929 0.08959744 -0.07498274 -0.10781404 0.22585662 0.012900151 -0.010314129 0.2401654 -0.37507626 0.014061102 -0.04800827 0.06364142 -0.08917872 -0.0056738094 0.031572282 0.09895267
2083 0.014650778 0.08493144 0.018020364 -0.09424747 -0.069926344 0.017860113 -0.032114744 0.09235051 0.316715 0.007097909 -0.109827675 0.10213948 0.16230333 -0.088780984 0.077391334 -0.054640952 0.063461065 -0.06230564 -0.39457902 0.082438916 0.31047 0.086922355 -0.1647858 -0.13430062 0.07360332 0.08308933 -0.19681066 0.11936847 -0.09432725 0.05173278 0.025964001 -0.12390296 0.07411912 0.1986174 -0.02822568 0.025209246 -0.30854315 -0.033023577 -0.057432435 -0.1393398 -0.054880377 -0.17944281 0.0031076558 0.0123597765 -0.19312674 -0.0678048 -0.23415989 0.008043853 -0.004451786 0.100589395 0.10671874 -0.07014881 0.01679786 -0.016616557 -0.078420155 0.108447045 0.08827257 -0.18638976 0.19438398 -0.09970313 -0.093062505 -0.09084363 0.115434155 0.12199205 -0.23313767 0.071950056 0.00407581 0.040269982 0.053439785 0.0712967 0.09732307 -0.104060166 -0.08766229 0.12295346 0.22093317 -0.06908783 -0.37777176 -0.14951892 0.15334909 -0.030413067 -0.09743653 -0.028850367 -0.18178743 -0.06174381 0.24480355 -0.09167 0.18496664 -0.1885495 -0.04787075 0.13889925 -0.12402806 -0.14427586 0.025800873 -0.09021284 -0.09770791 0.29994464 -0.104527816 -0.106582575 0.111359134 -0.013783228 -0.15606785 0.07553638 -0.12206251 0.08937549 0.19442293 0.050313827 0.17671546 0.25536534 0.07458285 -0.30002943 0.011738175 -0.22503436 -0.11547727 0.22616369 0.08826103 -0.049619608 0.11178669 0.19432916 -0.30459365 -0.091302775 -0.19694325 -0.150998 -0.14186738 -0.09162256 -0.0245922 0.20644446 0.08935111 -0.02362088
2882 -0.02912132 0.10684753 0.22671294 0.09719331 -0.005953836 0.0008172166 0.026125968 -0.0945237 0.4857131 0.11116576 -0.12161962 0.02692468 0.20531876 -0.11456438 -0.12854508 0.030047055 0.040395416 -0.062574126 -0.14971274 0.07590556 0.31053466 -0.16140108 -0.15113594 0.21726233 0.09729871 0.05380949 0.05958538 0.2696647 -0.1666792 -0.14493757 0.020411795 -0.061948728 0.0037968683 0.3744315 -0.14024924 -0.08057697 -0.23058961 0.18153557 0.124858394 0.039196786 0.005597621 -0.061320532 -0.10464101 -0.051203396 -0.29059637 0.013463018 -0.0036145465 0.1326855 -0.20240243 0.18960539 -0.1212171 0.20600562 0.11443808 0.0828591 0.025865948 0.12922029 0.048742987 -0.3509463 0.1669584 0.008489133 -0.26541397 -0.009332172 0.07005332 0.36390838 -0.36763698 0.116673686 -0.11727292 -0.013195412 -0.004018908 -0.062343355 0.17795214 0.007428242 -0.36058453 0.3628568 0.25785202 -0.023651548 -0.28123552 -0.055929102 0.018876297 0.22922368 -0.091999374 -0.09593202 -0.08196023 0.19349183 0.22108875 -0.009877842 0.0456776 -0.18341574 -0.20935315 0.016446985 0.014020012 0.017067293 0.26061386 -0.12633373 -0.002160006 0.27842677 0.08943467 -0.3556331 0.022326736 0.067927964 -0.06295438 0.25999254 0.22725761 0.18544258 0.33851078 0.09350076 -0.07946155 0.17690107 0.28468016 -0.21798433 -0.0854654 -0.011455909 0.04912242 0.1709262 0.35870147 0.26325133 0.19232452 0.072149426 -0.21539064 -0.020611353 -0.20058659 -0.17316312 -0.007995813 -0.2620262 0.26316085 0.067736946 -0.07248228 -0.0717419
1858 0.17146169 0.1100533 0.0051730857 -0.14128448 -0.08447435 0.23280443 -0.055803243 -0.27951747 0.3867481 -0.10538986 -0.050272755 0.1874475 0.42595723 0.18605344 0.08407838 -0.32106158 -0.035274744 -0.047089837 -0.3780727 -0.017314611 -0.059960615 -0.05634856 -0.025089031 0.057700858 -0.10563352 0.03999573 -0.20077887 -0.1111921 -0.23627251 -0.04889615 -0.07957412 -0.16675362 0.1737616 0.014633812 -0.035610262 -0.09876864 -0.027980253 -0.03721686 -0.112372935 -0.32558158 -0.08639271 -0.35245883 0.051814593 -0.14984429 -0.34628236 -0.18200457 -0.13031371 0.19160067 -0.117028706 0.048847444 0.02556212 -0.082000546 0.17488478 -0.30796298 -0.02561258 0.15351146 -0.006554576 -0.13568786 0.2561832 -0.037865277 -0.0960521 -0.054682128 -0.13422504 0.022397906 -0.24910305 0.0651631 -0.25324276 0.3809681 0.03807768 0.026578002 -0.028867567 -0.19002058 -0.0952596 -0.23961027 0.068993896 -0.08526143 -0.31261784 -0.33800152 0.07462061 -0.033233486 0.16725942 0.11537199 -0.15947233 -0.042382825 0.1955972 -0.005557831 0.053643838 -0.05529821 -0.13282405 0.2961153 0.018729577 0.005415092 0.21546182 0.06688358 0.014614604 0.39850205 0.07293888 -0.06926737 -0.11187937 0.1074885 -0.09188726 -0.1047401 0.099059284 -0.050897878 0.123341225 -0.032297514 0.28535768 0.27891126 -0.1180626 -0.23224951 0.07170509 0.0023215346 -0.03571947 -0.00080930826 0.15435359 -0.080921724 -0.13125186 -0.0021054368 -0.009733627 0.0034555933 -0.20923403 -0.16891924 -0.0009808429 -0.19168282 -0.08480062 0.19606245 0.12443226 -0.14611089
3787 0.13436227 0.2307707 -0.0077900067 -0.238462 -0.05245277 0.36046576 -0.029379 0.033875342 0.3265023 -0.1727611 0.19970815 -0.053928014 0.15324317 -0.09676549 0.003581754 -0.15385622 -0.16165344 -0.19128658 -0.18392321 0.12997355 0.16224532 -0.049455896 -0.04608644 -0.00040500934 0.116188854 0.1971859 -0.20401174 0.27088046 -0.056754477 0.058831614 0.06820084 -0.037006807 0.13749355 0.28489795 -0.09080089 -0.124275476 -0.066079035 0.014016691 -0.018241705 -0.2168156 0.054121338 -0.12797345 0.03251392 0.01972523 -0.109205745 -0.108522505 -0.14332385 0.18944065 -0.011149643 0.20442705 0.19408014 0.09794718 0.057522178 -0.45664573 0.07039517 -0.027794594 0.29214805 -0.1926461 0.3062476 -0.20934416 -0.083079286 -0.020788109 -0.026703957 0.103152364 -0.2929729 0.20747589 -0.10839787 0.20630285 -0.002215067 0.07727639 0.16389057 0.0034409831 -0.08477393 0.076534644 0.19401073 -0.37059492 -0.37170184 -0.27734008 -0.06380359 -0.07519476 0.25747338 0.10900212 -0.31812456 -0.030432174 0.31173804 0.006683862 0.16314863 -0.05894362 0.10752901 0.06863878 -0.18226244 -0.18644857 -0.0809204 -0.054767177 -0.02681519 0.30202818 -0.18416451 -0.19356968 0.024853861 -0.009035598 0.0020545104 -0.032607444 0.1716176 -0.17445135 0.18795438 -0.12925473 0.34376445 0.2759463 0.013372909 -0.35291952 0.18780905 -0.11627164 -0.09400717 0.059508104 0.0780848 0.13473567 -0.038066335 0.14632806 -0.0067560812 0.121766165 -0.28836656 -0.27564183 -0.006903753 -0.061590046 -0.30765587 0.06839828 0.09723134 -0.05882822
2276 -0.1270666 0.033512585 -0.08020994 -0.011082683 -0.1068957 -0.006464916 -0.0717275 0.0040090964 0.23102951 -0.006573335 -0.11031403 0.02431238 0.027250819 -0.16427487 0.21541394 -0.18528019 0.15658075 0.033914655 -0.16121724 -0.03792672 0.17773245 0.110185154 -0.29823858 -0.17029344 0.025102327 0.09488965 -0.12454379 0.011277827 -0.22571684 -0.22261655 0.100456595 0.007237062 0.04501103 0.045679472 -0.14803837 -0.18516661 -0.17476282 -0.081646286 -0.0101636285 -0.091806374 0.051181898 -0.08007756 -0.16278796 -0.1755579 -0.007810815 -0.21917112 -0.18548797 0.16516735 -0.04732912 -0.12569545 0.18158855 -0.11946266 0.010926383 0.16634326 0.09126176 0.025522944 -0.0076931776 -0.35970938 0.2912653 0.036742657 -0.18331595 -0.07153395 0.12829591 0.1590859 -0.11039916 0.15961008 0.055769205 0.40758315 0.17985664 -0.0659966 0.25819632 -0.18440975 -0.062084153 -0.19671988 -0.0044557727 -0.12435883 -0.40236473 -0.074767224 0.009946325 -0.07007069 0.02055 -0.12692827 -0.07068462 -0.021993823 0.14024171 -0.20059493 0.17872238 -0.19125433 -0.21270883 0.24726942 -0.13664666 -0.2872083 0.26071283 -0.2007359 -0.10796286 0.41167057 0.01360937 -0.037730448 0.29701832 -0.10991619 -0.050638538 -0.05163542 -0.03942659 0.004298705 0.15437587 0.06696536 0.07951741 0.24251011 -0.029800234 -0.11954579 0.22635546 -0.104037076 -0.11081147 0.33542806 -0.05989595 0.14611365 0.42172346 -0.044309836 -0.26694173 0.17590648 -0.2535716 -0.217236 0.048588417 -0.011997178 -0.112463295 0.069325395 -0.042008556 -0.24347556
1397 0.16302516 -0.06507241 0.17699032 0.03660869 -0.008842033 -0.09761181 0.041332237 -0.051590465 0.055872805 -0.13669698 -0.09294043 -0.27503884 0.22810893 -0.18502958 0.15398158 -0.009783712 -0.0076765018 -0.058144968 -0.0012057453 -0.059441965 0.1446944 -0.024977772 -0.1520201 -0.026854329 0.017512772 0.28610244 0.09024197 0.025038864 0.06517125 0.037473533 0.32868293 0.18909363 0.0567268 -0.07312992 -0.011558397 -0.014620649 -0.26296335 0.3139937 -0.07213757 -0.14781687 -0.017265568 0.064176865 0.16317914 0.054383088 -0.004198646 -0.06312849 -0.33828908 -0.015596787 0.1211557 0.26806235 0.24049841 -0.33704358 0.003318125 -0.015824458 0.16398755 -0.015021377 0.143964 -0.13535956 0.23243834 -0.18196227 -0.043198075 -0.14265981 0.08572678 -0.10274944 -0.27585047 0.29537135 0.23024704 -0.038248703 0.13526428 0.24845894 0.08910931 0.124012135 -0.013200468 0.18424657 0.06535341 -0.17286448 -0.46794578 -0.09362914 -0.043111548 -0.021058131 -0.09702129 -0.05485565 -0.27036348 -0.0741756 0.24399565 0.0054163346 0.043966927 -0.14060773 0.047324583 0.0075537455 0.040960044 -0.34326294 0.20274141 -0.17782308 -0.13171294 0.03846558 0.03336508 -0.05022385 0.070441805 -0.11801436 -0.05615299 -0.046680246 -0.08208382 0.16762057 0.06487438 0.21134998 0.17765132 0.40208605 0.020017773 -0.3739179 0.24918514 -0.2588739 0.024473006 0.0050162165 -0.09410236 -0.37669855 0.32847455 0.14411777 -0.22988984 0.2596971 -0.3129867 0.076318614 -0.13072708 0.0030798134 -0.10356809 0.39695424 0.032314 0.07449178
1341 0.07581055 0.18997262 0.05391609 0.10683536 0.05450626 0.054481443 -0.17701101 -0.05945024 0.42647564 -0.12771061 -0.28494394 0.035237044 0.12029027 -0.29564157 -0.08269059 0.13837919 -0.0035287272 0.113333255 0.3581592 0.029307606 0.07028537 -0.10808654 -0.096228726 -0.07657316 0.09455484 0.18664294 0.0013681558 0.0137255555 -0.20008966 -0.2986586 0.48244852 0.084248036 0.08399351 0.031045988 0.11452709 -0.25680614 0.028426986 0.41017178 -0.10858865 -0.08249043 0.12302955 0.1372828 -0.16619517 -0.04676529 -0.06560363 0.031383973 -0.106038235 0.27416044 -0.276719 0.23664941 0.084231466 -0.025388299 0.35461527 -0.14509875 0.066898175 -0.014144505 -0.009500458 -0.066518635 0.4017873 -0.13219349 -0.06942828 0.085776456 0.04871733 0.046829563 -0.33516055 0.027427712 0.15367974 0.052164104 0.07541001 0.028685695 -0.1112215 0.10870193 -0.0811866 -0.06549228 -0.057490595 -0.12402056 -0.42289326 0.12060749 -0.009906796 0.04022553 0.06377468 -0.15580593 -0.3021551 0.13246252 0.106537536 -0.008982284 -0.22182803 -0.14928661 0.040633004 -0.26145 0.04639493 -0.3544586 0.2545809 0.023054708 -0.32915178 -0.08392221 0.2137889 -0.13041848 0.04415621 -0.028605897 0.04653843 -0.0800104 0.17929062 0.18374608 0.16335195 0.24698354 0.094440825 0.2632789 -0.05511299 -0.139945 0.14055839 0.027514176 -0.023277992 -0.028360926 -0.13368927 0.03106351 -0.0038603179 -0.06420586 -0.028535265 -0.05674044 -0.29637593 -0.13730182 0.00976353 -0.095049016 0.05110383 0.044916067 0.06185303 0.21340843
3503 0.0865538 0.31033522 0.2688626 -0.15197718 -0.058133163 0.07725455 -0.10222194 -0.12940371 0.4251933 -0.28699112 0.025173351 -0.019163448 0.39465058 -0.17802283 -0.04500989 -0.0024884853 -0.13707612 -0.018182816 0.079322465 0.13004856 0.068880975 -0.10029604 -0.021348674 0.15907814 0.024746908 0.3014991 -0.0034248927 0.18807635 -0.040955797 -0.070467964 0.17183065 0.028164322 0.22790025 0.23906796 -0.07410445 -0.36538634 -0.050224155 0.19215216 0.056838654 -0.10586125 0.13607247 0.27417442 0.061140724 -0.13530968 -0.2978275 0.224695 -0.12517856 0.12278255 -0.33170173 0.3309592 0.12369293 -0.0042281523 0.35779676 -0.17059176 0.17673482 0.028614007 0.11546392 -0.41473123 0.3850585 -0.18369494 -0.08465555 -0.30177948 -0.116873555 0.024618303 -0.42382213 0.18337718 -0.11328403 0.07138969 -0.10691752 0.027343834 -0.09860373 -0.0060079047 -0.21973516 0.14678313 -0.0012069647 -0.0037057612 -0.5744871 -0.04822336 -0.08223445 -0.12706937 0.13885002 0.054484766 -0.24324618 0.2754446 0.3126667 -0.19213557 0.079061106 -0.018756686 -0.07708587 -0.18498614 -0.14068574 0.017274015 -0.010967621 0.103066266 -0.15818134 0.18139724 0.013267609 -0.07925331 0.016024385 -0.018416682 0.05142378 -0.08616493 0.1827183 -0.033287402 0.26690325 0.14319447 -0.23232707 0.11980996 0.01333596 -0.19447216 0.049034927 -0.06281864 0.032575447 0.05892091 0.361383 -0.052567564 -0.11615715 0.00265557 -0.06186182 0.14330629 -0.2236689 -0.32118055 -0.19527431 -0.12065964 -0.03138293 0.17867126 -0.24796553 0.29706594
557 -0.075878024 0.027029317 -0.041659337 0.100255534 -0.04096198 0.060489338 -0.13290091 -0.17725264 -0.0028763833 -0.040840644 -0.14822154 -0.08940185 0.13146962 -0.30158913 -0.059863247 -0.09087941 0.37681246 0.18960808 -0.40721163 -0.11614668 0.15853958 -0.0075885905 -0.27570435 -0.12336037 -0.14989586 0.12374847 -0.06068304 -0.038525183 0.10446325 -0.114773385 0.19561169 0.11238943 0.037560496 0.043611825 -0.005784011 -0.16432248 -0.104194105 0.15412748 -0.22755821 -0.09132528 0.23290263 -0.095354 0.08529317 -0.112274945 -0.052977346 -0.114879906 -0.08755919 -0.06098909 -0.061515056 0.016733946 0.24180394 -0.262725 0.22790933 0.14637339 0.14585866 0.21295378 -0.016881503 -0.34096947 0.10808769 0.04450327 -0.14976701 -0.061292473 0.04738048 0.18847539 -0.18852799 0.27072397 0.079381436 0.043769084 0.09111891 0.25916716 0.055268936 -0.21613953 -0.15628295 0.067325614 -0.050870083 -0.12577483 -0.49812508 -0.06977591 0.13743877 -0.121991724 -0.05116843 0.12582871 -0.103557505 -0.22111711 0.048055742 -0.13930954 0.09220001 -0.05330717 -0.028709661 0.19026662 -0.27483284 -0.14464368 0.28408086 -0.07038798 -0.09307997 0.15865828 -0.042244345 0.002726143 0.31758636 -0.10066434 -0.18899508 -0.059144888 -0.13092548 0.07966845 0.11950849 0.22347963 0.09244047 0.2768384 -0.033741537 -0.08757342 0.18284282 -0.20812 0.13549063 0.20557155 -0.10263777 -0.052369658 0.49526432 -0.13126452 -0.25540304 0.025875749 -0.26467887 0.13860874 -0.1246067 0.04869476 -0.11262864 0.29872492 -0.020884613 -0.09046622
2 0.015405756 0.108632654 -0.17558378 0.16849285 0.08869866 -0.15895022 0.0044812765 -0.015656877 0.24318092 0.008627375 -0.23467518 0.06496603 0.09511892 -0.22193834 -0.05602136 -0.0066524292 0.1940123 0.041000187 -0.24523881 -0.024579886 0.22578204 0.104806274 -0.06948361 -0.038310297 0.07442383 -0.04716123 0.0015878788 -0.087255985 -0.20638253 -0.3518753 0.038521856 -0.10554168 0.03541249 -0.06063316 0.028293213 0.035473615 -0.1778023 -0.034887098 -0.14083512 -0.016904602 0.075535566 -0.23489864 -0.089221865 -0.18750896 -0.09939886 -0.3862803 -0.10899097 0.30607188 -0.17833823 -0.08966267 0.13109809 -0.30527106 0.06970615 0.2878669 0.0059767948 -0.022456503 -0.09657738 -0.29639786 0.28954992 -0.040945437 -0.1064854 -0.07774161 0.12535577 0.14394598 -0.17842086 0.11320364 0.07366051 0.3585048 0.09352949 0.015164885 0.07609667 -0.07244402 -0.086870804 -0.07583815 0.00028712954 -0.09938549 -0.47346193 -0.05753308 0.052812357 -0.07535539 0.0028674325 -0.12906443 -0.09094155 0.03674445 0.02809823 -0.21462227 -0.15666963 -0.108897656 -0.122384526 0.10945827 -0.10189062 -0.15859237 0.4110232 -0.046146974 -0.055846263 0.2343969 0.07362171 -0.036584977 0.18440779 0.08675816 -0.22324365 0.08740905 -0.21209908 0.18518029 0.29225197 0.1894202 0.18584622 0.18400739 -0.09920385 -0.06051587 0.12035047 -0.17042385 -0.10259195 0.3767491 -0.21751353 0.042477783 0.08948921 -0.06712134 -0.31602502 0.051176105 -0.14796495 -0.0960067 0.037286468 -0.010248378 -0.0025573298 0.116086856 0.033708125 -0.21352912
573 -0.02000325 0.54609907 -0.15208317 -0.14026879 -0.099081 -0.025208075 -0.019317131 0.17000857 0.4503077 -0.28886357 0.014043683 0.15417543 0.1831369 -0.17278068 -0.30997524 0.17382479 -0.30602774 0.010452059 -0.22526908 0.1449781 0.25730893 0.14039934 0.06687814 0.08087015 0.040293556 0.321009 -0.23628081 0.14655137 -0.18920149 -0.120868064 0.27969396 0.30644408 -0.06800238 0.16922124 0.15993302 -0.17031577 -0.08018181 0.01102358 -0.2972845 -0.47732055 0.08589542 0.08510745 0.28120872 -0.08665002 -0.22708495 -0.24229807 -0.26358098 0.116852894 -0.1451391 -0.011648586 0.17209895 0.08843395 -0.14404278 -0.06652666 0.080932274 0.12151639 0.10167046 -0.30612555 0.22441344 0.0067343162 -0.16210492 0.20736584 -0.024822531 0.0014966697 -0.37804678 0.010695649 -0.050076872 0.27126643 -0.061460618 0.11655732 -0.060746957 -0.049861535 -0.23463187 -0.17591141 0.23065609 -0.16466458 -0.23535968 -0.04027294 0.18993577 0.14623968 0.22899862 0.03756365 -0.63289595 -0.025511391 0.24492814 -0.18272471 -0.07775172 -0.11248232 -0.003947212 0.08133918 -0.30665946 -0.062393893 0.32632804 0.2779789 -0.17271768 0.15358448 0.23038676 -0.22780193 0.2098073 0.13055025 0.14879532 -0.0319111 0.111096255 0.04964778 0.20347351 -0.12226342 -0.0584277 0.11022439 0.056391817 -0.13433321 0.08133076 -0.20794581 -0.46466923 0.3345739 0.020059435 -0.21526387 -0.20927022 -0.12788208 -0.09483699 -0.27950874 -0.38914356 -0.17941985 -0.13039501 -0.065266356 0.01540297 -0.025638128 0.3899497 0.05067927
2414 0.31007355 -0.18996233 -0.239692 0.1320908 -0.09939411 -0.08809101 -0.1165543 -0.2824519 0.44604585 0.22519624 -0.2636754 -0.046423554 0.10486309 -0.2227644 -0.06765638 -0.12459214 0.24689285 -0.11461106 -0.2368512 0.07334696 0.16969796 -0.09154954 -0.18338367 -0.19456297 0.14491145 0.043486852 0.07882171 -0.1855946 -0.29002878 -0.43569517 -0.021351017 -0.15855421 -0.1164206 0.14463706 -0.04470794 -0.06394139 -0.10879261 0.30507267 0.19595069 0.03572314 -0.03334933 -0.027297046 -0.08409586 -0.18699911 0.014698062 -0.1393382 -0.019651461 0.34789738 -0.4043782 0.10318474 -0.29635847 -0.07442641 0.09205652 -0.0901495 -0.08610478 0.17406487 0.014091979 -0.17820549 0.17172508 -0.32910436 0.1045393 0.10919537 0.17257941 -0.03641916 -0.28089073 -0.030343771 0.065269835 0.005005822 0.08296893 0.15674278 -0.10548227 -0.21184053 -0.2100314 0.17951049 0.07047204 -0.28729984 -0.33797792 0.12472204 0.10561045 0.1478226 -0.05103709 0.13622095 -0.086046726 -0.021282857 0.048447505 0.1585787 -0.23956922 -0.17379956 -0.15766786 0.042437986 0.21195622 -0.21327734 0.2360517 -0.12903503 -0.0931294 0.039593883 0.012676508 -0.068645574 0.12214494 0.15372378 -0.08509497 0.1395574 0.0784004 0.08934489 0.15376979 0.27487117 0.27799326 0.22261788 -0.14597563 -0.12734161 -0.017641729 0.027308147 0.25813544 -0.0650024 -0.1030174 -0.15548855 -0.13666424 -0.28743386 -0.21353823 -0.15663967 -0.18797933 0.2212819 -0.040776063 -0.4334013 0.08128978 -0.019858101 -0.03946702 0.032983825
1954 -0.053429417 0.07534722 0.008578155 -0.090075776 -0.17878354 -0.23131713 -0.200871 0.007864344 0.07336433 0.03707029 -0.092834115 0.254302 0.14107035 -0.19866794 -0.07152071 0.030327361 0.13001408 0.2897814 -0.44653353 -0.061241966 0.23024487 0.16198926 -0.0916714 -0.05437615 -0.08621282 0.24166383 -0.28317317 -0.0447493 -0.09194952 -0.08254392 0.09419208 0.08686874 0.10454367 0.031227559 0.053841352 -0.08711564 -0.009359718 -0.05393489 -0.18859108 -0.44063818 0.06193621 -0.1565492 -0.050557733 0.111616 -0.06851913 -0.30002093 -0.17151168 0.022105081 -0.13911538 -0.23762786 0.45924166 -0.25112164 -0.16829383 0.18360634 -0.16748205 0.021621212 0.053520106 -0.10987646 0.266431 -0.0024773625 0.002307623 -0.03698588 0.12490831 0.19546627 -0.21656641 0.14719161 0.06346485 0.34603253 0.003673702 -0.11917617 0.12949838 -0.00021415086 0.029745124 -0.11957707 -0.036119405 0.046657097 -0.32146832 -0.10676304 0.19982906 0.016296184 -0.09127201 -0.02065419 -0.27408782 -0.23360346 -0.04760347 -0.19873343 0.025077673 -0.1824818 -0.011679399 0.10258798 -0.15598471 -0.29517576 0.3795903 -0.24212728 -0.09346338 0.30695862 -0.012092891 -0.07066664 0.36700025 -0.03273814 -0.23893361 -0.04767428 0.025280176 0.08905382 0.30000085 0.13292629 0.17089848 0.24231203 0.048104987 -0.0496414 0.25817668 -0.18923499 -0.34591365 0.3317494 -0.1689728 -0.058466043 0.3254164 -0.047922805 -0.17601436 0.048902974 -0.27334502 -0.22785515 -0.05720169 0.1699288 -0.14479083 0.23324777 -0.07979322 -0.0446441
3889 0.1454256 0.35624063 -0.10271711 -0.08573355 0.13264248 0.11097347 -0.22813475 0.062345162 0.25524884 -0.31002375 -0.027129047 0.13927414 0.21325348 -0.26198146 -0.14057171 0.23308446 0.030532818 0.051298346 -0.06296376 0.10805244 0.30036756 -0.0057763024 0.02769412 -0.12265929 0.078764535 0.19463784 -0.18074134 0.11018162 -0.06426641 -0.1747821 0.06973009 0.110606626 0.11774769 0.12234685 -0.006765974 0.011691265 -0.20910892 0.09848588 -0.10800786 -0.16573784 -0.09174578 -0.104866125 0.09022251 -0.117140174 -0.0636648 -0.24349606 -0.031518944 0.15902394 -0.17662767 -0.13047272 0.2656034 -0.32829225 -0.06476859 0.07653419 0.04695351 -0.08706902 0.00991334 -0.3991445 0.25031334 0.033170316 -0.32788876 -0.17958187 0.21676901 0.31239134 -0.075535476 0.17955405 0.07886186 0.38547137 -0.14574473 0.24685241 -0.10338297 -0.045665488 -0.15389678 0.12865576 0.008535661 -0.10487324 -0.25019333 0.04740944 0.06032783 -0.06514634 0.10312064 -0.06869567 -0.48824984 0.037555438 0.096300185 -0.30708572 -0.26476625 -0.056645136 -0.0140799815 0.014241754 -0.2829422 -0.1310624 0.23085788 0.13672772 -0.27739045 0.024651097 -0.019004067 -0.038799863 0.14449787 0.091073506 -0.1749874 0.002438059 -0.0039427145 0.11768731 0.25764498 0.046978395 -0.12214637 0.24819012 -0.004542424 -0.13692181 0.10503235 -0.35105282 -0.046428524 0.2963332 -0.19698492 0.07325134 0.17413205 -0.07282018 -0.24034442 -0.030220676 -0.1913718 -0.27672258 0.07587099 0.12027026 -0.2770709 -0.06795465 -0.005191412 -0.063536376
1327 -0.09740654 0.124875516 -0.0029834625 -0.006520303 0.11341999 0.13680068 -0.097560056 0.07539995 -0.0028138463 -0.06338381 -0.11795865 0.10244711 -0.025804674 -0.36934966 -0.08348798 0.07904541 0.030217903 0.20692953 -0.12546343 -0.032287534 0.08035058 0.0006831713 -0.13450226 0.0023466852 0.08304209 0.17770086 -0.037421387 0.088971704 0.050987665 0.036133107 -0.07098157 0.15726696 0.02320223 0.04794985 -0.12645382 -0.056404967 0.12809417 0.2725898 -0.06466818 -0.11679965 0.079255834 -0.25093868 0.006744338 -0.07388144 -0.13218561 -0.14900155 -0.10713952 0.12838855 -0.13311262 -0.24885103 0.37721705 -0.15178503 -0.026264569 0.2526233 0.12837848 -0.0024257752 0.20924768 -0.3477183 0.15646294 0.13057168 -0.3879724 -0.028292948 -0.035696536 0.19634807 -0.41131258 0.073200725 0.04955724 0.19233002 0.07069752 0.16681135 0.11374338 0.07643681 -0.04318413 0.18344742 -0.17184696 0.009497235 -0.39580962 -0.09866033 0.07400022 -0.014742125 -0.20734484 -0.10101919 -0.18348005 -0.21757725 0.14566864 0.02348233 0.073223256 -0.12563875 0.13988392 0.02303639 -0.27286255 -0.116295956 0.2618844 -0.036857408 -0.21805944 0.53051525 0.12559845 0.021289142 0.16930342 -0.026171464 0.011409808 0.117895655 0.12638289 0.104144394 0.31298095 -0.19522193 0.10824649 0.18315184 0.11013831 -0.23026788 0.20367788 -0.21016243 -0.044049162 0.18021043 -0.1764576 0.1332019 0.34221086 -0.120704204 -0.18289201 -0.013832341 -0.44340205 0.08522434 -0.059873063 -0.036094565 -0.33065352 0.34079903 -0.055878215 -0.098379344
57 0.06183618 -0.11932998 0.121170074 0.08277379 -0.028960403 0.010185462 0.030309126 -0.19907328 0.4893428 0.08543346 -0.1237793 -0.1854804 0.2431083 -0.091683 0.10491839 0.017207377 0.23952909 -0.13779286 -0.36311728 0.040500965 0.28617126 -0.20839505 -0.19515133 -0.04493804 -0.015758581 0.13644032 -0.033765458 -0.025666252 -0.08235468 -0.07402346 0.20743762 -0.036369454 -0.16959874 0.43161717 0.020064441 -0.17759565 -0.19520006 0.19683555 0.008161035 -0.1228391 0.19736989 0.23681796 -0.10682649 0.03273576 -0.17438121 0.09399133 -0.2723773 0.026824588 -0.010828629 0.2417133 0.0020872185 -0.022776986 0.25624534 -0.1842777 -0.16044699 0.17913422 0.22035758 -0.13612653 0.088674754 -0.18264852 0.17724435 0.016476693 0.059138257 0.04198455 -0.42227957 0.22400507 0.10258985 -0.30906475 0.08901098 0.13952997 0.05889374 -0.20237778 -0.22605708 0.41652825 0.09844789 0.06658866 -0.501539 -0.045346778 0.005348472 -0.05579138 0.043916315 -0.04960116 -0.019143397 0.028810292 0.17619179 0.18782748 0.0052340357 -0.08568418 -0.3841019 -0.027755111 -0.1370296 -0.22215141 -0.013065647 -0.28622788 -0.07689411 0.2600411 0.006171273 -0.16866845 0.09851018 -0.060138438 -0.15858719 0.17137265 -0.10278658 0.112035185 0.12664567 0.24811591 0.05447311 0.36436856 -0.09914932 -0.11472659 0.25932875 -0.020898331 0.07421956 0.001736847 0.1517643 -0.17236349 0.42755106 0.20564511 -0.055255957 0.05989426 -0.27922258 0.11255741 -0.077629 -0.20633127 0.0062476485 0.21286581 -0.040806446 0.100062415
2594 0.17881556 0.12583138 0.17848216 0.11181119 -0.245146 -0.1338966 0.01638651 -0.20219474 0.41710562 0.04520318 -0.11509044 -0.12190595 0.28425655 -0.40793863 -0.052009583 0.065204404 -0.07004277 -0.14263526 -0.0051108906 -0.0665376 0.32395625 -0.08224201 -0.010223712 0.22324306 -0.016224634 0.396709 0.12153968 -0.031046255 -0.058103 -0.1394642 0.34989026 0.1628309 -0.09647757 0.36989093 0.15255907 -0.34619278 -0.012206213 0.37407327 0.10768463 -0.13949649 0.32731247 0.4214926 -0.06769437 -0.04033442 -0.03205083 0.24919565 -0.28285757 0.09664779 -0.3081424 0.2768431 -0.015577352 0.13415906 0.23536487 -0.12373688 -0.034247413 0.03213681 0.25503305 -0.06570183 0.25207204 -0.36533874 -0.032532588 -0.044653405 -0.0018624618 0.10480874 -0.5013633 0.13587305 0.31932786 -0.13083106 -0.21328335 0.26686725 -0.04920176 -0.018794103 -0.10198798 0.34958768 -0.11444002 0.013340581 -0.47169656 0.10793695 0.11368681 -0.15108989 0.17186306 -0.09249537 -0.17679033 0.32488418 0.38350365 -0.03327643 -0.1457056 -0.15999554 -0.082660325 -0.32069322 -0.14077769 -0.23360358 0.059548795 -0.13542894 -0.14695786 0.028829984 0.021591954 -0.2208664 0.20634581 0.013858576 0.16626091 0.015147379 0.27983463 0.14813547 0.21663082 0.19415863 0.014811404 0.13688129 0.0071421675 -0.16160792 0.14923075 -0.033883266 0.114712976 -0.15805319 0.05901018 -0.35424092 0.092023104 0.22121549 -0.017581766 0.0798374 -0.39321914 0.017470026 -0.17501503 -0.096801534 -0.020992102 0.062109295 -0.21399319 0.21854115
1983 -0.060481105 0.16377525 0.018963488 -0.09224787 -0.21680908 -0.17117827 0.044883993 0.019025065 0.038686626 0.11007733 -0.23356107 0.024432689 -0.0027018958 -0.37342164 -0.051686432 -0.14643979 0.24534383 0.12107755 -0.21676877 -0.22741951 0.3924757 0.0007772252 -0.2273641 -0.15091929 0.05678857 0.08224961 -0.058529716 -0.012031959 -0.3239162 -0.27434316 0.1373324 -0.04999865 -0.02190051 0.3249928 -0.108780354 0.008091879 -0.18480317 0.08291757 0.060218364 -0.18069933 0.06785954 -0.003546863 0.05970082 -0.17386036 0.008271245 -0.07653316 -0.19407643 -0.036097694 -0.23523955 -0.14306325 0.08895871 -0.289022 -0.286146 0.097569644 -0.13773933 -0.16886608 -0.022606561 -0.06425294 0.14155668 -0.09511 -0.27819088 -0.014415182 0.09562576 0.26035893 -0.18997791 0.04196807 0.26395327 0.16636267 -0.039003104 0.19635038 0.045457345 -0.07746694 0.090049535 -0.060744565 -0.20103271 0.032897726 -0.24343385 0.16038941 -0.11199941 -0.15894067 -0.15111114 -0.18555067 -0.30082625 -0.120472 0.21792042 -0.13879597 -0.09099701 -0.15939888 -0.08239428 0.07351169 0.041183304 -0.26017106 0.39965996 -0.17453057 -0.08140225 0.30844113 -0.15954606 -0.20814177 0.50924087 -0.01257705 -0.08697474 0.18865775 0.029164957 0.11890401 0.28901982 0.16154106 0.11552896 0.25902727 0.16737603 -0.18799934 0.20160025 -0.3122044 0.027921788 0.2177461 -0.14537153 -0.05923682 0.46436852 -0.05354943 -0.28218272 -0.07467088 -0.31530347 -0.034867126 0.10353008 0.047383856 0.033465166 0.123697035 -0.120012656 -0.15894172
3331 0.27692807 0.11956717 -0.19884533 0.062139824 0.25854138 0.01899444 0.0066876137 0.00693127 0.1912839 -0.1123661 -0.25869277 -0.03768826 0.19421674 -0.27626893 -0.020257084 0.13903958 0.25048992 -0.090704866 -0.09401063 -0.016323958 0.1932435 0.054598387 -0.23303506 -0.04723498 0.22347365 0.07525105 0.043246496 -0.0323973 -0.09803869 -0.14680137 0.04445684 0.018494701 0.0117836585 0.029282097 -0.00766654 0.19709599 0.06845977 0.12665874 -0.24617127 0.09579266 0.28008735 -0.29383743 -0.07815264 -0.03849794 -0.051000446 -0.13663957 -0.015570071 0.12157492 -0.03774888 -0.11928622 0.07679328 -0.25011313 0.033139072 -0.025096262 0.067152664 0.077622816 0.078548275 -0.19294816 0.18547577 -0.05804268 -0.0015971734 -0.033245586 0.092166156 0.09945852 -0.18736452 0.10754909 -0.036757648 0.27396148 0.36295027 -0.03868317 0.1552287 0.18466522 -0.10088979 0.25567266 -0.031039732 -0.29817986 -0.47528172 -0.20248604 0.054826085 -0.0838196 -0.21856584 0.022011138 -0.03405566 -0.32656464 -0.117780544 0.077792145 -0.06219204 -0.23879948 -0.07012035 0.16130005 -0.13635603 -0.46682984 0.3237934 0.08035404 -0.2043974 0.21882017 -0.011575733 0.07475553 -0.23210765 0.056699283 -0.12960316 0.19418557 -0.15213226 0.08809285 0.23532155 0.30016643 0.082841 0.4166746 -0.14846101 -0.27009663 0.11033627 -0.15209463 0.010481571 0.11689908 -0.27618912 -0.14672212 0.24418068 0.21408413 -0.3568626 0.07282411 -0.24719809 0.15746868 -0.056459114 -0.08956729 -0.11091603 0.18557908 0.112147026 -0.16775405
453 -0.20784259 0.23831353 -0.08330383 -0.118397795 0.05769201 -0.11428139 -0.10562351 0.30603397 0.134648 -0.076936275 -0.14171702 0.2532944 -0.06383281 -0.3028255 -0.09497027 0.091405325 0.22217898 0.14555587 -0.2732039 -0.017617567 0.23068592 0.10138791 -0.21819004 0.10691291 -0.11270905 0.099635966 -0.05421187 0.07418221 -0.08708386 -0.10429882 0.1139031 0.032923367 0.12056696 -0.06408985 -0.015746713 -0.05943672 -0.08896628 0.05879921 -0.08403879 -0.3071152 0.055155817 -0.20952277 0.11561869 -0.03778492 -0.21510178 -0.06215555 -0.015307013 0.057578813 -0.207838 -0.14955541 0.29431263 -0.15178487 -0.22159985 0.3310571 -0.015384089 0.09853461 0.009639926 -0.41482097 0.33453798 0.13389866 -0.21737285 -0.19302803 0.22782071 0.4081282 -0.18274833 0.19076459 0.05384104 0.20112424 -0.077423885 0.10335649 0.2100576 0.07860039 -0.12674911 0.056365117 0.12931398 -0.073490925 -0.37552804 -0.04590713 0.3142546 -0.14010394 -0.16145852 -0.10900057 -0.09339778 0.010023546 0.060804114 -0.4218897 0.10371337 -0.1563496 0.16197059 0.1679555 -0.256646 -0.12597856 0.43089896 0.1695001 -0.050189223 0.5300885 0.11057453 -0.11412839 0.4799025 0.006624224 -0.20029172 -0.06373229 -0.15017106 0.19023137 0.22225983 -0.09779231 -0.026560662 0.03697554 0.29430932 -0.12739119 0.2829297 -0.24571441 -0.36339617 0.34856015 -0.050395064 0.15185244 0.29684392 -0.006641762 -0.28427884 0.07318732 -0.4854892 -0.26620403 -0.008005963 0.3362387 -0.10108608 0.32689506 -0.06665146 -0.18740313
2951 -0.017603409 0.34642723 0.11847115 -0.2695137 0.01896075 0.079112716 -0.26024702 0.03126607 0.3680164 -0.26643988 -0.029803969 0.1837166 -0.11955596 -0.05860794 -0.6102923 0.03581662 -0.107967764 -0.09224756 -0.16249032 0.13727088 0.08625603 0.015289208 -0.21448639 0.020344634 0.23367801 0.16239329 -0.09132701 0.0881787 -0.076397456 -0.31605482 0.09995666 0.07721127 -0.062785804 0.08634343 -0.22106442 0.032525327 -0.091871284 0.05863203 -0.07313099 -0.10538836 -0.11553441 -0.08160036 0.19582003 0.19816199 -0.11989271 0.00015858705 -0.16465674 0.19353177 -0.22528227 -0.09983891 0.020372517 -0.031929217 0.102787435 -0.020615509 0.05047611 0.04867725 0.20282596 -0.40857804 0.12899044 0.06437842 -0.1368369 -0.09691058 0.21229532 0.22653039 -0.36444986 0.21316725 -0.20876545 -0.04617225 0.05771266 0.19102924 0.034655724 0.14375034 -0.27122965 0.09473313 0.3936554 -0.21327382 -0.30945912 -0.23634641 0.2153178 0.12971294 -0.16359344 0.057533596 -0.40008432 -0.1970158 0.1725223 0.098648146 0.003408255 -0.25584015 0.16952856 0.20597997 0.0558262 -0.016283011 0.12613003 0.1181984 -0.14564312 0.21260464 -0.073766924 -0.32830012 0.1229754 0.07293326 0.00011928413 -0.14043385 -0.056702636 0.033388972 0.22162761 0.17748544 0.21593769 0.060199574 0.3151479 -0.22674191 -0.20265342 -0.07465328 -0.15990357 0.2695819 0.06899785 0.13243279 0.044979103 -0.19115229 -0.12043176 -0.10531937 -0.3742862 -0.21289669 0.09621211 -0.4043801 0.09866653 0.32302174 0.32296643 0.06484492
525 -0.21843462 0.1455033 0.027510006 0.02781524 -0.08419758 -0.0047754585 0.025058417 0.10165408 0.25791103 -0.014559737 -0.18812005 0.054955117 0.10553329 -0.3436238 0.11065428 0.25305474 0.090959825 0.16492565 0.01835555 -0.019261746 0.24781014 -0.09424046 -0.026043566 -0.30520076 -0.022673832 0.22493261 0.004279804 -0.12990883 -0.256321 -0.011373068 0.3220952 -0.021753322 -0.034829598 0.194776 0.0030265471 -0.10027123 -0.20981537 0.21195553 0.12036469 -0.11468414 -0.09063143 0.022076387 -0.07010509 -0.095709756 -0.0006613338 -0.0032726624 -0.08743327 0.088429496 -0.20828886 -0.07133806 0.2620035 -0.3667065 -0.01132641 0.11641472 0.023540994 -0.09969418 0.04885542 -0.1462129 0.26617864 -0.11708875 -0.08645357 -0.06656262 0.05279466 0.005935135 -0.2970693 -0.11027783 0.32354772 -0.0060017356 0.12314026 0.40628326 -0.16368258 -0.18705499 -0.060032308 0.074628524 -0.20182237 0.28022125 -0.37595055 0.31097916 -0.19623208 -0.18685697 0.028571224 -0.30089825 -0.22134429 -0.037100337 0.3392785 -0.13738166 -0.08631147 -0.09271803 -0.010418127 -0.18702991 -0.08716404 -0.3728433 0.27464452 -0.13421208 -0.15753339 0.38211778 -0.010159283 0.019695342 0.41606858 0.011614711 -0.2439692 0.09352094 -0.20115471 0.39944857 0.087482564 0.09012039 0.0130529 0.3129206 0.023632664 -0.13902186 0.46332252 -0.39404353 -0.17674692 0.11451493 -0.2331691 0.009598905 0.31263632 0.025787 -0.21183696 -0.116517775 -0.52634764 -0.084157184 -0.1332115 0.20666485 -0.12907735 0.17145218 -0.19526139 0.09847679
2048 0.0252814 -0.106071025 -0.09812199 0.11112721 -0.21290842 -0.20985985 -0.1291928 -0.08516897 0.07381147 0.050202806 -0.32460177 -0.16481072 0.22637735 -0.23636726 0.18470435 -0.11341885 0.44194278 0.115656815 -0.3320549 -0.17852685 0.27901286 0.19648671 -0.2691625 -0.0027226694 -0.14013626 0.10514688 0.08407328 -0.22276853 -0.07259691 -0.24866542 0.078732565 -0.09997779 0.08067456 -0.08223478 -0.004395197 -0.0008660606 -0.190752 -0.0120028285 -0.0876237 -0.10310121 0.063782364 -0.03906781 0.190676 -0.33797818 0.0012954139 -0.05958776 -0.2651147 0.021687875 -0.18732831 -0.074674495 0.017998675 -0.3912782 0.045783732 0.3086765 0.08081003 0.28389084 -0.015690668 -0.5080793 0.13139878 -0.11530879 -0.046341397 -0.094966374 -0.0064468975 0.1579839 -0.21491653 0.23082925 0.2198161 0.30877545 -0.04348116 0.1781996 0.20097052 -0.17472178 -0.094955 -0.119201645 0.1410099 -0.18418053 -0.4194627 -0.06332425 0.12988426 -0.07973331 0.028687589 -0.017949667 -0.08471995 -0.05088536 0.15377401 -0.43671903 0.025588222 -0.10134288 -0.173433 0.21224768 -0.23351157 -0.060822774 0.42852244 -0.17919098 0.0031761643 0.26351002 -0.004310465 0.04306962 0.38108605 0.055656716 -0.1883204 -0.013147189 -0.25398654 0.20130289 0.14142902 0.22788793 0.13325174 0.26650888 -0.10249099 -0.009166147 0.1231669 -0.13956381 0.15947694 0.2211006 -0.16126488 -0.25100186 0.42271313 -0.24151298 -0.43048656 -0.053162158 -0.16947164 0.14481273 -0.09144267 -0.061032508 -0.009785729 0.16248627 -0.07771268 -0.15157634
1286 -0.12775409 0.009063533 -0.075856686 0.070675395 -0.21885617 -0.018732596 -0.034017634 0.040532663 0.31790653 0.07324305 -0.20767751 0.09518625 0.027201187 -0.24522895 0.07382668 0.07162912 0.105044276 -0.025855502 -0.16682969 -0.03996979 0.24841027 -0.043027285 -0.18275826 -0.24895939 -0.17518304 0.09980014 -0.13658904 -0.029993119 -0.30843005 -0.1299877 0.301148 -0.06987602 -0.10755599 0.11327896 0.0060629635 0.0029713814 -0.14450186 0.06486883 0.06824252 -0.24924529 -0.05395221 -0.039855853 -0.09596005 -0.27188697 -0.09443208 -0.160393 -0.26743567 -0.059239868 -0.110589996 -0.101135366 0.10970329 -0.1939752 -0.07664724 -0.009051209 0.00491807 0.013994861 -0.0230624 -0.22859704 0.13079253 -0.19140236 0.04237006 0.055554703 0.1576281 0.15346034 -0.10019988 0.09323522 0.2272743 0.13169082 0.052577715 0.3282258 0.032965172 -0.25867966 -0.14202122 -0.061359026 0.000941961 0.013830077 -0.34816048 0.09142217 0.16158764 -0.09017552 0.052007295 -0.17509222 -0.24582292 0.017469406 0.24020971 -0.13711019 -0.16274405 -0.07815786 -0.13173695 0.05928599 -0.08651635 -0.37679082 0.27493575 -0.13619147 -0.13828838 0.34985065 0.17022596 -0.08279001 0.40525228 0.07054682 -0.36716437 0.12543717 -0.110702425 0.17956097 0.14218096 0.107753664 0.17826302 0.25831416 0.16125244 -0.10719956 0.19379094 -0.19801855 -0.08080919 0.15318678 -0.14530942 0.0074468274 0.39057907 0.0338133 -0.3228187 -0.20411883 -0.33899346 -0.04386149 -0.05818904 0.12209913 -0.035341535 0.045872986 0.11552346 -0.070616156
2975 0.052363396 0.1532658 0.095715135 -0.07774983 -0.16332759 0.013784674 -0.16355032 -0.04164933 0.22904474 0.089251 0.06888913 0.065122075 0.17157769 -0.15373854 -0.2785868 -0.24214478 -0.1361421 0.19260237 -0.25265577 0.11646593 0.27287325 -0.03200796 0.040037178 0.23144725 0.15909211 0.3302144 0.11270741 0.003950862 0.15175354 0.004434943 -0.02242054 0.002819119 0.037082445 -0.019496968 -0.0037500977 -0.22957204 -0.23962429 0.2937797 0.115205236 -0.07711078 -0.004262599 0.057264317 0.115933724 -0.025379714 -0.09459129 0.01608662 0.015338568 0.15500729 -0.34962282 0.25025597 0.30935618 0.094401315 -0.06124167 -0.1483183 0.14791155 -0.13446578 0.12839355 -0.04741205 0.31336245 -0.03292115 -0.25068226 -0.14102335 0.04456706 0.123237796 -0.3548841 0.09619304 -0.033547103 0.1698526 -0.25722653 0.096902244 -0.04787892 0.081470706 -0.009746493 0.060410865 0.072946556 -0.082068816 -0.3684316 -0.10079015 -0.14509206 -0.18542224 -0.002431597 0.077884905 -0.15233734 -0.007664291 0.25116408 -0.0640457 0.03093789 -0.27539065 0.19065046 0.08425479 0.114737555 0.06264651 -0.02578049 0.009223374 0.08927226 0.2934937 -0.24379893 -0.254397 0.24357179 0.040555757 0.052431736 -0.05377675 0.42777097 -0.09490193 0.2501125 0.08363851 0.13419469 0.012467881 0.15932722 -0.36971483 0.07208613 -0.14750947 -0.056650173 -0.17898019 0.12906957 -0.1553895 -0.26252913 -0.27154556 -0.1850027 0.0989198 -0.396053 -0.40809762 -0.2645886 -0.24114278 -0.022862902 0.25882462 -0.24124694 0.10341108
2921 -0.12338991 0.09012071 -0.10673755 -0.08643037 -0.16382243 0.06063468 -0.05733643 0.118370175 0.27845782 -0.0736314 -0.069687836 -0.043515466 0.09509221 -0.21517898 0.18849048 0.19503134 0.27562904 -0.0146523565 -0.21004261 -0.004196293 0.17045088 0.11206501 -0.34193522 -0.13188052 0.014708735 0.15715589 -0.13261294 -0.021607079 -0.1715986 -0.014307444 0.16947572 -0.0037854875 -0.038744118 0.17544116 -0.0815568 -0.058175143 -0.030084584 -0.04373246 -0.08449893 -0.15883313 0.01646925 -0.14154172 0.03948443 0.011998983 -0.0829139 -0.12022298 -0.09553867 -0.0042922683 -0.0478369 -0.16847683 0.2759826 -0.30725077 -0.1814471 0.12069959 0.026189942 0.1155159 0.0298105 -0.25078762 0.022976168 -0.04887083 0.07182497 -0.095613584 0.024482436 0.051429845 -0.21583113 0.14389986 0.042175237 0.058185436 0.20531921 0.24556968 0.111508206 -0.027872715 -0.12971407 0.004821229 0.15238334 -0.08138919 -0.32740507 -0.020678528 0.15636192 -0.085203275 -0.0022104518 0.07197361 -0.11012102 -0.19221579 0.17595392 -0.043477446 0.067043595 -0.06370486 -0.015583027 0.18815508 -0.31477156 -0.38569322 0.1015066 0.025411494 -0.15960452 0.3928796 -0.0055456907 -0.006049862 0.3962677 -0.09546148 -0.18816514 0.08552823 -0.27234808 0.07181272 0.09628936 0.03307455 0.1651944 0.2887991 -0.049675275 -0.18318367 0.31373733 -0.3066067 -0.15014811 0.19571371 -0.15856215 0.009070155 0.36359856 -0.03891424 -0.1735682 0.03651705 -0.5545886 0.06937607 -0.194325 0.2001302 -0.27045122 0.23570064 0.030988261 -0.19293591
2840 0.24248531 0.014233145 -0.08950025 0.05045648 0.15802059 0.17296308 -0.05065127 -0.026617173 0.2320098 0.106716454 0.029311417 -0.08186337 0.0691494 -0.023903543 -0.23559448 -0.22164375 0.0561767 -0.21494243 -0.12784338 -0.023307977 0.088400535 0.0043511107 -0.08747472 0.038436208 0.071116775 0.027031872 0.16052784 0.030708978 -0.071275815 -0.18026505 0.018359186 -0.074230485 0.08379803 -0.2851581 -0.073257886 0.14398341 -0.097965114 0.10839734 0.016590884 0.069319054 -0.09878835 -0.39274096 -0.012225342 -0.019036507 -0.1814792 -0.23711374 0.06506363 0.35254124 -0.117577665 0.23681544 0.18132769 0.040276326 0.011614762 -0.032539167 0.18208994 0.043057285 0.013191226 -0.15711895 0.368383 -0.17197184 0.026382431 -0.019873407 0.20839074 -0.07793448 -0.22987297 0.33584413 -0.19790037 0.26549718 0.20238894 0.033406947 0.16093698 0.15990311 -0.19912456 0.17892803 0.20868655 -0.42885846 -0.4958852 -0.31986344 0.088497795 -0.075553864 -0.026086051 0.03572028 -0.17112827 -0.16039604 0.13666724 0.12373302 -0.017204601 -0.17209955 0.28746 0.20808299 0.09193069 -0.20589231 0.06691577 0.039814863 0.09449745 0.36587209 0.0008477109 -0.061470475 -0.107181646 0.14339778 -0.2247779 -0.017620046 0.04189025 0.10035217 0.11633785 0.023414107 0.4862158 0.20627037 0.04626337 -0.34620902 -0.11985189 0.031166332 -0.1324098 0.013369176 -0.17217363 0.116273746 -0.12443765 0.06593891 -0.14526659 0.15923339 -0.37264204 -0.2255937 0.04513436 -0.37959006 0.06944592 0.24394971 0.35749483 -0.07511967
1445 0.011282501 -0.005158298 -0.21848139 0.06839137 -0.29643816 -0.3386274 -0.08821944 -0.08366603 0.23048462 0.0525203 -0.15525539 -0.17300671 0.22830623 -0.19953823 0.0587966 0.034545373 0.34351376 0.07109759 -0.5019372 -0.052115697 0.3750222 0.14438373 -0.29574823 -0.053896952 -0.18320458 0.21066628 -0.11188153 -0.044189364 -0.17365324 -0.31851146 0.34489825 0.072390154 -0.100446366 0.098244496 0.214986 -0.027256977 -0.058512695 0.03808005 -0.1527912 -0.42066112 0.16313228 0.125856 0.23321551 -0.079962015 -0.15639216 -0.19353668 -0.32376653 -0.097658634 -0.21965449 0.022142056 0.06309287 -0.19691768 -0.1457981 0.20045303 -0.14768012 0.14748108 0.047093555 -0.21286419 0.11049181 -0.20750725 0.0920759 0.05101053 0.15007856 0.038613446 -0.18627076 0.2224192 0.19787587 0.19742675 -0.007628691 0.06883919 0.12299071 -0.08639903 -0.16719829 -0.029042894 0.1750703 -0.111398414 -0.44700825 0.06914902 0.24553153 -0.064178936 -0.0053512356 0.06767088 -0.17130426 0.012427831 0.080244176 -0.2863261 -0.16123204 -0.1372525 -0.28600323 0.055888858 -0.21997955 -0.25737342 0.28865194 -0.13871053 -0.08107034 0.09018748 -0.018379908 -0.09734399 0.4419443 0.03611522 -0.14817452 0.023733405 -0.1866842 0.09329399 0.24414366 0.23302425 -0.024601167 0.3072967 -0.08007435 -0.1008476 0.28349394 -0.13741198 -0.13647872 0.32679963 -0.10944168 -0.3383992 0.3044591 -0.028242402 -0.22482817 0.026589533 -0.24350199 0.017834228 -0.18284272 0.3326875 -0.036615044 0.09313768 -0.0074916054 -0.0036224672
2448 0.03724717 0.19386652 -0.13375074 -0.27194706 -0.020054448 0.19481614 -0.17538364 -0.013358615 0.177493 -0.2545092 -0.033740383 0.06449005 0.12373553 0.028918993 -0.2720563 -0.26449826 0.12558733 -0.12621285 -0.07888435 0.072458856 0.14775336 -0.053166877 -0.32153425 0.21343167 -0.0002483664 0.16894245 -0.07646269 0.1462413 -0.06994775 0.12590303 0.018663913 0.04052251 0.25209343 -0.010691732 -0.24631204 -0.07487224 -0.06604635 0.076401055 -0.011082338 -0.14855827 0.103103966 -0.2748733 0.048062596 0.14686242 -0.19460954 -0.05142797 0.030737288 0.35766023 -0.14651583 0.1504289 -0.0469628 0.16696313 -0.017314969 -0.15361154 0.21907589 0.24446169 -0.053879455 -0.32214698 0.084450886 0.13232733 0.04468453 0.0024783479 0.05268924 -0.08249751 -0.38586494 0.25752997 -0.365246 0.34820825 0.27237412 -0.0915124 -0.13028044 -0.0316612 -0.22760446 -0.0119194025 0.16423021 -0.47045523 -0.4255445 -0.3277764 0.0016372203 0.048307106 -0.3574539 0.37123078 -0.12247371 -0.31439662 0.0124729555 0.103043206 0.3680049 -0.23086333 0.062050313 0.42156532 0.023775158 -0.016600206 0.15713489 0.09016131 -0.20074338 0.3603207 0.077798866 -0.03823867 -0.18869045 0.2950508 -0.27530783 0.054994266 0.13878007 -0.39391026 0.19027832 0.13893546 0.19790997 0.1246649 0.1560374 -0.4006552 -0.14010638 0.003901096 -0.07148655 0.19101003 0.15583421 0.10239804 -0.046891343 -0.050991837 -0.26422688 0.23218459 -0.19873245 -0.17811456 -0.14230964 -0.41338974 0.1983702 0.052502904 0.40364155 -0.11782894
2360 -0.17972195 0.14408769 -0.14913253 -0.06748876 -0.055126525 0.15717453 -0.00034431813 0.21443367 0.31681466 0.08256215 -0.07612301 0.020875104 0.20798717 -0.3082148 0.23538181 0.1743697 0.1185148 0.038648114 0.0002647839 -0.09919769 0.29578233 0.030451879 -0.20080782 -0.18825257 0.019389559 0.18909091 -0.28919342 0.043099824 -0.13573459 0.056207266 0.25879878 0.25448164 0.035290696 0.095219165 -0.06815017 -0.0068700397 -0.0868194 0.12620176 -0.20056276 -0.1953771 0.03823209 0.025404328 -0.011344605 0.010503313 -0.018364672 -0.12258171 -0.1706111 -0.019371415 -0.12576671 0.08995423 0.25759953 0.078229055 -0.16770978 -0.07143362 -0.043600727 -0.07487319 0.074139565 -0.1946584 0.053334594 -0.14568622 -0.0020947391 0.15757939 -0.0045202533 -0.007602053 -0.37505168 -0.14690392 0.07512317 0.22122048 0.20569056 -0.060762946 0.042167835 0.07620812 -0.057570897 -0.10947507 -0.017506637 -0.030124908 -0.2063875 0.24948123 0.035860807 -0.14239118 -0.019603223 -0.04588528 -0.27016595 -0.06881762 0.30123845 -0.09633508 0.25319967 -0.0801852 -0.075106315 0.08886836 -0.2654347 -0.3953586 0.18445545 -0.021474764 -0.18976168 0.48578006 -0.050736148 0.08232563 0.22922124 -0.0393146 -0.24377237 0.05973521 0.11994366 0.003264339 0.20644929 -0.08346597 0.058220245 0.38043004 -0.051836446 -0.28398123 0.31437328 -0.1379419 -0.33319017 0.23205929 -0.041228212 0.03850038 0.2860231 0.06800081 -0.34608805 0.026508495 -0.29452842 0.07021776 -0.28200287 0.17178193 -0.19090623 0.08440033 0.08057463 -0.00929348
1048 0.16048686 -0.06254051 0.08175768 0.038201362 0.052763276 -0.021010753 -0.17172661 0.07007163 0.11359035 0.27215523 0.07640668 -0.1504454 -0.013116957 -0.04680305 0.062938236 -0.22016458 0.0864586 0.22898036 -0.54463124 -0.07060683 0.2662689 0.14898287 0.024532543 0.22010252 0.15341027 0.2423482 0.08952934 0.116460636 0.26912647 0.017076977 -0.20194957 -0.061585847 0.14322722 0.12632056 -0.09473248 -0.08786477 -0.18526989 0.28901565 -0.17465882 -0.00109229 0.069358036 -0.20630142 0.3373815 -0.17488888 -0.21561596 -0.09182445 0.022185741 0.13588464 -0.09949225 0.14446057 0.5630919 -0.19746855 0.0488971 -0.019806983 0.14561212 -0.0851819 0.052041493 -0.103839785 0.30220687 -0.012812572 -0.18901958 -0.008797041 0.026521798 0.057960205 -0.38037226 0.34350657 -0.03520908 0.40163234 -0.18675862 -0.013249842 0.14836164 0.1474097 0.15531363 0.30531317 0.033130966 0.025929596 -0.43561184 -0.25981206 -0.12924236 -0.28685898 0.1490396 0.009262659 -0.09780295 -0.007624029 0.10616885 -0.17803697 0.118619435 -0.3339298 -0.03233094 0.19314706 -0.104079455 0.18495396 0.16191092 -0.18118246 0.3013202 0.4183231 -0.3682264 -0.03785358 0.17564362 -0.022858387 0.0267566 0.096902184 -0.02658696 0.12691028 0.37641066 0.1577971 0.3225544 0.22385569 -0.26074204 -0.24148636 -0.024801344 -0.21055184 -0.018386405 0.020516653 0.011720675 -0.35798118 0.11519055 -0.053922404 -0.22554386 0.2438697 -0.17168763 -0.24057736 0.0037909856 -0.08405818 -0.06663167 0.36988214 -0.23941831 0.002309223
2283 -0.06696638 0.13084488 -0.3119839 -0.14147848 0.04992609 0.0708685 -0.09891182 0.2449203 0.26714364 -0.03621323 -0.11309613 0.13681665 0.15726884 0.015003129 0.13844699 -0.021150816 0.15067227 -0.12381997 -0.0017080354 -0.004343703 0.18726507 0.29824832 -0.049294632 -0.29582164 0.016835706 0.051671583 -0.26847297 -0.061340015 -0.029886795 -0.12697731 0.17577472 -0.12654993 0.16304158 -0.2592877 -0.1566735 0.12686594 -0.15076853 -0.22353677 0.092740916 -0.19556911 -0.060758986 -0.3975617 -0.03778146 0.25140113 -0.26114613 -0.2075934 -0.044520047 0.40003845 -0.13229854 0.17905426 0.09357079 -0.06543702 0.08733329 -0.10294498 -0.15290762 0.012578802 -0.04789708 -0.035952892 0.2748507 -0.07454802 0.03540249 0.11523578 0.20188111 -0.17308585 -0.31317428 0.17974064 -0.040205877 0.368538 0.4416758 0.0914503 0.0074783186 0.0024870343 -0.20533997 -0.06259769 0.27019596 -0.24355869 -0.37153095 -0.23523928 0.10282228 -0.087725654 -0.30971974 0.07359925 -0.15910849 -0.15978533 0.25205195 0.10428541 0.12459644 -0.21736625 0.061692096 0.098685585 0.07153749 -0.25418285 0.024606084 0.043195322 -0.36622253 0.38894317 0.1314403 -0.011668486 -0.015948009 0.23686026 -0.4201973 -0.15975663 -0.33638376 0.1304709 -0.046642676 0.0032432505 0.21054049 0.27015495 0.037374567 -0.3482367 0.10046473 -0.02299489 -0.45480716 0.28240237 -0.11163785 0.23413315 0.032221675 0.16200334 0.01497716 0.024827348 -0.35283485 -0.20089005 -0.047562152 -0.0054374496 0.102901235 -0.04067393 0.40881285 0.040456686
1380 0.05975208 0.030801585 -0.02365693 -0.0121085495 -0.12498164 -0.16196689 -0.102975346 -0.11134445 0.2987595 0.0889902 -0.23629814 -0.079102546 0.010017069 -0.21388046 0.056130793 -0.13654582 0.23936473 0.06402632 -0.3551016 -0.16625415 0.23551269 0.041480232 -0.28135625 -0.18632556 -0.095249616 0.18804102 0.0075273206 -0.12945658 -0.26441476 -0.31229636 0.25891277 -0.0957983 -0.07774031 0.3509542 -0.07861579 -0.095218465 -0.14641774 0.05708516 0.058710046 -0.29809535 0.13937439 0.24785772 -0.04375432 -0.13588679 -0.17919128 -0.02157577 -0.16581157 0.05862489 -0.21297029 -0.094620645 0.17472342 -0.27315888 0.18270835 0.081995614 -0.13168868 0.1405049 0.00041396887 -0.100072786 0.18589441 -0.24719319 -0.08227619 0.055190116 0.044701774 0.10292423 -0.28544304 0.12752168 0.2520081 0.040268987 0.03306939 0.21403961 -0.0026756234 -0.12452885 -0.050238594 0.043936595 0.018936062 -0.05451713 -0.5468164 0.04760642 0.055023886 -0.15416093 -0.050577745 -0.24234742 -0.18567279 -0.05234441 0.21209124 -0.069758534 -0.22668143 -0.07558366 -0.25380448 -0.10464336 -0.03969254 -0.17963733 0.31240556 -0.14620167 0.008025312 0.2737988 -0.113206275 -0.045560412 0.3339912 -0.022415774 0.010806188 0.10809723 -0.021724807 0.25486273 0.20935918 0.07379814 0.06882487 0.10588471 0.008002299 -0.014901823 0.1452897 -0.1271381 -0.020620193 0.26798323 -0.1930706 -0.15674037 0.27056533 0.011081529 -0.05729383 -0.1476467 -0.3102917 -0.031417195 0.08329074 -0.029705994 0.10411328 0.16299509 -0.14210087 -0.07903828
3845 -0.08738351 -0.118261814 0.030048583 0.09713064 -0.25179386 -0.22443256 -0.17782581 -0.13960628 -0.013586148 -0.15539302 -0.08723684 -0.033666365 0.10214755 -0.20203352 0.04733808 0.068620354 0.26841554 0.057449974 -0.36139366 -0.13234432 0.20789601 -0.008690516 -0.22642799 0.04491358 -0.20969786 0.24093108 -0.029234948 0.16769315 -0.033106513 -0.06808515 0.22874056 0.027066909 0.025855359 -0.045031965 0.14125398 -0.17644072 -0.18522082 0.15706442 -0.057421576 -0.41723195 0.00021695814 0.0010143645 0.1594164 -0.05975314 -0.30200353 -0.17803204 -0.35583776 -0.116276495 0.050098013 0.14029905 0.19404617 -0.34268185 -0.12458811 0.3029451 0.06098089 0.1710255 -0.020897381 -0.3325816 0.27492726 -0.036170956 -0.075972386 -0.27281028 0.23945221 0.11342287 -0.16893545 0.54578555 0.15777588 0.08499171 0.08102645 0.17747952 0.09773363 -0.22980538 -0.10767138 0.05703583 0.10248011 -0.105938986 -0.43714213 -0.14537975 0.25782675 -0.06459884 -0.058142897 0.10927705 -0.14479446 -0.0091672065 0.13628542 -0.3253367 -0.04658307 -0.16005705 -0.1665083 -0.03212873 -0.21538518 -0.19992837 0.3693173 -0.21300572 -0.21939518 0.03520045 0.13258037 -0.068250716 0.39836603 -0.10535318 -0.29055876 -0.079309896 -0.07929224 0.19604278 0.16253316 0.30908883 -0.09960421 0.34877834 0.07310705 -0.0899172 0.28576538 -0.20904827 0.13705534 0.24587359 0.07669337 -0.14999792 0.33216754 -0.0658668 -0.14862561 0.11893695 -0.21531312 -0.0068220315 -0.081745125 0.23063469 0.04926783 0.23133004 -0.08703342 -0.008593806
3906 0.11146887 0.24141985 -0.020254605 0.1692084 0.17864288 -0.15081058 -0.012213661 -0.05715925 0.19690846 0.032517053 -0.23412 0.09120515 0.124210134 -0.23846288 -0.11647769 -0.105547644 0.14069988 -0.10073639 -0.07663386 -0.16480924 0.17907283 0.030843213 0.011396876 -0.07736576 0.12536088 0.049588833 0.12992825 -0.06352559 -0.13552901 -0.21258974 0.1403374 -0.015364128 0.06725831 -0.09611442 0.102980025 -0.05499499 -0.18950953 0.13292442 0.018818563 0.030014541 -0.03641368 -0.18324877 -0.19490205 0.08633956 -0.06292854 -0.27031767 -0.12748308 0.30004948 -0.105970345 0.14429347 0.036990907 -0.063220344 0.028422477 0.1014231 0.006571162 0.028150367 0.0640092 -0.08247933 0.46539357 -0.017651508 -0.25154883 -0.02327753 0.2350196 0.031149784 -0.20036437 0.05440297 0.08662212 0.31243318 0.2087889 -0.066740386 -0.03295785 -0.056776036 -0.064821295 0.06520618 -0.052138995 -0.096920654 -0.40053937 -0.18069121 -0.11864387 0.097496025 -0.20506763 -0.18986255 -0.13633405 -0.07836286 -0.047979467 0.058213364 0.05803608 -0.28249845 -0.07305489 0.0783579 0.15508904 -0.28448084 0.27984422 -0.025829662 -0.19929796 0.11423854 0.23522739 -0.035242833 0.052465387 0.072157055 -0.052617528 0.046131775 0.043883175 0.29411876 0.1688042 0.12518947 0.16911748 0.1990035 -0.06212405 -0.25492847 0.090543374 -0.12815715 -0.061635323 0.19855943 -0.26376906 -0.0008861024 0.068626724 0.11767773 -0.20365891 0.085521325 -0.31894952 -0.14741945 0.17583273 -0.2713202 0.0709998 0.007839613 0.12067318 -0.21267627
1031 -0.09635984 0.018359436 0.044191394 -0.15426324 -0.2183218 -0.13836975 -0.15701844 0.18171225 0.17003664 -0.08779688 -0.11904026 0.027512962 0.13132152 -0.17695759 0.03879998 0.01203709 0.081209615 0.06851813 -0.0528419 -0.14413029 -0.008603746 0.20664182 -0.023007626 -0.21488772 0.10228427 0.47923964 0.11205988 -0.05303261 -0.21635698 -0.1411573 0.16787864 0.08597833 -0.07695278 -0.20902342 -0.0004512825 0.1622216 -0.2847276 0.19548872 0.09625839 -0.2893656 -0.3038562 0.06881218 0.19165307 0.018516244 -0.18319486 0.017226215 -0.034417067 0.01566902 -0.16371128 -0.06550766 0.31144404 -0.35528806 -0.20169604 0.1297057 0.0928557 -0.009155198 0.00054199505 -0.24752052 0.22894385 -0.1861246 0.027820766 -0.22741969 0.14357118 -0.28500322 -0.23527804 0.22351255 0.33137652 0.18337965 0.23506899 0.3803391 -0.16895308 -0.13603225 -0.057817213 -0.15049703 0.0031567786 0.025164904 -0.13998726 0.11891923 -0.10821811 -0.16589154 -0.006768373 -0.08721471 -0.38949707 -0.1325386 0.28166515 -0.19671589 -0.0973681 -0.16999318 0.012741035 0.14575465 0.20106117 -0.2953657 0.25188994 -0.028913079 -0.23776886 0.38636044 -0.015847161 0.20929112 0.3413676 0.054713972 -0.3750306 -0.1500893 -0.06944166 0.34924138 -0.002822074 0.17040943 0.15025285 0.15207553 0.24073778 -0.3421033 0.2154926 -0.40886113 -0.29057953 0.10567573 -0.18360874 -0.27589008 0.08116801 -0.18270591 -0.2216094 0.009300422 -0.4495913 -0.09097817 -0.2742223 0.14354451 0.050423447 0.21856882 0.028792959 0.066221304
2751 0.13242136 -0.048108768 0.1234293 -0.092351235 -0.07399108 0.16396974 0.00100854 -0.099472135 0.29555628 0.13698731 0.1450753 0.03853262 0.15569526 -0.048699174 0.043027174 -0.23084734 0.09503621 -0.090885505 -0.093177624 0.1868346 0.24040861 -0.041104395 -0.10629168 -0.030787889 0.10351687 0.11180478 0.099844694 -0.021461055 -0.1256055 -0.19241698 -0.028062314 -0.009700758 0.07928693 0.12247754 -0.23411596 -0.13470246 -0.371391 -0.06796604 0.34247088 0.013500815 -0.10873074 -0.0931572 -0.15131797 -0.07578416 -0.031536605 -0.1598222 -0.03941709 0.3800081 -0.21941099 0.2720124 0.22291127 0.100333765 0.1262661 -0.110735685 0.036172513 0.024084724 -0.08797085 -0.06954055 0.19471759 -0.17146333 -0.07878255 -0.111866854 0.07435626 -0.0864115 -0.3991045 0.15346694 -0.03403486 0.07564834 0.07511076 0.21575911 0.031051384 -0.038914904 -0.18924403 0.10458635 0.22277635 -0.30216885 -0.3547893 -0.1437873 -0.04421187 -0.23449491 0.04924586 0.06736259 -0.27247056 -0.06676016 0.45958945 0.16171138 -0.0067101084 -0.17205518 0.07964447 0.06877843 0.038530637 0.14218695 -0.21070734 -0.2076837 -0.12170687 0.30415288 -0.20895222 -0.29187444 -0.003234285 -0.048728123 -0.14260519 -0.010138656 0.24295266 -0.03329666 0.14061989 0.0031044309 0.2324201 0.21018177 0.010542857 -0.28505963 -0.056513757 -0.08595761 0.048908763 0.06528758 0.046705116 0.20084345 -0.19043866 -0.114094846 -0.021829136 -0.04679282 -0.39238217 -0.16454165 -0.015870033 -0.49956673 0.13720399 0.11599611 0.15826978 -0.042852305
2996 -0.103797585 0.22644351 -0.057749182 -0.004602837 -0.093076326 -0.024029948 -0.1502737 0.21727137 0.19362734 0.18903506 -0.13611658 0.32338902 0.07122469 -0.40686443 -0.0045946487 0.054951657 0.051394485 0.08309905 -0.39335275 -0.23489392 0.1788269 -0.026661675 0.014866279 0.057362586 -0.057127662 0.37447673 -0.15244481 0.22417921 -0.14530867 -0.039960064 0.19609824 0.13809106 -0.009631397 0.19833757 0.17591384 -0.019663734 0.12573327 0.17978215 -0.13393474 -0.63076156 0.0044646184 -0.06657519 -0.019374337 -0.12518162 -0.41122833 -0.19011828 0.045897413 -0.16058728 -0.24090089 -0.22068581 0.496719 -0.10525493 -0.18118584 0.11694118 -0.14165501 -0.16955692 0.21574807 -0.31554735 0.33010137 -0.0149713885 -0.15174398 0.03592668 0.1339412 0.11276002 -0.18978713 0.11575224 0.120071135 0.36683273 -0.07367444 0.13676976 0.07568944 0.0023299702 0.0784495 0.014121769 -0.20264302 0.21404026 -0.28200135 0.13926172 0.25679448 -0.08740615 0.25808635 -0.13219555 -0.15237878 0.05650898 0.21935904 -0.23371024 -0.15003727 -0.1739167 -0.11584916 0.11492832 -0.17848189 -0.26835844 0.34937933 -0.094807394 -0.09658031 0.58626014 0.077447705 -0.015846647 0.49659437 0.05377614 -0.2654963 0.027284056 0.19626759 0.36152825 0.26009887 -0.045028254 0.01611592 0.104712486 0.18771714 -0.14598618 0.36262017 -0.3068635 -0.2931324 0.14381649 -0.059418894 0.011458055 0.2253655 0.0755015 -0.08116652 -0.021686174 -0.3662351 -0.21102706 -0.05739024 0.2466069 -0.26080874 0.09980756 -0.106321886 -0.17505144
847 0.037896946 0.28652152 0.0656314 0.10091605 0.01947309 -0.013986057 0.08996251 -0.10848607 0.5252335 0.04880449 -0.16235529 0.07543738 0.065460645 -0.3498526 -0.36386788 -0.21096383 -0.055464815 -0.22366968 -0.023321485 0.0071424474 0.29718357 -0.11766675 -0.037738208 -0.031314086 -0.0071105366 0.0028499828 0.16028884 0.2606749 -0.12234906 -0.24981976 0.3738093 -0.06418886 0.02994611 0.39424142 0.19286194 -0.065129705 -0.21974184 0.14088206 0.056724615 -0.13083214 0.23328653 0.0989365 -0.3559649 -0.06582008 -0.12817569 -0.08369545 -0.054295156 0.2759903 -0.23941338 0.41952115 0.07184786 0.15483406 0.23032902 -0.1309299 0.00855317 -0.0035269633 0.028769273 -0.07399059 0.36662826 -0.23279566 0.0071340706 0.14138265 0.1491928 0.04561888 -0.26303834 0.045961007 0.060520973 0.06395342 0.16665605 0.1708663 -0.11330821 -0.14977525 -0.104456544 0.2765517 -0.117477186 -0.22202289 -0.58840746 -0.021844687 -0.20585269 -0.016904848 -0.042196516 -0.14853561 -0.22210416 -0.00029216683 0.010225201 0.17747603 -0.18787418 -0.05546341 -0.047965586 -0.2551961 0.05172463 -0.29412305 0.13371615 -0.19787782 -0.23080063 0.060229525 -0.03226333 -0.19465716 0.12148192 0.13274196 0.016678283 0.27392352 0.16914967 0.14249961 0.20431092 0.0927904 0.093705244 0.09406201 0.05490625 -0.18449323 0.061936006 -0.093552805 -0.031225326 0.16082254 -0.23355082 0.2838105 -0.07449735 0.2892728 -0.0860582 0.079629965 -0.30093673 -0.061590806 0.16537409 -0.21898511 0.21150672 -0.11377898 0.09238793 -0.03339268
1703 0.15666433 0.1180631 -0.13089755 -0.11384416 -0.16021518 0.07619039 0.010213629 -0.011839259 0.46203253 0.007835179 -0.30310804 0.06888945 0.21440479 -0.19287603 0.2951554 -0.054722752 0.19258694 -0.060617305 -0.08698795 0.020424549 0.30069104 -0.035744105 -0.21492621 -0.12972668 0.03943254 0.15427694 -0.10552876 -0.17655067 -0.38376033 -0.26283446 0.23497497 -0.12292846 0.00066052796 0.41471055 -0.10828546 -0.2344561 -0.32156014 -0.011960056 0.037595965 -0.1534418 0.08232261 0.099793814 -0.13207394 -0.23126489 0.019362878 -0.091575354 -0.1432413 0.16500264 -0.2560557 0.027010469 -0.1007655 -0.20377553 -0.10249375 -0.26009992 -0.05009992 0.037793376 -0.17000711 -0.13318096 0.07886593 -0.22408716 -0.07002734 0.110352136 -0.02759132 0.16561747 -0.13272104 -0.00458352 0.13687381 0.106892906 -0.03001041 0.27689746 -0.12408913 -0.29100257 0.010977273 -0.102003425 -0.21410176 0.010114751 -0.19429277 0.19227697 -0.08647749 -0.103361405 0.19548227 -0.16498947 -0.16909166 0.20389293 0.26008585 -0.13729952 -0.16378945 -0.16086571 -0.41462368 0.024084253 0.05334413 -0.38680914 0.32446554 -0.086252935 -0.10204067 0.26276767 -0.028196527 -0.062073354 0.23139773 -0.03913694 -0.1517734 0.038481247 -0.06137205 0.11071728 0.080636546 0.20788193 0.05938605 0.20016421 -0.1398224 -0.18039176 0.073009156 -0.21089648 0.06239906 0.012136885 0.066134386 -0.041698463 0.24928395 -0.06873692 -0.1681527 -0.2453088 -0.293144 0.053444967 0.06314735 -0.07964884 -0.079112805 -0.20159349 -0.114672445 -0.13007632
2499 -0.020121468 0.09358708 -0.14653485 0.009871681 -0.07148992 0.02475355 -0.02606494 0.022786897 0.13592164 -0.035856564 -0.06713572 0.107802175 0.13529707 -0.34889007 0.012513142 0.13664798 0.12880383 0.038987175 -0.15711197 -0.028520964 0.36192548 0.014616182 -0.092377424 0.13260718 0.05519786 0.29829562 -0.07709975 0.14702126 0.05137401 -0.03347456 0.12237956 0.13384117 -0.013115838 0.1950367 0.12674938 -0.044377323 -0.1269422 0.23495342 -0.24070248 -0.27293462 0.22694853 0.0448985 -0.0070697065 -0.2215359 -0.010305093 -0.11701077 -0.18287712 0.14518028 -0.12418178 0.013604196 0.34606642 0.06426404 -0.20062257 0.059148993 -0.07451159 -0.18498549 -0.0095930835 -0.14004184 0.04168401 -0.0017339257 -0.2824122 0.09295331 -0.007403152 0.22427589 -0.27657348 -0.053992 0.0054954174 0.3827372 -0.01759857 0.10707483 -0.096209615 0.088233374 0.070068516 0.12148057 -0.14474672 -0.09204261 -0.35084614 0.123157375 -0.040397964 -0.12632701 0.046127573 -0.01861423 -0.20879184 -0.046631005 0.21506627 -0.27990672 -0.07571518 -0.09652289 0.034257576 -0.059337176 -0.31754103 -0.22574088 0.1955059 -0.056872036 -0.1828746 0.23038436 0.027063455 -0.04471817 0.19097312 0.043950092 -0.05283806 -0.018296955 0.2618978 0.0046953335 0.36231184 -0.18879803 0.036522087 0.20989047 -0.06957474 -0.27647728 0.2885072 -0.2465624 -0.032257415 0.101267785 -0.207909 -0.043890797 0.06053703 0.11885225 -0.2756848 0.16517033 -0.30328313 0.0013547565 -0.18928835 0.22893728 -0.33516824 0.01129597 -0.08101236 -0.15980941
2660 0.002443099 -0.0153358 0.1846638 0.019530648 -0.19553845 -0.0086788125 -0.100532256 -0.07566523 0.15157871 -0.0020465774 -0.09822722 -0.044705827 0.331831 -0.11763397 0.039343573 -0.015877055 0.14876963 0.034766067 -0.27676898 -0.2737492 0.19609967 -0.008391256 -0.11562661 -0.056483123 -0.113644905 0.19958885 -0.08575109 0.04799959 -0.18023264 0.14093705 0.02740672 -0.1143988 0.09177691 -0.027962772 0.16849527 -0.20612969 -0.16260248 0.0033220595 -0.063648455 -0.24823846 -0.043976173 -0.15466692 0.078531004 -0.01731617 -0.30891475 0.023921173 -0.26402238 -0.21646355 -0.12481083 0.22818041 0.104989864 -0.11805264 -0.1508928 0.054357868 0.0393593 0.14682439 0.07859413 -0.33344656 0.27859148 -0.1189926 -0.0777711 -0.2724652 0.05010316 0.1549608 -0.27804485 0.29795444 -0.06745235 0.18748988 0.003139209 0.06372915 0.10798502 -0.22879297 -0.044286415 0.13125096 -0.04042609 0.17147742 -0.2818342 -0.0796955 0.015097202 -0.020403601 0.071196176 -0.042195704 -0.11659573 0.1576182 0.20666799 -0.25813302 0.17263591 -0.16016722 -0.2084079 0.012604663 -0.01166524 -0.23040412 0.2549354 -0.21379954 0.009169025 0.4043262 0.095163055 0.0049767685 0.19147827 0.063387685 -0.2974284 0.0045260917 0.014852934 0.21484993 0.1660112 0.116054714 -0.09918048 0.21924753 0.057393294 -0.22018108 0.078289226 -0.18289106 -0.02020426 0.044323213 0.28796223 -0.067244634 0.28818992 0.09731486 -0.20770788 0.02513852 -0.24532305 -0.18900168 -0.14146224 0.08856914 -0.031620074 0.21120927 -0.29868168 -0.009029526
1046 0.35332412 0.14719948 -0.0031611172 0.23141381 -0.09325328 -0.248492 -0.06105525 -0.28537184 0.043057635 -0.020832594 -0.3858087 0.15542375 0.46003133 -0.38530648 0.06011514 0.11326093 0.2706187 -0.063052736 -0.15445554 -0.13892166 0.371038 0.076771684 -0.19445829 0.15097564 -0.09715897 0.29830852 0.005100258 0.06418045 -0.14848696 -0.22243348 0.3502636 -0.07473226 -0.08545254 0.20119233 0.3605176 -0.07797842 -0.018273443 0.2220469 -0.15884213 -0.38920113 0.32023758 0.08056571 0.013716981 -0.06588067 -0.23409876 0.053752348 -0.23983932 -0.16705567 -0.07836317 0.08100694 0.012890499 -0.13298531 -0.022986982 -0.036569253 -0.13803943 0.05922918 -0.11814258 -0.20108812 0.14613342 -0.22393845 -0.06612914 -0.13098466 0.07299503 0.20982137 -0.0074106054 0.19180419 0.002380315 0.21106483 -0.06665265 0.221976 -0.06490152 -0.16265391 0.11284237 0.3195915 -0.34147355 0.020383732 -0.337578 0.036317326 0.14893676 -0.10840617 -0.09816756 -0.029928014 -0.16087705 0.17984799 0.007730909 -0.11142299 -0.23066875 -0.21867912 -0.20836435 -0.014268621 0.070884936 -0.30951247 0.4048731 -0.30041423 -0.32057637 0.05139926 0.14091836 -0.05014311 0.13958327 0.054620124 -0.078115925 -0.06194532 0.16553842 0.17148872 0.24138746 0.30723926 -0.12916727 0.21696045 0.01841685 -0.12890644 0.06539586 -0.1866791 0.20205063 -0.010085648 -0.088018134 -0.22573277 0.17330942 0.21894509 -0.36436382 0.07210098 -0.10104342 0.028863573 -0.1321654 0.24675687 0.027415862 -0.04629645 -0.15780917 -0.15683182
1193 -0.10662656 0.109744444 -0.14363177 -0.060772646 -0.24040943 0.11014669 0.012830899 0.1985475 0.30198067 0.1464839 -0.19789702 0.170877 0.11655839 -0.35470426 0.15644321 0.0010038269 0.16602218 -0.09626669 0.062306035 -0.19066273 0.3313357 0.11178444 -0.109662265 -0.18822983 0.032194298 0.24306822 0.023974909 -0.13809828 -0.38650492 -0.2062658 0.2247258 0.011337523 0.061955646 0.2986248 -0.12627509 0.008969836 -0.35253617 0.0056512635 0.12413549 -0.2439259 -0.14724445 0.09792992 -0.0733844 -0.18674125 -0.10423928 -0.06347646 0.06515566 0.17056318 -0.28090075 -0.035865255 0.11575932 0.09255932 -0.25164074 -0.1195893 -0.15256509 -0.15022337 -0.12206052 -0.08521359 0.0059213 -0.22122814 -0.15625888 0.028432893 -0.12627319 0.042652093 -0.25297627 -0.036762208 0.22220045 0.22864595 -0.043974128 0.25691387 -0.15370625 -0.14890979 -0.02475033 -0.12516202 -0.06986101 -0.048662208 -0.12586415 0.39387813 -0.011650865 -0.2359714 0.24343798 -0.1565749 -0.38229775 0.08507184 0.5455286 -0.21137027 -0.1972 -0.07239505 0.0065066214 -0.00019510317 -0.0034280766 -0.22270733 0.26126388 0.10438301 -0.22632605 0.3917925 0.029065723 -0.103968695 0.550891 0.06252177 -0.09098194 0.059681393 0.16514058 0.17910895 0.089858465 -0.123594716 0.15593924 0.112053566 0.07347437 -0.18937162 0.0811452 -0.30252197 -0.20888373 0.0533721 -0.133684 0.074405365 0.053350396 -0.13731286 -0.20852593 -0.3260097 -0.37675267 -0.07767446 -0.11741617 0.036148492 0.002886019 -0.20691752 0.09986364 -0.102165565
3414 -0.124091536 0.088766776 -0.0945886 0.044588815 -0.047332004 -0.16031568 -0.046192847 0.018245302 0.1258697 0.042122055 -0.21097465 -0.025453582 0.1397969 -0.26734978 -0.03073246 -0.022497194 0.23479041 -0.0039641517 -0.40222916 -0.27408308 0.2485538 -0.0068995277 -0.13997917 -0.15351436 -0.14344756 0.070951805 -0.012300025 0.026826054 -0.22597565 -0.16375099 0.1539699 0.03280425 -0.05308576 -0.09813651 0.08996607 0.1626703 -0.14709058 0.09912816 -0.032205015 -0.31398916 -0.13890393 -0.09415183 0.010800282 -0.17029913 -0.1554287 -0.2511077 -0.23096676 -0.04950769 -0.12820543 -0.06612046 0.1565823 -0.36174428 -0.16496374 0.2764209 -0.04252102 0.077958055 0.039949376 -0.29386732 0.28408018 -0.046180073 -0.22725108 -0.07977319 0.23841918 0.14566667 -0.1330739 0.13599093 0.38863462 0.27357498 0.09927575 0.19519903 0.08462446 -0.11662476 -0.2146979 -0.021700317 0.013147192 -0.042422112 -0.47442737 0.019333221 0.08355306 -0.036279768 -0.08499284 -0.19414768 -0.13525875 -0.055298097 0.14680906 -0.3085521 -0.10559374 -0.15500163 -0.17212991 0.15610225 -0.07331487 -0.25630036 0.47078505 -0.10939677 -0.08155524 0.36575258 0.16056375 0.08416848 0.34129235 0.14147763 -0.32167214 0.10132142 -0.14175148 0.3945686 0.11567485 -0.011613575 0.05305251 0.23792404 0.122696474 -0.17925555 0.31561083 -0.35084736 -0.087934494 0.25909004 -0.36762202 -0.222317 0.39088088 0.025961563 -0.32674038 -0.010800475 -0.33498493 0.042984053 0.05816387 0.18638764 0.029084058 0.19784646 0.032887243 -0.17694606
280 0.10487624 -0.13043295 -0.080343 0.022249276 -0.05866701 0.22843413 -0.018909356 0.083836176 0.310326 0.09443244 0.0480955 -0.21703869 0.040876813 -0.1132131 0.16422589 -0.110954 0.26802194 0.066466756 -0.44006792 -0.010865685 0.23727956 0.03939837 -0.313028 -0.18757771 -0.03859319 0.1347432 -0.114290535 -0.10767623 -0.00026183127 0.11568888 0.17358838 -0.024952084 0.06968747 0.06399454 0.01574152 -0.15881488 -0.20932658 -0.0128384875 -0.122307554 -0.13453196 0.031168729 -0.1838987 0.1814592 -0.017650697 -0.17733625 -0.1819007 -0.017242141 -0.07488305 -0.10331055 0.27922255 0.27122962 -0.14575553 -0.1996177 -0.077367336 0.03134612 0.0930444 0.00673797 -0.15267919 0.076249756 -0.21408631 0.13953906 0.041276522 0.06871748 -0.02812699 -0.23874493 0.27083355 -0.0063727843 0.10130855 0.09042923 0.036962982 0.16065586 -0.06730044 0.055650633 0.09087447 0.123916365 -0.17822413 -0.2656067 -0.14152896 0.0519496 -0.19572306 -0.006633623 0.014412836 -0.20130323 -0.18198133 0.1018174 0.098273546 0.01030573 -0.18734132 -0.01908878 0.15417854 -0.17388245 -0.33575937 0.05773055 0.069620706 0.028958237 0.43025422 -0.2610997 -0.05952764 0.25142035 -0.0616589 -0.20557089 0.22330292 -0.11147015 -0.030966638 0.1416175 0.0765986 0.19023849 0.33666596 -0.049882486 -0.32713082 0.25829685 -0.23046182 -0.17946191 0.10971006 0.065051444 -0.041238625 0.36675704 0.15587145 -0.15556163 0.008942629 -0.3352524 -0.069156006 -0.10569282 0.06869765 -0.11925196 0.32305348 -0.039893012 -0.11829818
859 0.14960715 0.13867919 -0.11712201 0.034893475 0.053648118 -0.0039808517 -0.008278338 -0.23150362 0.03393766 -0.050917663 -0.17689441 -0.044867646 0.051065337 -0.35545278 -0.049013287 -0.16856574 0.1864784 0.18404835 -0.2612329 -0.047184568 0.16158561 -0.018229906 -0.2957725 0.012360057 0.06909498 0.30177847 0.030853402 0.019196678 -0.0076086554 -0.17693506 0.12298642 -0.053936858 0.00032896837 0.22989957 -0.081786655 -0.20756914 -0.049142767 0.22069962 -0.15975782 -0.24834336 0.29495052 0.034504917 0.026915893 -0.13636787 0.0062242607 -0.11658091 -0.07247806 0.01798821 -0.10626009 -0.045142844 0.02414209 -0.11871027 0.058018412 -0.1029308 0.1122429 0.10386682 0.05764927 -0.16116244 0.09388315 -0.05797349 -0.3498303 0.20446344 -0.09511515 0.24234009 -0.17108738 0.115916684 0.018823415 0.2112574 -0.022400934 0.020756673 0.09608894 -0.047930613 -0.06940717 0.05515878 -0.026365189 -0.25207692 -0.4265997 -0.08371335 -0.15307412 -0.019758884 -0.025415592 -0.015010887 -0.20542207 -0.2925603 -0.041619696 -0.056640595 -0.06956137 -0.13553527 -0.06426721 0.091366634 -0.1425686 -0.3290258 0.3724514 -0.050019152 -0.0412483 0.1415019 0.017919725 -0.17387326 0.15831588 0.015810488 0.18705654 0.007175569 0.0786855 0.018393504 0.25675324 0.02556525 0.04483715 0.21587044 -0.031501688 -0.21471797 0.23100057 -0.19584893 0.033922672 0.036349464 -0.14988111 -0.07659382 0.18342897 -0.050687447 -0.1788976 -0.09325933 -0.3098655 -0.062027108 -0.03734558 -0.051466696 -0.100458845 0.22518279 -0.082318306 -0.22662887
1181 0.018349314 0.1576666 -0.1544954 0.073466495 0.03580426 -0.109914705 -0.069181204 0.0050725015 0.2615283 0.07643434 -0.2553525 0.11620808 0.090455875 -0.26564062 -0.20706642 -0.11527333 0.10674221 0.032781135 -0.14421535 0.032074224 0.09986269 0.03939081 -0.12588204 -0.068737075 -0.04071864 0.031774163 -0.017788747 -0.07615193 -0.21524887 -0.25351506 0.119738355 0.10256739 0.05757747 -0.1955703 0.15139657 -0.08445782 -0.008363724 0.03188431 -0.046891022 -0.12726738 0.10942116 -0.21342838 -0.18179119 0.07508099 -0.19951 -0.25865683 0.0044282717 0.2575124 -0.29365695 -0.007723394 0.07767557 -0.08101127 -0.085608356 0.2761572 -0.06843255 0.015645552 0.05238682 -0.19548716 0.4029424 -0.07228988 -0.054654587 -0.030218294 0.17777345 0.124044605 -0.23943545 0.049355138 0.07388744 0.17351495 0.12294041 -0.023841625 0.13775945 0.049864072 -0.10987195 -0.031333223 -0.09739524 -0.07964107 -0.4627056 -0.037723716 0.22995631 0.0061850585 -0.14221425 -0.13375086 -0.10401748 -0.012681165 -0.084333904 -0.02872439 -0.093198724 -0.12101745 -0.021742322 0.03405256 0.002890493 -0.29161608 0.26960215 0.06812964 -0.10119352 0.3297945 0.2148562 -0.04787845 0.13266863 0.06317212 -0.15116851 0.065942414 -0.005157692 0.12502867 0.21197441 0.034464717 0.16272716 0.039094195 0.05365382 -0.19695446 0.12673809 -0.022691865 -0.34999204 0.25406024 -0.11880401 0.14495774 0.12979229 0.004570809 -0.14558637 0.08698346 -0.4115776 -0.12980802 -0.0707067 -0.08692214 -0.061943218 0.17804284 0.063784614 -0.098698005
712 -0.10002925 0.08549201 -0.08227583 -0.015494062 -0.0635437 -0.03541946 -0.058403425 -0.034795113 0.024436114 0.22104578 -0.0073451693 0.038344156 0.048209075 -0.17051607 -0.013990644 -0.26985562 0.21026479 0.1777746 -0.60395485 -0.14042652 0.22388563 -0.08782293 -0.19624211 -0.062034518 -0.2739053 0.11165847 -0.15437338 0.12204822 -0.0033636482 -0.045327384 0.017748047 -0.116734795 0.11514181 0.08817166 -0.075269006 -0.15267082 -0.041763876 0.0679213 0.09478288 -0.41734654 0.0583464 -0.1672939 0.102199435 -0.14870693 -0.30030674 -0.19844826 -0.053382084 -0.08798903 -0.2224056 -0.026738439 0.277728 -0.20957015 -0.02459339 0.071166016 -0.079190135 0.016497983 0.0584562 -0.24169026 0.21351907 0.047392603 -0.33026636 -0.1143218 0.09623429 0.10468485 -0.2710279 0.09980793 0.0250851 0.26424634 -0.1052072 0.06684562 0.061048504 -0.062478032 -0.09576803 -0.0017528175 0.012768718 -0.041180152 -0.453519 0.006846853 0.18839796 -0.1736858 -0.13722533 0.042548515 -0.05095086 -0.09149946 0.17302902 -0.24731186 0.16919497 -0.12601587 -0.08184622 0.20651405 -0.17246191 0.07326915 0.16936511 -0.08894848 0.010530751 0.42295432 -0.083500735 -0.03420892 0.43034706 0.06489881 -0.13948654 0.12971878 0.050364103 0.016199062 0.24187881 -0.029941663 0.01393848 0.19374803 0.055087987 -0.21408476 0.35499364 -0.21253061 -0.025096377 0.3147259 0.11070129 -0.008734179 0.1534378 -0.056224566 -0.1881936 0.117965646 -0.20136984 -0.12800041 -0.114390515 0.028251385 -0.07956854 0.29406783 -0.1647939 -0.15762338
1320 0.06917546 0.103297845 0.042284552 0.034635138 -0.16230895 0.036616903 -0.017477894 0.032538734 0.30542305 0.11823167 -0.06693514 0.09635893 0.39399037 -0.39988714 0.30308798 -0.259089 0.19292068 0.14459893 -0.026050193 -0.28006497 0.19047506 -0.11969841 -0.14246745 0.018905284 -0.15858656 0.13514069 -0.09344346 0.08646759 -0.20031027 -0.17219378 0.29080704 -0.061110385 0.26518467 0.4288401 -0.08568435 -0.04347485 0.051795125 0.14826152 0.033468034 -0.36753982 0.045584243 0.08191383 -0.16230236 -0.11495326 -0.24730946 0.02807873 0.084553085 0.14286742 -0.21409458 0.041177336 0.42489126 0.008778391 0.4052057 -0.23515683 -0.23460315 0.077613086 0.16797952 0.18937157 0.17611837 -0.33909756 0.04260179 0.26375738 -0.15264824 -0.16231212 -0.4147853 -0.16072491 -0.07728494 0.2460564 0.100519225 0.011722144 0.04182774 -0.041746933 0.10099917 -0.10752499 0.06864291 -0.14203829 -0.40516022 0.0665823 -0.20190448 -0.27615318 0.019080166 -0.030719535 -0.32661226 -0.16011117 0.38736713 0.23261274 -0.037862916 -0.021530999 -0.10718448 -0.0748742 -0.04405741 -0.05386992 0.028344125 -0.2430264 -0.355325 0.41089854 -0.20405622 -0.11943639 0.21309774 0.027235413 -0.12290681 0.20798393 0.3248913 0.026303725 0.21011046 -0.13506176 0.43950188 0.3046685 -0.13399068 -0.21939245 0.22422625 -0.08472277 -0.04670009 0.16499546 -0.25908986 0.016168447 0.048741054 0.23761818 0.18818083 -0.10980339 -0.26560545 -0.11059119 -0.06805861 0.10821196 0.08861214 0.20236258 -0.100544654 -0.08985982
1609 0.005116856 0.2316656 0.21092373 0.0032920183 -0.2035259 0.12118198 -0.1763977 -0.093147345 0.5640915 -0.17028385 -0.10438354 0.18989779 0.18209691 -0.18588789 -0.13111044 0.050069477 0.079979464 -0.12142477 -0.21071641 0.034199562 -0.022939667 -0.24573402 -0.20362735 0.08777627 -0.19919994 0.25827783 -0.20479919 0.2017313 -0.07998283 -0.104578085 0.39236912 0.07337315 0.06630777 0.50640744 0.104178235 -0.20645633 0.0410092 0.2687187 -0.16964157 -0.5289828 0.1907297 0.26131687 -0.02924722 0.005629647 -0.4876227 0.2572225 -0.05086226 -0.021336613 -0.19488372 0.19958515 0.0701417 0.12356887 0.3690313 -0.19407016 -0.20423727 0.29414675 0.28111312 -0.42364284 0.19832344 -0.16032155 0.15652718 -0.049775247 -0.015359811 0.10069326 -0.37037617 0.22723061 -0.06763306 -0.032672863 -0.011536201 0.11470235 -0.116171375 -0.26358092 -0.2100917 0.17245689 0.055234298 0.080333725 -0.36596507 0.012025672 0.11994809 0.067027576 0.08761917 -0.07060521 -0.27786145 0.17145851 0.063377716 0.07240382 -0.115616694 0.10837057 -0.25958303 -0.082569234 -0.07436839 -0.18300742 0.16288759 -0.08667791 -0.3093949 0.27388132 0.15905075 -0.13755202 0.12852746 -0.016310368 -0.14872491 -0.030397885 0.2443377 0.046396665 0.21556614 0.18914378 -0.0069559067 0.09740126 0.15035853 -0.0754351 0.13255188 0.037589993 -0.083255 0.10131484 0.25885424 0.06330636 0.32306817 0.22524808 0.09274853 0.078345515 -0.18822144 -0.054668255 -0.052894957 -0.031499725 0.05320018 0.15210696 -0.069889635 0.051290043
239 0.07413382 0.3636255 0.24450323 -0.13544405 -0.042746153 0.16910805 -0.20931707 0.17593358 0.56658316 -0.029876875 0.06580096 0.14854525 -0.092892595 -0.2707281 -0.14894696 0.041877296 -0.16412279 0.048278194 -0.120811276 0.06351214 0.3278368 -0.112921715 -0.2628133 0.17698325 0.07689203 0.2083395 -0.2500654 0.41834888 -0.06700328 0.051952545 0.14970277 -0.06272931 0.08727226 0.41220525 0.04002643 -0.36952472 0.2235205 0.20949359 -0.28029317 -0.17800382 0.22505817 0.1929362 0.054869775 -0.021580158 -0.33819914 0.09348403 0.021063227 0.0133733 -0.28280455 0.22366302 0.44540855 0.19869062 0.23243755 -0.32054344 0.047489565 0.022562923 0.26816604 -0.24362256 0.49031973 -0.07392738 -0.024930006 -0.12070503 -0.00027956037 0.3236174 -0.41571656 0.27086973 -0.24151193 0.067066185 -0.32271203 -0.19348134 0.1565522 0.15955539 0.0841656 0.17910695 0.06939767 -0.0020252955 -0.5550013 -0.23501952 0.26369816 -0.29563358 0.08340983 -0.0384509 -0.27989385 0.19349386 0.22770248 -0.025470478 0.13640368 -0.27175125 0.08397478 -0.1698745 -0.233689 -0.12975365 -0.09195015 0.12428733 -0.033144817 0.4344751 -0.30503967 -0.30789623 0.24063517 -0.099239156 0.22214851 0.13201767 0.15278788 -0.08454169 0.4117882 0.21155092 -0.0053921547 0.07728313 0.19238897 -0.09177426 -0.0029933366 -0.110299215 -0.17561106 0.039578248 0.36338016 0.16329594 0.009706153 0.15187871 -0.110603705 0.09218831 -0.32262072 -0.56509423 -0.22003923 -0.023674842 -0.061387945 0.33945194 -0.19349752 0.067849085
1698 -0.19941019 0.13718453 -0.0018982454 0.16499469 -0.25387245 -0.05483955 -0.0959963 0.122286774 0.27840605 -0.028962933 -0.14789777 -0.0153881265 0.083388306 -0.39048618 0.13458434 0.051832817 0.2443321 0.15580343 -0.13307233 -0.046206508 0.16127521 0.13692419 -0.27221084 -0.014598228 0.051003713 0.22442697 0.015291542 0.14933157 -0.19184753 -0.07628397 0.21127981 0.022200774 0.045310833 0.029670062 0.07557831 -0.31511357 -0.10656518 0.1324776 -0.16531448 -0.04892922 0.055948723 0.050826788 0.06292235 -0.25291803 -0.15693612 -0.0046513355 -0.03418181 -0.04963865 -0.28842884 0.027185302 0.19676687 0.008265708 0.012316941 0.28418824 0.2674959 0.16855043 -0.07041504 -0.52580154 0.19787818 -0.20847982 0.043524038 -0.17118302 -0.07089991 0.06212199 -0.17536163 0.28653923 0.1945833 0.27348226 0.07435225 0.04311203 -0.0118564 -0.17799564 -0.093952656 -0.109283626 -0.030022396 -0.020958744 -0.40025315 0.1761807 0.19943997 -0.04813258 0.18201613 -0.02534458 -0.10699293 0.29148233 0.18486671 -0.46228355 0.11795794 -0.090078115 -0.16746835 0.012371618 -0.33775967 -0.26041433 0.21736649 0.034110714 -0.17699042 0.40611422 0.1032005 0.08228043 0.53620714 -0.047291256 -0.105766945 0.040085122 -0.09319543 0.12366747 0.2623153 0.12304199 -0.058139164 0.13078232 0.08295246 -0.095156334 0.07512535 -0.3662969 -0.083128355 0.238324 0.13113388 0.033204447 0.1856481 -0.05118395 -0.45199722 -0.018285247 -0.26824033 -0.14923467 -0.30292794 0.23620813 -0.079147 0.20699972 -0.19416614 -0.08780111
2102 -0.16002771 0.03418007 -0.12212637 -0.04327249 -0.03474559 -0.29945996 -0.03297438 0.07084582 0.23097847 0.07943445 -0.20351578 0.17895116 0.17760724 -0.20530523 0.081320144 0.015573136 0.12685826 0.015832013 -0.4366116 -0.19782628 0.085253716 0.049958806 -0.022142375 -0.09926754 -0.09468928 0.10515729 -0.13259852 -0.040984254 -0.287171 -0.29055217 0.05102456 0.021850828 -0.07185381 -0.15256956 -0.051178616 0.18009427 -0.18690445 -0.01592481 -0.009579702 -0.4227558 -0.2056153 -0.08507437 -0.012235234 -0.22955522 -0.24376275 -0.30578208 -0.30831334 -0.014640223 -0.1421118 -0.26868817 0.10653339 -0.29805169 -0.10196216 0.26416808 -0.187492 0.01406811 0.16520205 -0.4325262 0.2798172 -0.04787404 -0.05816136 -0.07520251 0.286315 0.12836783 -0.20448579 0.11286437 0.24620774 0.26645216 0.21130627 0.19320327 0.16508804 -0.10047075 -0.22139722 -0.15130128 0.15387598 0.034482524 -0.36935624 0.02144266 0.23860794 0.025527352 -0.0780244 -0.16847868 -0.13971217 -0.028428603 0.20588139 -0.3285064 -0.043863896 -0.022546962 -0.21142098 0.18250427 -0.0564879 -0.2617868 0.45843455 -0.123958305 -0.06751467 0.5477935 0.2926699 0.026987698 0.3670517 0.11603277 -0.43567875 -0.005844078 -0.23090088 0.3227425 0.13121454 -0.051119193 0.17195307 0.21827637 0.19395418 -0.11549189 0.35772884 -0.18953694 -0.28426245 0.43144846 -0.07398585 -0.15281121 0.35039687 0.036007196 -0.30357695 0.01528543 -0.2563606 -0.027962774 -0.051942784 0.080595024 0.017952742 0.2879304 0.064033516 -0.17843075
1083 -0.2035963 0.34367093 -0.08401347 -0.1377256 -0.09667489 0.0075225183 -0.12373344 0.09514103 0.34558803 -0.3400647 0.067451306 0.028941866 0.11183575 -0.28162986 -0.22983435 -0.049738 -0.06180102 0.05699489 -0.19928429 0.0027521262 0.18467198 0.043254934 -0.015408691 -0.03386378 0.0010922143 0.19961695 -0.04948693 0.20234221 -0.06510167 -0.28789017 0.21127547 0.23919745 -0.07815025 0.08042765 0.15218152 -0.1250575 -0.17241272 0.018270828 -0.08715515 -0.34796947 -0.018879 0.037789885 0.10348294 -0.10123287 -0.12909007 -0.17932178 -0.27544534 0.010307237 -0.13728146 -0.028766096 0.3202195 -0.09318695 -0.024757657 0.19438466 0.08992649 0.0075684194 0.11269619 -0.3803109 0.2998451 -0.0482311 -0.17553793 0.070619576 0.19631258 0.0199888 -0.19312835 0.17665079 0.104723014 0.26853362 0.121420674 0.29960778 -0.013673059 -0.054972403 -0.17981653 -0.03434797 0.14994076 -0.16269913 -0.43036515 -0.035234664 0.047519077 -0.033935137 0.1877982 -0.13099074 -0.46623182 0.05552129 0.15130337 -0.26063195 -0.08238075 -0.066305846 -0.050352253 0.07451792 -0.25538677 -0.19167526 0.19351098 -0.009910708 -0.2772972 0.26677337 -0.04968424 -0.09064485 0.39910927 -0.007241249 0.0002710479 -0.13321252 -0.077859975 0.17628068 0.23389275 -0.13337071 -0.08932306 0.14721575 0.12500994 -0.2283579 0.26945385 -0.25632983 -0.28445807 0.39380273 -0.18163417 0.09748157 0.15259698 0.03999659 0.051089007 0.06013483 -0.57040834 -0.19414799 0.097445 0.20352957 -0.22164333 0.02405169 0.047848746 -0.0051177423
1116 -0.032544367 0.088836394 -0.083893165 -0.095141046 -0.10006172 0.06437861 -0.14319935 0.24742092 0.28942657 0.0038427066 -0.036781173 0.060491115 0.2218408 -0.26395583 0.28470653 -0.10937091 0.13086358 2.9723862e-05 -0.116223365 -0.17318957 0.10963135 0.11865076 -0.14333147 -0.14921598 0.04440858 0.19958068 -0.10192256 0.1288903 -0.30566683 -0.16506197 0.024817929 -0.052388348 0.08064972 -0.003809975 -0.060594015 0.044641856 -0.14143464 -0.07550816 -0.07901279 -0.2823279 -0.18469895 -0.04494427 0.07560009 -0.27574256 -0.3429581 -0.04532594 0.016797252 -0.06195145 -0.18990488 -0.015259277 0.34634426 -0.07379737 -0.10404401 0.018800346 -0.012258572 0.0727035 0.0034631828 -0.36923817 0.11204739 -0.27714556 -0.08088769 -0.061659846 -0.050845627 -0.055239603 -0.18514463 0.06314304 -0.006804932 0.32883155 0.09777108 0.09596283 0.07015581 -0.06952103 -0.043607634 -0.20702901 0.15817876 -0.14248827 -0.18333766 0.10988307 0.09611665 -0.13322796 0.12837072 -0.04962555 -0.34267154 0.019537393 0.35654542 -0.21650727 -0.0141485995 -0.022377832 -0.08083994 0.24993254 -0.07520148 -0.109043464 0.10767114 0.04594458 -0.15777786 0.6307598 0.02223529 0.07184056 0.23861957 0.033504672 -0.3344825 -0.039812416 0.12170475 0.23256369 0.15124118 -0.23118158 0.2131487 0.09683304 0.20471677 -0.26296943 0.10546696 -0.15414675 -0.21977435 0.24897785 -0.0011672814 0.11694751 0.012979488 -0.004613283 -0.244517 -0.13121006 -0.29451233 -0.17217252 -0.2619321 0.12257654 -0.03957696 0.13732909 0.0447934 -0.1396759
917 -0.06509794 0.0112532675 0.0712515 -0.019898906 -0.11506195 -0.09522946 0.15310025 0.068004884 0.25609946 0.311691 -0.061164994 0.057756174 0.119211756 -0.10000849 0.089977 -0.15283382 0.128138 0.012826168 -0.27621514 -0.28542086 0.313898 -0.09193527 0.059938297 -0.14619221 0.0387074 0.052247267 0.015650118 -0.017788349 -0.23898867 -0.19475552 0.1428846 -0.16726291 0.10375883 0.21881214 -0.12048129 0.055915665 -0.46784893 -0.010035491 0.27353427 -0.10167933 -0.14794299 0.04767823 -0.11167331 -0.06803045 -0.025896547 -0.07757472 -0.1065873 0.14606526 -0.14604795 0.18719214 0.27172816 -0.06383493 0.09795637 -0.21819408 -0.22454047 -0.23162076 0.06632014 0.24211806 0.28674328 -0.2019913 -0.064538054 0.0538135 0.11497354 0.093652196 -0.31965575 0.014380633 0.068945326 -0.067441605 0.03552528 0.3443266 0.046071358 -0.20173304 -0.034655944 0.045354173 0.009506722 0.076829076 -0.51652235 0.016485622 -0.16930515 -0.46812916 -0.012993996 -0.18076682 -0.17639782 -0.10104443 0.6464008 0.068119735 -0.03553601 -0.13804635 -0.023516607 -0.122690104 0.14259471 -0.025298579 -0.07876399 -0.13857722 0.11762691 0.44144398 -0.21386904 -0.28575265 0.4161718 -0.020131093 -0.23837823 0.108198464 -0.05876929 0.12074942 0.08698559 -0.02152011 0.46155775 0.23753332 -0.07429675 -0.2793473 0.1812773 -0.2990311 -0.060970575 0.08811127 -0.0899542 -0.15877275 0.017627921 0.088178396 -0.052737623 -0.116514206 -0.37826073 -0.28691447 0.04194336 -0.06503513 0.16612542 0.34878343 -0.052413035 0.030460192
3224 0.091696635 -0.18276069 0.0045244037 -0.0120167155 -0.20328371 0.1240342 0.12090564 -0.22149009 0.288085 -0.11869513 -0.23341417 0.09238123 0.31501767 -0.15616783 0.2534905 -0.14547974 0.12180609 -0.10413077 0.14712681 -0.058912694 0.22008424 -0.015635706 -0.013911426 0.020987779 0.0781796 0.26816037 0.12313524 -0.35627815 -0.2228315 -0.07802249 0.19140127 -0.2459452 0.11470247 0.31193992 -0.2942617 -0.15618102 -0.49260542 0.2617792 0.20217755 0.07308157 -0.0596355 0.14844309 -0.19637178 -0.12106733 -0.011882185 0.20175849 -0.20701364 0.48693955 -0.16535352 0.17998753 0.0033479189 -0.13820158 0.1851637 -0.31104177 -0.0033783205 -0.053112272 -0.11689028 0.062165033 -0.0074296445 -0.34786338 -0.104772255 -0.08969067 -0.23116066 0.00060706347 -0.42518836 0.05874086 0.14415552 -0.059471946 -0.0387761 0.36460623 -0.23571448 -0.33874905 0.010755494 0.121466815 -0.112293385 -0.036191978 -0.41756627 0.084896825 -0.4186953 -0.38457048 0.17323002 -0.17293149 -0.21238436 0.055405546 0.5943846 0.023239333 -0.12434105 -0.018262753 -0.038409628 -0.23069668 0.10026521 -0.10787393 0.045447193 -0.13591428 -0.1301487 0.21900445 -0.09916152 -0.066276 0.10685527 0.044418037 -0.09723327 -0.105464846 0.14006287 0.0011817627 0.13965249 0.1228092 0.2835026 0.2482034 -0.123413645 -0.28961095 0.12357994 -0.07348086 0.11362928 -0.17941643 -0.0027704649 -0.1171191 -0.049048252 0.053810067 0.009099785 0.08782036 -0.2768199 -0.025902899 -0.1509712 -0.1431309 0.15675244 0.02966082 -0.17782246 0.10047839
2210 0.0027026266 0.17660424 -0.10559662 0.006550967 -0.05988067 -0.22317551 -0.16188519 0.048522122 0.2527946 0.011779111 -0.16671884 0.10529217 0.16689 -0.14943804 -0.15590632 -0.07461785 -0.025481382 0.10728968 -0.41668656 -0.13310938 0.18146366 0.07804154 -0.01791741 -0.009474523 0.089187205 0.12007125 -0.089324825 0.14584565 -0.124221936 -0.23842843 0.03146255 0.016964251 0.003617703 -0.14239812 0.10176485 0.04571874 -0.13895822 -0.052702386 -0.19391961 -0.27008677 -0.08982059 -0.13458426 0.15321738 -0.11336619 -0.31537777 -0.300695 -0.20579071 -0.046484213 -0.24322946 -0.0018600288 0.30638367 -0.32632935 -0.11363513 0.26785275 -0.011825687 -0.08560749 -0.011508845 -0.2849263 0.29268205 0.0866355 -0.17805578 -0.040899545 0.25165853 0.12574568 -0.19156744 0.12691036 -0.025195157 0.36102238 0.0601929 0.1732559 0.059200265 0.055131704 -0.041747812 -0.17405799 0.03401159 0.033581216 -0.4166059 -0.04101636 0.13570572 -0.005207206 0.009208167 -0.00075995637 -0.1543502 -0.008237559 0.18138787 -0.21883915 -0.13930932 -0.20656073 -0.14138265 0.18690614 -0.004915375 -0.14840516 0.25585833 0.017075483 0.017622774 0.34760535 -0.042900715 -0.07146195 0.26099056 0.100761876 -0.21983668 0.023777083 -0.10935308 0.24858977 0.2552989 0.07156066 0.051445063 0.16544427 0.09236286 -0.21007073 0.15406144 -0.24298832 -0.22101471 0.26869547 0.02013266 -0.093087934 0.034281693 -0.12700109 -0.23851936 0.07616214 -0.23736921 -0.24353124 -0.056512896 0.1219753 -0.10855936 0.20682478 -0.043315843 -0.06719294
2969 0.2699071 0.04277763 0.13515379 0.07413183 0.27115315 -0.1083106 -0.14978778 -0.20274898 -0.22562236 0.22067057 -0.43714783 -0.038485795 0.5085684 -0.32882115 0.12104829 -0.15489586 0.34394458 0.01832653 -0.32031444 -0.09528864 0.43346348 0.03931549 -0.015497343 -0.24617407 0.023372356 -0.048745155 -0.1456955 -0.0023514368 0.19338381 0.0026310359 -0.07158984 -0.22654815 0.1803505 -0.093318425 -0.030126024 -0.010722847 -0.20629391 -0.26433092 -0.11222151 -0.09834918 0.111399725 -0.42502633 0.06918254 0.0075532617 0.09326295 -0.0861359 -0.15983312 -0.17658113 -0.25675187 0.22109778 0.14783654 -0.29736772 0.09310643 0.019794043 0.10812212 -0.14178292 -0.20708041 -0.32598338 0.25182962 -0.3814105 -0.24837297 0.06578186 0.033633433 0.36916265 0.027412143 0.2724404 -0.16663568 0.25796333 -0.050981626 0.31639624 0.14962025 -0.13382141 -0.0010728361 0.3585301 -0.12808913 0.13864128 -0.5498148 -0.092414826 -0.07526753 -0.09420152 0.22584355 0.05320551 -0.27590585 0.03419629 -0.058721967 -0.27794614 0.17292114 0.008066343 0.14472276 0.20396051 -0.05289778 -0.27283543 0.17125869 -0.47205728 0.29905397 0.14112438 -0.108082734 0.09465041 0.10645541 0.20188902 -0.47921187 -0.14165068 -0.2652897 0.06542841 0.2127189 0.25633028 0.3021265 0.34716272 -0.08545295 -0.2226967 -0.12746431 -0.30346775 0.04272492 -0.010235377 -0.050096165 0.09230614 0.30971566 -0.04618276 -0.5428199 0.07949341 -0.12951364 -0.16227897 -0.15818335 -0.091200486 -0.35073143 0.13378546 -0.05206886 0.119583696
3864 0.0037727372 0.24886386 -0.021669794 0.13693862 -0.11630899 -0.23786674 -0.09805674 -0.03691127 0.27142605 -0.030490847 -0.14063618 -0.09268121 0.064060345 -0.29701906 -0.044166684 -0.039730076 0.27532756 0.03850264 -0.3960384 -0.15794986 0.20702778 -0.044614125 -0.25310814 0.058095932 -0.02623637 0.13731393 0.08989634 0.20802954 -0.06338387 -0.2200053 0.13640365 -0.071522005 -0.024538232 0.2693486 0.11526237 -0.11795504 -0.049187347 0.24994287 -0.13536352 -0.17010593 0.14245296 0.22176233 0.2259412 -0.260368 -0.24238811 0.00047949524 -0.16594549 -0.04096855 -0.18766505 0.046152703 -0.027609494 -0.16659757 0.21816741 0.22081098 0.07775355 0.24598467 0.19809456 -0.48120362 0.20315562 -0.20511925 -0.058362156 -0.11352814 0.02618425 0.15165 -0.2586973 0.29062822 0.15528955 0.27567476 -0.0011967785 0.0812666 -0.044978786 -0.18995267 -0.12505339 0.10538604 0.014805756 -0.087230116 -0.5649667 0.06699755 0.15660281 0.05289482 -0.05083662 -0.08332227 0.028648753 0.17245999 0.08720133 -0.31741458 0.076919496 -0.11046013 -0.36543655 0.08487094 -0.23629373 -0.1195779 0.32232454 -0.09541115 -0.1001003 0.36207193 0.05408821 0.024629042 0.4318334 0.0904549 -0.058679484 0.104392506 -0.1587606 0.29082865 0.27085474 0.104957566 -0.009451041 0.11542304 0.024101458 -0.061876763 0.13527296 -0.2288053 0.205441 0.32533887 0.015193803 -0.15786923 0.32127798 0.059223104 -0.42660055 -0.0055401833 -0.16678683 0.07144852 -0.022967258 0.092692696 -0.012364144 0.27482572 -0.29441768 -0.12657875
